{
    "architecture": {
        "network_type": "SIREN",
        "layer_dimensions": [
            3,
            9,
            9,
            9,
            9,
            9,
            9,
            9,
            9,
            1
        ],
        "frequencies": 0,
        "original_values_bounds": [
            [
                -0.3499184250831604,
                3.0367188453674316
            ]
        ]
    },
    "parameters": {
        "l0_sinelayer_dense.kernel": {
            "data": [
                0.6358606815338135,
                0.1176629364490509,
                0.02882486768066883,
                0.47956469655036926,
                -0.5079049468040466,
                -0.07114075869321823,
                0.6089167594909668,
                -0.055599797517061234,
                0.2259513884782791,
                -0.30466940999031067,
                0.25348180532455444,
                -0.37373876571655273,
                0.028954651206731796,
                -0.32824766635894775,
                0.13539092242717743,
                -0.2866153419017792,
                0.5163372755050659,
                0.59931880235672,
                -0.5599653720855713,
                0.11307424306869507,
                -0.09942030161619186,
                -0.667323887348175,
                -0.050518978387117386,
                0.3675050437450409,
                0.7043802738189697,
                0.624707818031311,
                -0.6802195310592651
            ],
            "dims": [
                3,
                9
            ]
        },
        "l0_sinelayer_dense.bias": {
            "data": [
                0.12135167419910431,
                -0.03570803254842758,
                0.045370377600193024,
                -0.11870711296796799,
                -0.04445773363113403,
                -0.012868916615843773,
                0.01692965067923069,
                -0.03508957475423813,
                -0.05750440061092377
            ],
            "dims": [
                9,
                1
            ]
        },
        "l1_sineblock_dense_a.kernel": {
            "data": [
                0.597794234752655,
                -0.5507493615150452,
                -0.30435389280319214,
                -0.36346596479415894,
                0.39966151118278503,
                -0.024440383538603783,
                0.44037941098213196,
                -0.4954948127269745,
                0.2813301384449005,
                -0.5099402070045471,
                -0.2755652964115143,
                0.5699430704116821,
                0.4403798282146454,
                -0.4034747779369354,
                0.2685973048210144,
                -0.5761950016021729,
                -0.13201399147510529,
                0.31999632716178894,
                -0.44981619715690613,
                0.5294543504714966,
                -0.15020227432250977,
                0.28599444031715393,
                0.5554789304733276,
                0.03402785584330559,
                -0.24591171741485596,
                0.45291703939437866,
                0.4951379597187042,
                0.11260033398866653,
                0.018895164132118225,
                0.5165342092514038,
                0.44476011395454407,
                0.02376224473118782,
                -0.17596079409122467,
                0.3264627456665039,
                -0.046559955924749374,
                -0.1152431070804596,
                -0.001796635566279292,
                -0.20903483033180237,
                0.06339743733406067,
                -0.15423980355262756,
                -0.589142382144928,
                0.41933396458625793,
                0.3703111410140991,
                -0.4811306595802307,
                0.0057833329774439335,
                -0.4996449649333954,
                -0.0510995090007782,
                0.5794006586074829,
                0.0414632111787796,
                -0.1762477308511734,
                -0.2145625352859497,
                0.23812225461006165,
                -0.1073596253991127,
                0.09264136850833893,
                0.17800122499465942,
                0.06584057211875916,
                0.1995834857225418,
                0.22193950414657593,
                0.21289125084877014,
                -0.4497978985309601,
                -0.4907468855381012,
                0.5447170734405518,
                -0.030898842960596085,
                -0.01845725253224373,
                0.0700964406132698,
                -0.06821387261152267,
                0.444660484790802,
                -0.5671133399009705,
                -0.1298312544822693,
                -0.04228373244404793,
                -0.3009544909000397,
                0.014062979258596897,
                -0.26344892382621765,
                -0.4768136739730835,
                -0.371269166469574,
                -0.1828216165304184,
                -0.06561993807554245,
                0.23326878249645233,
                -0.291446328163147,
                -0.34024348855018616,
                -0.578401505947113
            ],
            "dims": [
                9,
                9
            ]
        },
        "l1_sineblock_dense_a.bias": {
            "data": [
                0.03701405972242355,
                0.02722664177417755,
                0.025879420340061188,
                -0.028342973440885544,
                0.06916026026010513,
                0.026490364223718643,
                -0.04072914272546768,
                0.021514369174838066,
                0.0447322316467762
            ],
            "dims": [
                9,
                1
            ]
        },
        "l1_sineblock_dense_b.kernel": {
            "data": [
                0.12689051032066345,
                0.1785283386707306,
                -0.42604804039001465,
                0.43362748622894287,
                -0.19948194921016693,
                0.15308324992656708,
                0.5809822082519531,
                0.06906608492136002,
                0.310729056596756,
                0.2667240798473358,
                -0.34325918555259705,
                -0.4268433749675751,
                0.0375155434012413,
                0.45797115564346313,
                0.46721240878105164,
                -0.2971741259098053,
                0.4300457835197449,
                0.28700074553489685,
                0.4645044505596161,
                0.1986844837665558,
                -0.3608476221561432,
                -0.3855727016925812,
                0.3029105067253113,
                -0.024616006761789322,
                -0.14383620023727417,
                -0.4102088510990143,
                -0.32126277685165405,
                0.517863929271698,
                0.29591113328933716,
                0.5633102059364319,
                -0.09220700711011887,
                -0.5991393327713013,
                -0.25011375546455383,
                -0.19468960165977478,
                -0.5455049276351929,
                -0.08098188787698746,
                -0.297181099653244,
                -0.24911314249038696,
                -0.5562009215354919,
                -0.09440386295318604,
                0.1469292789697647,
                -0.32803261280059814,
                0.16596777737140656,
                0.021983537822961807,
                0.004748212173581123,
                0.14312013983726501,
                0.17094452679157257,
                -0.22362768650054932,
                -0.0853484645485878,
                -0.26403605937957764,
                -0.15828824043273926,
                -0.41251906752586365,
                0.3593159019947052,
                0.41912853717803955,
                -0.5729806423187256,
                -0.044788092374801636,
                0.13232465088367462,
                0.27868402004241943,
                -0.042350731790065765,
                0.2791437804698944,
                0.1897076666355133,
                -0.12848658859729767,
                0.4059138298034668,
                0.006879471708089113,
                -0.17968350648880005,
                -0.3963368535041809,
                -0.30051934719085693,
                -0.47891291975975037,
                -0.4584439992904663,
                0.03298713639378548,
                -0.37828028202056885,
                0.2548811733722687,
                -0.5652998685836792,
                0.23757876455783844,
                -0.2714286744594574,
                -0.1663113236427307,
                0.38264983892440796,
                0.6601774096488953,
                0.30909931659698486,
                -0.03743527829647064,
                -0.2542835772037506
            ],
            "dims": [
                9,
                9
            ]
        },
        "l1_sineblock_dense_b.bias": {
            "data": [
                -0.008653524331748486,
                -0.010405300185084343,
                -0.017543349415063858,
                -0.033352017402648926,
                0.048886701464653015,
                0.07996351271867752,
                0.021866876631975174,
                0.13572637736797333,
                0.019552016630768776
            ],
            "dims": [
                9,
                1
            ]
        },
        "l2_sineblock_dense_a.kernel": {
            "data": [
                0.03622130677103996,
                -0.07402144372463226,
                0.306955486536026,
                -0.47581785917282104,
                -0.2320806384086609,
                0.23634400963783264,
                0.3259624242782593,
                -0.14554844796657562,
                -0.45979437232017517,
                0.3263905346393585,
                -0.015199128538370132,
                0.3298121690750122,
                -0.3399938642978668,
                0.2735535800457001,
                0.40274572372436523,
                0.115960992872715,
                -0.43896228075027466,
                0.3306565582752228,
                -0.08125528693199158,
                -0.014455524273216724,
                0.3520500063896179,
                0.18786540627479553,
                0.36354339122772217,
                -0.49534735083580017,
                0.5377834439277649,
                -0.32770463824272156,
                -0.35710254311561584,
                0.2695261836051941,
                -0.3357917368412018,
                0.17485369741916656,
                0.9465250968933105,
                0.2508184611797333,
                -0.37024828791618347,
                -0.153841033577919,
                -0.24522797763347626,
                -0.3778100311756134,
                -0.34361955523490906,
                -0.5361863970756531,
                0.0941343903541565,
                -0.2868703007698059,
                -0.4060508906841278,
                0.2877739667892456,
                -0.38344070315361023,
                0.17829202115535736,
                0.0921555757522583,
                -0.042260415852069855,
                -0.31264790892601013,
                0.09575328975915909,
                -0.4780012369155884,
                -0.22523720562458038,
                -0.10311654955148697,
                -0.2371692657470703,
                0.22417357563972473,
                -0.28579485416412354,
                0.005933898966759443,
                0.21558091044425964,
                0.39224961400032043,
                -0.462817519903183,
                -0.20656897127628326,
                -0.1389455497264862,
                -0.4183097779750824,
                -0.3500015139579773,
                -0.036742713302373886,
                0.01597508229315281,
                0.43921202421188354,
                -0.5995875000953674,
                0.1706988364458084,
                -0.48787131905555725,
                -0.2688271701335907,
                -0.2072581797838211,
                0.1502019464969635,
                -0.47097235918045044,
                -0.30503320693969727,
                0.03248602896928787,
                -0.5378475189208984,
                0.07052069157361984,
                -0.4479983150959015,
                0.2539517283439636,
                -0.555462121963501,
                0.45201170444488525,
                -0.3220920264720917
            ],
            "dims": [
                9,
                9
            ]
        },
        "l2_sineblock_dense_a.bias": {
            "data": [
                0.020608626306056976,
                0.0001160505271400325,
                -0.06306523829698563,
                0.02833203598856926,
                0.005509146023541689,
                0.0013691235799342394,
                0.00012517350842244923,
                0.007349527906626463,
                -0.024543922394514084
            ],
            "dims": [
                9,
                1
            ]
        },
        "l2_sineblock_dense_b.kernel": {
            "data": [
                0.44032400846481323,
                0.4290432035923004,
                0.02888675406575203,
                0.26672235131263733,
                -0.04079094156622887,
                0.23290018737316132,
                0.13381153345108032,
                -0.19067764282226562,
                0.5279659032821655,
                -0.3635024130344391,
                0.47553420066833496,
                0.21212610602378845,
                -0.09547088295221329,
                0.32058411836624146,
                0.42369353771209717,
                0.24278715252876282,
                -0.37938880920410156,
                -0.0022648372687399387,
                -0.05744139477610588,
                0.13613362610340118,
                0.3657485246658325,
                0.21721413731575012,
                -0.4647395610809326,
                -0.026108568534255028,
                0.46266627311706543,
                -0.33760175108909607,
                -0.41555920243263245,
                -0.21786735951900482,
                0.4350466728210449,
                -0.6090781688690186,
                -0.1320483237504959,
                0.011376840062439442,
                0.2603769302368164,
                0.32181885838508606,
                -0.37692007422447205,
                0.12695921957492828,
                0.4913428723812103,
                0.2691154181957245,
                -0.102547287940979,
                0.5339939594268799,
                -0.10639914870262146,
                0.1066882386803627,
                0.2300119251012802,
                -0.015713050961494446,
                0.011044435203075409,
                0.20223085582256317,
                0.042562566697597504,
                -0.29724419116973877,
                -0.2629022002220154,
                -0.15395843982696533,
                0.5279209613800049,
                -0.22922979295253754,
                -0.37055182456970215,
                0.23216712474822998,
                -0.23336933553218842,
                -0.5430395603179932,
                0.2596464455127716,
                -0.5102543234825134,
                0.4221799075603485,
                -0.27911177277565,
                0.4962698519229889,
                -0.46175411343574524,
                0.29406851530075073,
                -0.2089652270078659,
                -0.1648346334695816,
                0.060714758932590485,
                -0.09905318915843964,
                -0.3681395947933197,
                -0.041726090013980865,
                -0.09695141017436981,
                0.16265727579593658,
                -0.19900566339492798,
                -0.04616430029273033,
                0.40936121344566345,
                -0.425441712141037,
                -0.07689498364925385,
                -0.5832657217979431,
                0.03771067410707474,
                -0.5880850553512573,
                -0.5031283497810364,
                0.5699202418327332
            ],
            "dims": [
                9,
                9
            ]
        },
        "l2_sineblock_dense_b.bias": {
            "data": [
                -0.002187527483329177,
                0.02652202919125557,
                0.019868791103363037,
                -0.08915451914072037,
                0.004068601876497269,
                0.05949504300951958,
                0.07362648844718933,
                0.024457795545458794,
                -0.010103555396199226
            ],
            "dims": [
                9,
                1
            ]
        },
        "l3_sineblock_dense_a.kernel": {
            "data": [
                0.26082807779312134,
                0.22625423967838287,
                0.5861420631408691,
                0.29102060198783875,
                -0.5020769238471985,
                0.10528063029050827,
                -0.21606937050819397,
                0.01858556643128395,
                -0.35644441843032837,
                0.2865239977836609,
                0.2693836987018585,
                -0.41078975796699524,
                0.09556891024112701,
                -0.37941840291023254,
                0.11253733187913895,
                -0.16918043792247772,
                -0.4826393723487854,
                0.2972373962402344,
                -0.3990354537963867,
                -0.08562628924846649,
                0.5943344831466675,
                0.025884253904223442,
                -0.2617710530757904,
                0.4412812292575836,
                -0.11933490633964539,
                -0.2310233861207962,
                0.2171774059534073,
                -0.5456081628799438,
                -0.20983953773975372,
                0.3595747947692871,
                -0.3034970462322235,
                -0.1653820276260376,
                0.47195303440093994,
                0.47343915700912476,
                0.44800272583961487,
                -0.5324580073356628,
                -0.22697320580482483,
                0.5320854187011719,
                0.07737088203430176,
                -0.18742841482162476,
                0.18510694801807404,
                -0.08538880199193954,
                0.12361010164022446,
                -0.42826077342033386,
                0.16398398578166962,
                -0.08189168572425842,
                -0.330828458070755,
                -0.4868220388889313,
                0.1144842654466629,
                0.014276938512921333,
                -0.47007104754447937,
                0.26626765727996826,
                -0.4838024079799652,
                -0.25710737705230713,
                -0.24328221380710602,
                0.31087011098861694,
                -0.42394518852233887,
                0.35171201825141907,
                0.5481486320495605,
                -0.07917140424251556,
                -0.3399541974067688,
                -0.15329375863075256,
                0.3512375056743622,
                0.11105100810527802,
                0.14188505709171295,
                0.03286939114332199,
                0.5609511733055115,
                0.07733049243688583,
                0.16945195198059082,
                0.27469635009765625,
                0.20676638185977936,
                -0.39536023139953613,
                0.5495162606239319,
                -0.5705808401107788,
                0.4541574716567993,
                0.42047497630119324,
                0.3000694215297699,
                -0.25550222396850586,
                -0.21480372548103333,
                -0.2331198900938034,
                0.0441732220351696
            ],
            "dims": [
                9,
                9
            ]
        },
        "l3_sineblock_dense_a.bias": {
            "data": [
                0.012928237207233906,
                0.007452139165252447,
                -0.026905851438641548,
                -0.004065940622240305,
                0.13751274347305298,
                0.018959801644086838,
                -0.02926856093108654,
                -0.029047220945358276,
                0.006659099832177162
            ],
            "dims": [
                9,
                1
            ]
        },
        "l3_sineblock_dense_b.kernel": {
            "data": [
                0.2317071110010147,
                0.047493793070316315,
                0.4471847116947174,
                0.29099640250205994,
                0.09349706768989563,
                0.02750195749104023,
                -0.45408162474632263,
                -0.6505441665649414,
                -0.5439751744270325,
                -0.38028591871261597,
                -0.3361493647098541,
                0.5810646414756775,
                0.3654143214225769,
                -0.32800009846687317,
                -0.6027639508247375,
                0.14190822839736938,
                -0.05518478527665138,
                -0.17519989609718323,
                0.5772165060043335,
                -0.10948234796524048,
                -0.6536685228347778,
                0.16125686466693878,
                0.4172835648059845,
                -0.025574257597327232,
                -0.12188602983951569,
                -0.10096560418605804,
                -0.36228132247924805,
                -0.5364375114440918,
                0.4915250241756439,
                -0.34340700507164,
                0.4648030400276184,
                -0.1304096281528473,
                0.24223516881465912,
                -0.09953279793262482,
                -0.43583306670188904,
                -0.2829357385635376,
                0.2718694806098938,
                -0.5039287209510803,
                0.5108642578125,
                -0.10326337069272995,
                0.2786259949207306,
                -0.11031481623649597,
                0.06091257557272911,
                0.1971990466117859,
                -0.561838686466217,
                -0.03770804405212402,
                -0.5680208206176758,
                -0.1293448656797409,
                0.04154232516884804,
                0.4558473229408264,
                0.49421870708465576,
                0.32877638936042786,
                -0.2989528775215149,
                -0.22778207063674927,
                0.08621623367071152,
                0.21037672460079193,
                -0.1717170923948288,
                0.2546270489692688,
                0.3252936005592346,
                -0.5077637434005737,
                -0.3743305206298828,
                0.1269034445285797,
                0.07356594502925873,
                0.17964909970760345,
                -0.49897491931915283,
                -0.4264540672302246,
                0.21656662225723267,
                -0.47074025869369507,
                -0.3516317307949066,
                -0.07106064260005951,
                -0.27215808629989624,
                0.4333452582359314,
                -0.2607167959213257,
                -0.16060957312583923,
                -0.37999263405799866,
                -0.10753162205219269,
                0.39865970611572266,
                0.12208125740289688,
                0.3558678925037384,
                -0.14273600280284882,
                -0.3602834641933441
            ],
            "dims": [
                9,
                9
            ]
        },
        "l3_sineblock_dense_b.bias": {
            "data": [
                -0.036601245403289795,
                -0.0037954526487737894,
                0.134637713432312,
                -0.024316132068634033,
                0.015574309043586254,
                0.041759341955184937,
                0.01578066311776638,
                0.07048039138317108,
                -0.014193249866366386
            ],
            "dims": [
                9,
                1
            ]
        },
        "l4_sineblock_dense_a.kernel": {
            "data": [
                -0.3015217185020447,
                -0.592335045337677,
                0.6025254130363464,
                0.16567862033843994,
                0.6411150693893433,
                0.26969340443611145,
                0.01956353709101677,
                0.14666399359703064,
                0.4501623213291168,
                -0.03684324771165848,
                -0.4324420094490051,
                0.311336874961853,
                0.21058768033981323,
                -0.05933339521288872,
                -0.3948749303817749,
                0.4373774230480194,
                0.12463730573654175,
                -0.7228572964668274,
                -0.08498615026473999,
                0.47855156660079956,
                -0.061161793768405914,
                -0.4986349046230316,
                -0.5093104243278503,
                0.34505510330200195,
                0.03339364752173424,
                0.13662253320217133,
                -0.0841154083609581,
                -0.3089078962802887,
                0.46556761860847473,
                0.04298914968967438,
                -0.5993578433990479,
                -0.2626557946205139,
                0.05905265733599663,
                -0.38689935207366943,
                -0.28900250792503357,
                0.6190536618232727,
                0.6001670956611633,
                -0.1738716959953308,
                -0.2959449291229248,
                0.5035895109176636,
                0.163854718208313,
                0.2281486839056015,
                0.20362991094589233,
                0.02135588973760605,
                -0.021453943103551865,
                0.2001274675130844,
                -0.13929912447929382,
                -0.16628792881965637,
                0.21292555332183838,
                0.013654222711920738,
                0.582841694355011,
                0.009774777106940746,
                0.19759753346443176,
                -0.4081283509731293,
                -0.2602694034576416,
                -0.5360807180404663,
                -0.41187405586242676,
                0.468619704246521,
                0.5638543963432312,
                0.026817239820957184,
                -0.24123358726501465,
                0.10940282046794891,
                -0.3108287453651428,
                -0.13306017220020294,
                -0.015670405700802803,
                -0.3716946840286255,
                0.3852395713329315,
                -0.4676373600959778,
                0.2997443974018097,
                -0.4156993627548218,
                0.06034388393163681,
                0.0842062458395958,
                -0.0725213885307312,
                -0.5862218141555786,
                0.30249693989753723,
                0.5184959173202515,
                0.16264261305332184,
                -0.38895708322525024,
                0.04404860734939575,
                0.13169708847999573,
                -0.25133374333381653
            ],
            "dims": [
                9,
                9
            ]
        },
        "l4_sineblock_dense_a.bias": {
            "data": [
                0.05510985851287842,
                -0.03930035978555679,
                -0.006460374221205711,
                -0.0022393641993403435,
                -0.22767619788646698,
                0.0219265203922987,
                -0.03708530217409134,
                -0.012972543016076088,
                -0.07673678547143936
            ],
            "dims": [
                9,
                1
            ]
        },
        "l4_sineblock_dense_b.kernel": {
            "data": [
                -0.1017422080039978,
                -0.5182987451553345,
                -0.3366415202617645,
                0.4981495141983032,
                0.4819240868091583,
                -0.28451815247535706,
                1.0293647050857544,
                0.21292877197265625,
                -0.05781635269522667,
                0.05071636661887169,
                0.5583506226539612,
                -0.41797101497650146,
                -0.23895376920700073,
                -0.5492300391197205,
                0.04474461078643799,
                0.5884897708892822,
                0.1019178107380867,
                -0.26828131079673767,
                0.3171284794807434,
                -0.02128378115594387,
                -0.47146812081336975,
                -0.4753043055534363,
                -0.01852250099182129,
                -0.02950541116297245,
                -0.09691111743450165,
                -0.3675999343395233,
                0.6048840880393982,
                0.3615478277206421,
                -0.1730925291776657,
                -0.3617625832557678,
                -0.3598652780056,
                0.42276063561439514,
                0.11796950548887253,
                0.5781930685043335,
                0.2521517872810364,
                -0.3001110255718231,
                0.07377821207046509,
                -0.08351287990808487,
                -0.3967021405696869,
                -0.42918872833251953,
                0.009822818450629711,
                0.25863155722618103,
                -0.36044350266456604,
                0.5171157121658325,
                0.0946393758058548,
                0.04943108931183815,
                0.2246035635471344,
                0.4623621702194214,
                -0.27474191784858704,
                0.19376853108406067,
                -0.23616056144237518,
                -0.3973296582698822,
                0.21377518773078918,
                0.37273719906806946,
                -0.343056321144104,
                0.40522822737693787,
                0.45837756991386414,
                0.222577765583992,
                0.08610162138938904,
                -0.18184958398342133,
                0.14643967151641846,
                -0.5646240711212158,
                0.5610609650611877,
                0.2095164954662323,
                0.4440194070339203,
                -0.08475737273693085,
                0.40213751792907715,
                -0.3070377707481384,
                -0.4815307557582855,
                -0.4199810326099396,
                -0.33592256903648376,
                0.34703072905540466,
                0.1060960441827774,
                -0.3703910708427429,
                0.33470621705055237,
                -0.12842229008674622,
                -0.2973593771457672,
                -0.005032748449593782,
                0.3463934361934662,
                0.23819014430046082,
                0.1265496462583542
            ],
            "dims": [
                9,
                9
            ]
        },
        "l4_sineblock_dense_b.bias": {
            "data": [
                0.03931581228971481,
                -0.03813953697681427,
                0.12274636328220367,
                -0.011005441658198833,
                0.013504664413630962,
                0.04588240385055542,
                -0.011992037296295166,
                0.019788749516010284,
                0.0013383965706452727
            ],
            "dims": [
                9,
                1
            ]
        },
        "l5_sineblock_dense_a.kernel": {
            "data": [
                -0.19557708501815796,
                0.077961266040802,
                -0.47892048954963684,
                -0.6023985147476196,
                -0.36498311161994934,
                -0.2548057734966278,
                0.44740891456604004,
                -0.16536857187747955,
                -0.04865646734833717,
                0.29102009534835815,
                0.22320586442947388,
                -0.08883216232061386,
                -0.11633846163749695,
                0.31386086344718933,
                -0.31942126154899597,
                0.5126602053642273,
                0.4016461670398712,
                -0.06825632601976395,
                0.07599783688783646,
                0.49090903997421265,
                -0.5134657025337219,
                0.16986161470413208,
                -0.1466015875339508,
                -0.33180931210517883,
                -0.22778695821762085,
                0.05777515470981598,
                -0.33170226216316223,
                0.10326533019542694,
                -0.12123312056064606,
                0.7183187007904053,
                -0.09224328398704529,
                -0.25478482246398926,
                -0.775290310382843,
                -0.13569504022598267,
                0.3157653510570526,
                0.16330711543560028,
                0.09316108375787735,
                -0.343162477016449,
                0.39520522952079773,
                -0.3603902757167816,
                0.21145103871822357,
                -0.4489764869213104,
                0.6264327168464661,
                0.2719368636608124,
                -0.536937952041626,
                -0.2589494585990906,
                0.4570979177951813,
                0.009993431158363819,
                0.2795109450817108,
                0.18380841612815857,
                0.3404395878314972,
                -0.3256649076938629,
                0.27558377385139465,
                -0.23588840663433075,
                -0.005346345249563456,
                0.19302134215831757,
                0.16832539439201355,
                -0.0427410714328289,
                0.5620251297950745,
                -0.5150794386863708,
                -0.6778637170791626,
                0.24953995645046234,
                -0.37505343556404114,
                -0.3627011775970459,
                -0.3439771234989166,
                -0.3292905390262604,
                0.053105197846889496,
                -0.4450274705886841,
                0.25608980655670166,
                -0.6854745149612427,
                -0.42267200350761414,
                0.3629525601863861,
                0.16652818024158478,
                -0.2345530241727829,
                -0.5136832594871521,
                -0.39609429240226746,
                0.5205499529838562,
                0.16722042858600616,
                0.44851329922676086,
                0.003616150002926588,
                -0.061772286891937256
            ],
            "dims": [
                9,
                9
            ]
        },
        "l5_sineblock_dense_a.bias": {
            "data": [
                0.012521106749773026,
                -0.03370203077793121,
                -0.0543532632291317,
                -0.1876191347837448,
                -0.024960042908787727,
                0.05884837731719017,
                -0.13305816054344177,
                0.03654239699244499,
                -0.16350984573364258
            ],
            "dims": [
                9,
                1
            ]
        },
        "l5_sineblock_dense_b.kernel": {
            "data": [
                0.2883983850479126,
                -0.04926878958940506,
                -0.03796142339706421,
                -0.35731589794158936,
                -0.091097891330719,
                -0.4643499255180359,
                -0.038683708757162094,
                0.5003496408462524,
                -0.28601670265197754,
                0.3991309404373169,
                -0.5335683226585388,
                -0.3948255777359009,
                -0.3417050540447235,
                0.038615740835666656,
                -0.34523800015449524,
                0.03326360136270523,
                -0.36370372772216797,
                0.36239904165267944,
                0.47432741522789,
                0.028849376365542412,
                -0.4474491775035858,
                0.28178638219833374,
                -0.15950191020965576,
                -0.49694058299064636,
                -0.3846457302570343,
                -0.27868136763572693,
                0.12154155969619751,
                -0.18293604254722595,
                -0.4816395044326782,
                0.2716239094734192,
                0.4616776704788208,
                -0.35109198093414307,
                -0.2651238739490509,
                -0.317226380109787,
                -0.5316094160079956,
                -0.47980982065200806,
                -0.4718356430530548,
                -0.33518847823143005,
                0.34506359696388245,
                0.3165810704231262,
                0.5531983971595764,
                0.3800565004348755,
                0.24359460175037384,
                0.3865255117416382,
                -0.3058021366596222,
                -0.18729570508003235,
                -0.09530860185623169,
                0.638786256313324,
                -0.4785635471343994,
                -0.3658352792263031,
                -0.15968777239322662,
                0.20185579359531403,
                0.14454592764377594,
                0.43756401538848877,
                -0.19941340386867523,
                0.16440586745738983,
                0.584708034992218,
                0.30841460824012756,
                0.03902728110551834,
                0.543230414390564,
                -0.058173827826976776,
                0.2462545484304428,
                -0.22957070171833038,
                -0.4069298505783081,
                0.479203999042511,
                0.38745778799057007,
                0.18346747756004333,
                -0.041285499930381775,
                -0.15832655131816864,
                -0.19664143025875092,
                -0.411358118057251,
                0.34249845147132874,
                0.10097282379865646,
                0.38336479663848877,
                0.08836792409420013,
                -0.14377900958061218,
                0.3419783413410187,
                0.2404186725616455,
                -0.6309749484062195,
                -0.1817476898431778,
                0.03321897238492966
            ],
            "dims": [
                9,
                9
            ]
        },
        "l5_sineblock_dense_b.bias": {
            "data": [
                -0.01752966269850731,
                0.00922594964504242,
                0.1690150648355484,
                -0.01065126247704029,
                0.033007703721523285,
                0.05292285606265068,
                0.2495480328798294,
                0.023111537098884583,
                -0.07409597188234329
            ],
            "dims": [
                9,
                1
            ]
        },
        "l6_sineblock_dense_a.kernel": {
            "data": [
                0.31600257754325867,
                -0.03162239491939545,
                0.415772944688797,
                -0.24507369101047516,
                -0.2796804904937744,
                -0.1669120192527771,
                -0.4156440794467926,
                0.6236870884895325,
                0.30352574586868286,
                -0.19273598492145538,
                0.29641374945640564,
                -0.023287111893296242,
                -0.11312688142061234,
                -0.25154682993888855,
                -0.5435091257095337,
                -0.1487751454114914,
                0.09667909145355225,
                -0.19925852119922638,
                -0.1105351373553276,
                -0.11998900771141052,
                0.5132133364677429,
                0.4838961660861969,
                -0.029262887313961983,
                0.13401171565055847,
                -0.09377746284008026,
                -0.199867382645607,
                0.05251957103610039,
                -0.24781246483325958,
                -0.3676716089248657,
                -0.10408411175012589,
                -0.34952500462532043,
                -0.2996383011341095,
                -0.05901677906513214,
                -0.41060686111450195,
                0.6547395586967468,
                -0.5461066961288452,
                0.16470779478549957,
                -0.05776060372591019,
                -0.3835153579711914,
                -0.10341179370880127,
                0.5189986228942871,
                0.12649524211883545,
                0.5009225606918335,
                0.37702763080596924,
                0.27334558963775635,
                0.013103747740387917,
                0.05226348713040352,
                0.32965436577796936,
                0.3430607318878174,
                -0.2748369574546814,
                -0.31147947907447815,
                0.2626223564147949,
                0.43037405610084534,
                0.11843158304691315,
                0.4768541753292084,
                0.32300305366516113,
                0.5935322642326355,
                0.3692401647567749,
                0.14641894400119781,
                -0.5765449404716492,
                0.11406565457582474,
                -0.303205281496048,
                -0.6802959442138672,
                0.4313592314720154,
                -0.21017080545425415,
                0.5279062986373901,
                0.06995153427124023,
                -0.29151102900505066,
                -0.6003478765487671,
                0.48284173011779785,
                0.2966497838497162,
                -0.2424195110797882,
                -0.5557891130447388,
                0.29881975054740906,
                0.300782710313797,
                -0.4351675808429718,
                0.3270941376686096,
                0.42504918575286865,
                0.5319907069206238,
                0.22663840651512146,
                0.46154114603996277
            ],
            "dims": [
                9,
                9
            ]
        },
        "l6_sineblock_dense_a.bias": {
            "data": [
                0.14552715420722961,
                0.006021144334226847,
                0.09190627187490463,
                -0.057811491191387177,
                0.00893220491707325,
                -0.11107073724269867,
                0.006259636487811804,
                -0.09267077594995499,
                0.0058966814540326595
            ],
            "dims": [
                9,
                1
            ]
        },
        "l6_sineblock_dense_b.kernel": {
            "data": [
                0.1615637093782425,
                -0.17640738189220428,
                0.26542022824287415,
                0.16993848979473114,
                -0.08992629498243332,
                0.09276338666677475,
                0.1877538412809372,
                -0.6093615889549255,
                -0.8126105070114136,
                0.4735327363014221,
                0.5366336107254028,
                0.4121461510658264,
                0.5238064527511597,
                0.11369386315345764,
                -0.08514135330915451,
                0.03308991715312004,
                0.49074065685272217,
                -0.7451303601264954,
                0.24047043919563293,
                -0.1537707895040512,
                0.4617873430252075,
                -0.39100971817970276,
                -0.4465012550354004,
                -0.15046924352645874,
                0.4207078814506531,
                -0.5288925766944885,
                -0.2193843275308609,
                -0.30709201097488403,
                0.552643895149231,
                -0.028339901939034462,
                0.3490826487541199,
                0.6027351021766663,
                -0.44419223070144653,
                -0.5097109079360962,
                0.1433016061782837,
                0.18842804431915283,
                -0.06572788953781128,
                0.2999178171157837,
                0.5200297236442566,
                0.256571888923645,
                0.42576396465301514,
                0.44677215814590454,
                0.213578999042511,
                -0.03956347331404686,
                0.5384542346000671,
                0.611428439617157,
                0.23519925773143768,
                -0.0950632095336914,
                -0.39010292291641235,
                0.5903843641281128,
                -0.09245390444993973,
                -0.4332074522972107,
                0.46609655022621155,
                0.497306764125824,
                0.47164395451545715,
                -0.40320757031440735,
                0.6564884781837463,
                -0.5764431953430176,
                -0.09981320798397064,
                0.24545881152153015,
                0.44486552476882935,
                -0.40679168701171875,
                0.021171893924474716,
                -0.27100133895874023,
                -0.012853935360908508,
                0.2744958996772766,
                -0.10666542500257492,
                -0.37395480275154114,
                0.32506492733955383,
                -0.4520207941532135,
                -0.4153556823730469,
                -0.46831730008125305,
                -0.4923345148563385,
                0.4653496742248535,
                -0.38083505630493164,
                -0.153627410531044,
                -0.12553903460502625,
                -0.1472422182559967,
                -0.6216963529586792,
                0.34211206436157227,
                -0.5088099837303162
            ],
            "dims": [
                9,
                9
            ]
        },
        "l6_sineblock_dense_b.bias": {
            "data": [
                -0.04262709245085716,
                -0.01770385354757309,
                0.026521829888224602,
                -0.10534735769033432,
                -0.01546227466315031,
                0.03428899496793747,
                0.14952346682548523,
                -0.02033088728785515,
                -0.22681984305381775
            ],
            "dims": [
                9,
                1
            ]
        },
        "l7_sineblock_dense_a.kernel": {
            "data": [
                -0.3203471899032593,
                -0.26319995522499084,
                0.3267718255519867,
                0.19898250699043274,
                -0.3052031695842743,
                0.2014809548854828,
                0.39825859665870667,
                0.004368254914879799,
                -0.028158890083432198,
                -0.32697242498397827,
                0.5493232607841492,
                0.7647338509559631,
                -0.62624192237854,
                0.318613737821579,
                -0.3640713691711426,
                -0.007648739963769913,
                0.16907063126564026,
                0.34368929266929626,
                0.35640716552734375,
                0.6696155667304993,
                -0.4980442225933075,
                0.556469202041626,
                0.4651552736759186,
                0.1401391625404358,
                0.039550259709358215,
                -0.05754958465695381,
                -0.3084173798561096,
                -0.038137368857860565,
                0.32860079407691956,
                -0.3931696116924286,
                0.42595407366752625,
                0.6574466824531555,
                0.18571652472019196,
                -0.5200565457344055,
                0.24044939875602722,
                0.2682451605796814,
                0.4145256578922272,
                0.30565977096557617,
                -0.32908257842063904,
                0.2953154444694519,
                0.5130184292793274,
                -0.43994954228401184,
                0.5593206882476807,
                -0.046660590916872025,
                0.14969608187675476,
                0.49124595522880554,
                -0.1512444168329239,
                0.05980577692389488,
                -0.1424591839313507,
                0.3163165748119354,
                0.3531719148159027,
                0.45846256613731384,
                0.49563273787498474,
                -0.596972644329071,
                -0.5134254693984985,
                -0.017030127346515656,
                -0.32081136107444763,
                0.13261055946350098,
                -0.07452180981636047,
                -0.43019354343414307,
                -0.01428403239697218,
                -0.1712355613708496,
                -0.6888225674629211,
                -0.22801753878593445,
                -0.27959027886390686,
                -0.13899637758731842,
                0.05077556148171425,
                -0.1397571563720703,
                -0.08802979439496994,
                0.4106389880180359,
                0.4434664249420166,
                -0.05440254881978035,
                0.2033008188009262,
                -0.8675079345703125,
                -0.09148816019296646,
                -0.0486602783203125,
                0.619059145450592,
                -0.17644034326076508,
                0.10617430508136749,
                0.22678330540657043,
                -0.14081056416034698
            ],
            "dims": [
                9,
                9
            ]
        },
        "l7_sineblock_dense_a.bias": {
            "data": [
                -0.033763572573661804,
                -0.0040132589638233185,
                -0.07337599992752075,
                0.07585681974887848,
                -0.3221198618412018,
                -0.04680970311164856,
                0.07013572007417679,
                0.3418126404285431,
                0.12665726244449615
            ],
            "dims": [
                9,
                1
            ]
        },
        "l7_sineblock_dense_b.kernel": {
            "data": [
                -0.28767120838165283,
                -0.17266179621219635,
                0.3172052204608917,
                -0.42894527316093445,
                0.1785992681980133,
                -0.11675631999969482,
                0.4083637595176697,
                -0.4559914469718933,
                0.1676998734474182,
                -0.17452962696552277,
                0.4420996904373169,
                0.0065351868979632854,
                -0.10653793066740036,
                -0.170779749751091,
                0.061423998326063156,
                -0.4235343039035797,
                0.3045945167541504,
                -0.15640410780906677,
                -0.40169382095336914,
                0.35569268465042114,
                -0.3252769112586975,
                -0.18421445786952972,
                0.19530129432678223,
                -0.3509521782398224,
                0.32514259219169617,
                0.3374103307723999,
                -0.27980244159698486,
                0.40834611654281616,
                -0.19497565925121307,
                -0.3267827033996582,
                -0.3565754294395447,
                0.6168715953826904,
                0.4196089208126068,
                0.5507875680923462,
                -0.3067563772201538,
                0.12411708384752274,
                0.08667007833719254,
                0.14542900025844574,
                0.2959769666194916,
                0.3002285063266754,
                -0.3914560079574585,
                0.031240491196513176,
                -0.5139298439025879,
                0.5306214690208435,
                0.3429109752178192,
                0.4470425844192505,
                -0.2662496268749237,
                -0.434708833694458,
                -0.45594528317451477,
                -0.5167781710624695,
                -0.5459354519844055,
                -0.13268525898456573,
                -0.3420831561088562,
                0.4916013777256012,
                -0.586757481098175,
                -0.4621981978416443,
                0.3042472004890442,
                0.06734029948711395,
                0.27424779534339905,
                0.5322141647338867,
                -0.37240785360336304,
                0.32476091384887695,
                0.348847359418869,
                -0.2116612195968628,
                0.30216333270072937,
                0.1718362718820572,
                -0.2567497789859772,
                0.24667781591415405,
                0.11437241733074188,
                -0.2046271413564682,
                -0.6224454045295715,
                -0.3247244358062744,
                -0.29424870014190674,
                0.14530089497566223,
                -0.3179888427257538,
                -0.37693676352500916,
                0.24336346983909607,
                -0.4664371609687805,
                -0.24750636518001556,
                -0.23002474009990692,
                0.05648486316204071
            ],
            "dims": [
                9,
                9
            ]
        },
        "l7_sineblock_dense_b.bias": {
            "data": [
                -0.052034780383110046,
                -0.03467537462711334,
                0.20226788520812988,
                0.11680786311626434,
                0.1989387571811676,
                0.20541588962078094,
                0.07992172241210938,
                -0.13033275306224823,
                -0.10931555926799774
            ],
            "dims": [
                9,
                1
            ]
        },
        "l8_sineblock_dense_a.kernel": {
            "data": [
                -0.3472108244895935,
                0.12622082233428955,
                -0.2958727478981018,
                0.25279679894447327,
                -0.3439594805240631,
                -0.8384682536125183,
                -0.47863274812698364,
                0.5814069509506226,
                0.27314847707748413,
                -0.06419691443443298,
                -0.0123469652608037,
                -0.009207792580127716,
                0.909027636051178,
                -0.0703233927488327,
                -0.43063732981681824,
                -0.07846439629793167,
                0.43623796105384827,
                -0.5506316423416138,
                -0.3878466784954071,
                -0.07635461539030075,
                -0.05169280990958214,
                0.300360769033432,
                0.3366715908050537,
                -0.2769389748573303,
                -0.021800942718982697,
                -0.1890852004289627,
                -0.5700632929801941,
                0.07575725764036179,
                0.5971342921257019,
                0.4917323887348175,
                0.06458717584609985,
                0.2137703001499176,
                0.3779333531856537,
                -0.2684100270271301,
                0.6195129752159119,
                0.47110626101493835,
                0.17579185962677002,
                0.14641907811164856,
                0.3143789768218994,
                0.37073567509651184,
                -0.5302077531814575,
                -0.07947015762329102,
                -0.42356911301612854,
                -0.5322843194007874,
                -0.26365676522254944,
                0.47498419880867004,
                -0.45897990465164185,
                0.380985289812088,
                -0.30899176001548767,
                0.4279544949531555,
                -0.4122553765773773,
                -0.23385952413082123,
                -0.26447954773902893,
                -0.11915092915296555,
                -0.06890253722667694,
                0.19150188565254211,
                -0.1954958438873291,
                0.39710521697998047,
                -0.049354612827301025,
                -0.1976529061794281,
                0.13985450565814972,
                -0.804713785648346,
                0.1955939531326294,
                0.46662503480911255,
                0.651873767375946,
                -0.2545749843120575,
                0.29971423745155334,
                0.4185277819633484,
                0.056473780423402786,
                0.23339425027370453,
                0.3010806739330292,
                0.44060030579566956,
                0.551389217376709,
                0.5429763197898865,
                0.7284070253372192,
                0.4191509485244751,
                0.666788637638092,
                0.10692097991704941,
                0.2493620365858078,
                -0.42424944043159485,
                0.3871113657951355
            ],
            "dims": [
                9,
                9
            ]
        },
        "l8_sineblock_dense_a.bias": {
            "data": [
                0.2820175588130951,
                -0.1122727021574974,
                0.038270264863967896,
                0.3279401361942291,
                -0.0057867905125021935,
                0.24184183776378632,
                0.06170973554253578,
                0.12726585566997528,
                -0.23131297528743744
            ],
            "dims": [
                9,
                1
            ]
        },
        "l8_sineblock_dense_b.kernel": {
            "data": [
                -0.18460536003112793,
                -0.02300168387591839,
                0.4075932204723358,
                0.32063138484954834,
                0.7854629158973694,
                -0.38025733828544617,
                0.0007051574066281319,
                -0.03191959857940674,
                -0.023357059806585312,
                0.5133359432220459,
                0.6395876407623291,
                -0.27756941318511963,
                -0.07321598380804062,
                -0.1629134714603424,
                0.4636417627334595,
                0.10631400346755981,
                0.5709364414215088,
                0.37177422642707825,
                -0.2792370319366455,
                0.04693751037120819,
                -0.4759172797203064,
                -0.38128095865249634,
                0.4356842339038849,
                0.3054225444793701,
                -0.3961951732635498,
                -0.08070705085992813,
                -0.11695776134729385,
                0.6043692827224731,
                -0.30847927927970886,
                0.4133438169956207,
                0.2674011290073395,
                -0.09841642528772354,
                0.16732624173164368,
                -0.20577695965766907,
                -0.12449649721384048,
                -0.2769452631473541,
                -1.0052515268325806,
                0.2584148645401001,
                -0.5372073650360107,
                -0.4408809244632721,
                0.5452852249145508,
                0.391416996717453,
                0.30971741676330566,
                0.44254162907600403,
                0.5442541837692261,
                0.5376189947128296,
                0.08403893560171127,
                0.24166464805603027,
                0.2776952087879181,
                0.6582812666893005,
                -0.2791162431240082,
                0.3248729705810547,
                0.2782963514328003,
                0.231886088848114,
                0.38789767026901245,
                0.1204935684800148,
                0.3748134970664978,
                0.3561771512031555,
                0.6490369439125061,
                -0.48296990990638733,
                0.4073960781097412,
                -0.09828478842973709,
                -0.1495179533958435,
                0.443484365940094,
                0.028095729649066925,
                0.001385299488902092,
                -0.14436915516853333,
                -0.43253442645072937,
                0.47315746545791626,
                -0.01034416165202856,
                0.5761821269989014,
                -0.2999637722969055,
                -0.11598172038793564,
                0.19216175377368927,
                0.6150503158569336,
                0.5528836250305176,
                -0.11352769285440445,
                0.39346519112586975,
                -0.16625818610191345,
                -0.5507745146751404,
                -0.0883597731590271
            ],
            "dims": [
                9,
                9
            ]
        },
        "l8_sineblock_dense_b.bias": {
            "data": [
                0.137862890958786,
                -0.10113687068223953,
                0.0008829018916003406,
                0.06497535109519958,
                0.004026178270578384,
                -0.023573923856019974,
                0.08606678247451782,
                -0.07865419238805771,
                -0.1235869973897934
            ],
            "dims": [
                9,
                1
            ]
        },
        "l9_output.kernel": {
            "data": [
                -0.6326600909233093,
                -0.8268226385116577,
                0.5133014917373657,
                0.35306215286254883,
                0.5813537836074829,
                0.5632086396217346,
                0.8652970790863037,
                -0.7858389019966125,
                -0.08857794851064682
            ],
            "dims": [
                9,
                1
            ]
        },
        "l9_output.bias": {
            "data": [
                0.10908044129610062
            ],
            "dims": [
                1,
                1
            ]
        }
    }
}