{
    "architecture": {
        "network_type": "SIREN",
        "layer_dimensions": [
            3,
            22,
            22,
            22,
            22,
            22,
            22,
            22,
            22,
            1
        ],
        "frequencies": 0,
        "original_values_bounds": [
            [
                -0.3499184250831604,
                3.0367188453674316
            ]
        ]
    },
    "parameters": {
        "l0_sinelayer_dense.kernel": {
            "data": [
                0.15778377652168274,
                -0.02361726388335228,
                0.0970025435090065,
                0.26509344577789307,
                -0.3447597026824951,
                -0.045993268489837646,
                0.2708435356616974,
                0.014574164524674416,
                0.17443084716796875,
                -0.21508346498012543,
                0.1663181483745575,
                -0.2761514484882355,
                0.1415344774723053,
                -0.22388917207717896,
                0.11350852251052856,
                -0.02532309666275978,
                0.36737313866615295,
                0.450427383184433,
                -0.3926953375339508,
                0.02319314517080784,
                -0.04492989182472229,
                -0.48275843262672424,
                -0.05080171674489975,
                0.2290058135986328,
                0.5041143298149109,
                0.4630625545978546,
                -0.37975093722343445,
                0.18889392912387848,
                -0.3223712742328644,
                0.019919129088521004,
                -0.3923867642879486,
                0.39192235469818115,
                0.3343571126461029,
                0.3538385033607483,
                -0.3580532371997833,
                -0.38451239466667175,
                -0.06516668945550919,
                -0.09911289811134338,
                -0.07246311008930206,
                0.12725995481014252,
                0.015726590529084206,
                -0.12751223146915436,
                -0.05779888108372688,
                0.3934580981731415,
                -0.27156829833984375,
                0.46871572732925415,
                0.36319008469581604,
                0.03691418096423149,
                -0.3691530227661133,
                -0.13297481834888458,
                -0.3022444546222687,
                0.2442820966243744,
                0.037247490137815475,
                0.35729146003723145,
                -0.09132665395736694,
                0.4199538230895996,
                -0.039600472897291183,
                0.2952076196670532,
                0.0731344148516655,
                0.45666518807411194,
                -0.28351619839668274,
                0.16177217662334442,
                -0.31605178117752075,
                -0.10216537117958069,
                -0.43748295307159424,
                0.41880422830581665
            ],
            "dims": [
                3,
                22
            ]
        },
        "l0_sinelayer_dense.bias": {
            "data": [
                0.005034010857343674,
                0.008260144852101803,
                -0.027293788269162178,
                -0.014731860719621181,
                0.008286658674478531,
                -0.02685944363474846,
                0.01147135253995657,
                -0.015411204658448696,
                -0.005565991159528494,
                0.00873117707669735,
                -0.016219746321439743,
                -0.016329029574990273,
                -0.011809000745415688,
                0.013741552829742432,
                -0.006739565171301365,
                -0.01592503860592842,
                0.03915528953075409,
                -0.003687732620164752,
                -0.005617700517177582,
                -0.010110895149409771,
                0.018597016111016273,
                -0.010260202921926975
            ],
            "dims": [
                22,
                1
            ]
        },
        "l1_sineblock_dense_a.kernel": {
            "data": [
                0.3527998626232147,
                -0.3361324667930603,
                -0.18843306601047516,
                -0.2431296855211258,
                0.2196892499923706,
                0.02668241783976555,
                0.29144275188446045,
                -0.3373740017414093,
                0.1809563785791397,
                -0.29963991045951843,
                -0.18485552072525024,
                0.3701329231262207,
                0.26851576566696167,
                -0.28371861577033997,
                0.1598358452320099,
                -0.35188448429107666,
                -0.06876804679632187,
                0.19499558210372925,
                -0.2969313859939575,
                0.364288330078125,
                -0.0949772372841835,
                0.1760004460811615,
                0.3343886435031891,
                0.02811819314956665,
                -0.17736652493476868,
                0.2804582417011261,
                0.32710206508636475,
                0.07903233170509338,
                0.08180602639913559,
                0.33158811926841736,
                0.2315739393234253,
                0.005966193042695522,
                -0.10686217993497849,
                0.2985105812549591,
                -0.010923358611762524,
                -0.01998436637222767,
                -0.0033725642133504152,
                -0.14485317468643188,
                0.08114971965551376,
                -0.07348963618278503,
                -0.3547687828540802,
                0.2813981771469116,
                0.20174095034599304,
                -0.32254698872566223,
                -0.05207259580492973,
                -0.31932520866394043,
                -0.08044351637363434,
                0.3568094074726105,
                0.023766594007611275,
                -0.06462308764457703,
                -0.15094351768493652,
                0.13143590092658997,
                -0.09920097142457962,
                0.03602728620171547,
                0.08885412663221359,
                0.05486368387937546,
                0.09908238053321838,
                0.16686232388019562,
                0.11929839849472046,
                -0.29888734221458435,
                -0.31797730922698975,
                0.35303354263305664,
                -0.019854243844747543,
                -0.005627685692161322,
                0.018839828670024872,
                -0.040645141154527664,
                0.25147128105163574,
                -0.3833426833152771,
                -0.10484253615140915,
                -0.047249238938093185,
                -0.1945653110742569,
                0.03751324489712715,
                -0.17228175699710846,
                -0.32033562660217285,
                -0.24084605276584625,
                -0.13094346225261688,
                -0.06948170810937881,
                0.18570393323898315,
                -0.09925931692123413,
                -0.16400639712810516,
                -0.3423163890838623,
                -0.1855650544166565,
                0.3757537007331848,
                -0.051857296377420425,
                0.04170689359307289,
                0.1637994647026062,
                -0.06661752611398697,
                0.23847422003746033,
                -0.19240766763687134,
                0.366889089345932,
                -0.3118700385093689,
                0.3165853023529053,
                0.3592645525932312,
                -0.2297174334526062,
                0.09799005091190338,
                -0.14839087426662445,
                -0.13648009300231934,
                -0.09586765617132187,
                0.025088641792535782,
                -0.2650148868560791,
                0.03185243159532547,
                0.059684496372938156,
                -0.1611233651638031,
                -0.09041152894496918,
                0.35805314779281616,
                0.0728711187839508,
                -0.09375280886888504,
                0.1931355595588684,
                0.27147531509399414,
                -0.022206831723451614,
                -0.05595465004444122,
                0.1364981085062027,
                -0.35096147656440735,
                -0.052825476974248886,
                0.05618813633918762,
                -0.32963964343070984,
                0.32012325525283813,
                0.30267253518104553,
                0.15102794766426086,
                0.02073877863585949,
                -0.01925046741962433,
                0.19204895198345184,
                0.3130515515804291,
                -0.09602160006761551,
                -0.26738929748535156,
                0.2156539112329483,
                -0.31185492873191833,
                0.262820839881897,
                0.2772371470928192,
                0.10300354659557343,
                0.06829683482646942,
                0.2944488525390625,
                -0.3070599436759949,
                0.24712832272052765,
                0.35278987884521484,
                -0.25334978103637695,
                -0.24697570502758026,
                0.038274943828582764,
                -0.23773063719272614,
                0.004031128250062466,
                -0.3234012722969055,
                -0.2832878828048706,
                -0.22506707906723022,
                -0.03332168236374855,
                0.07992549985647202,
                0.04829796776175499,
                0.26018407940864563,
                0.3678300976753235,
                0.18073368072509766,
                -0.11626265943050385,
                -0.24212296307086945,
                0.16413938999176025,
                0.133995920419693,
                -0.07978926599025726,
                0.010568243451416492,
                -0.26725444197654724,
                0.3055804371833801,
                -0.1813141405582428,
                -0.28442347049713135,
                0.32641249895095825,
                -0.11683917045593262,
                0.13829541206359863,
                0.2275911122560501,
                -0.29171863198280334,
                -0.0932636559009552,
                0.3069037199020386,
                -0.07301577180624008,
                0.37744584679603577,
                0.34677794575691223,
                0.28576111793518066,
                0.15960441529750824,
                -0.31961071491241455,
                -0.1319667398929596,
                0.2561614215373993,
                -0.2975160777568817,
                0.2401653677225113,
                0.03154535964131355,
                0.3705236613750458,
                -0.2321835160255432,
                -0.0668281614780426,
                0.31885719299316406,
                -0.1310604363679886,
                0.15670187771320343,
                -0.09295723587274551,
                0.30029141902923584,
                0.2550930678844452,
                0.3100036084651947,
                0.21080748736858368,
                0.1927771419286728,
                -0.07526934891939163,
                0.2955307066440582,
                -0.26578348875045776,
                0.012635822407901287,
                -0.05473842844367027,
                0.024585001170635223,
                -0.28907203674316406,
                -0.2913402020931244,
                0.0036388582084327936,
                -0.12482666224241257,
                0.1565612554550171,
                -0.3358480632305145,
                0.09530054032802582,
                0.00449880538508296,
                -0.07378979027271271,
                -0.1330496370792389,
                -0.06887795031070709,
                0.15288995206356049,
                0.28962060809135437,
                0.22345995903015137,
                -0.06711775809526443,
                -0.1868124008178711,
                0.3225170075893402,
                0.04717766121029854,
                -0.19646117091178894,
                0.35183051228523254,
                -0.1025063693523407,
                0.18431992828845978,
                -0.3011492192745209,
                0.09233194589614868,
                -0.07606130838394165,
                -0.20489025115966797,
                0.2320670485496521,
                0.34339025616645813,
                0.1363673210144043,
                -0.2695390582084656,
                0.37756839394569397,
                -0.07836803793907166,
                0.10949432849884033,
                0.16741237044334412,
                0.028063105419278145,
                -0.25939446687698364,
                0.134893000125885,
                0.30866825580596924,
                -0.09180250763893127,
                0.2921411693096161,
                0.24350088834762573,
                -0.06071612238883972,
                0.3154173195362091,
                -0.020283080637454987,
                -0.08611375838518143,
                -0.09603879600763321,
                0.1853315234184265,
                -0.06444327533245087,
                -0.15750981867313385,
                -0.34533727169036865,
                0.07075274735689163,
                0.2845729887485504,
                -0.29314273595809937,
                -0.29833948612213135,
                0.29205477237701416,
                -0.010710117407143116,
                0.18264110386371613,
                -0.2571660280227661,
                -0.014285738579928875,
                0.2631548345088959,
                -0.12781457602977753,
                0.007614435162395239,
                -0.09447795152664185,
                -0.23228128254413605,
                -0.30820342898368835,
                0.176758274435997,
                0.3550513982772827,
                -0.01503132376819849,
                -0.18659797310829163,
                0.16851112246513367,
                0.33693182468414307,
                0.020786840468645096,
                0.25056329369544983,
                -0.2105439156293869,
                -0.24828305840492249,
                0.08868994563817978,
                -0.3178488612174988,
                0.11742129921913147,
                -0.20213274657726288,
                -0.23403513431549072,
                0.20301088690757751,
                -0.35347720980644226,
                -0.1801697164773941,
                0.02736545167863369,
                0.29589545726776123,
                0.17409755289554596,
                -0.011038756929337978,
                0.2949927747249603,
                -0.2542966604232788,
                -0.3213365972042084,
                0.16389061510562897,
                0.3526226282119751,
                -0.3353627622127533,
                -0.20118486881256104,
                0.372917115688324,
                0.06404982507228851,
                0.17527933418750763,
                -0.11480870842933655,
                -0.1268104463815689,
                0.039138708263635635,
                0.30734238028526306,
                0.24758177995681763,
                0.1005505919456482,
                -0.2605306804180145,
                0.227670818567276,
                0.06736883521080017,
                -0.2881975769996643,
                0.25277793407440186,
                -0.3470630943775177,
                -0.09855146706104279,
                -0.2141261100769043,
                -0.10483171045780182,
                -0.29425352811813354,
                0.020624807104468346,
                0.024798842146992683,
                0.26999303698539734,
                -0.10069829225540161,
                0.000690384185872972,
                -0.21209047734737396,
                0.2899433374404907,
                -0.3260006606578827,
                -0.1228589415550232,
                -0.016301222145557404,
                -0.16168814897537231,
                -0.09710942953824997,
                -0.00011572167568374425,
                -0.1908106654882431,
                -0.2993505001068115,
                0.2501659095287323,
                -0.21824465692043304,
                0.29923856258392334,
                -0.011029926128685474,
                0.3279624879360199,
                0.21751371026039124,
                0.29882967472076416,
                -0.35033294558525085,
                -0.015422599390149117,
                -0.2558850646018982,
                -0.030539052560925484,
                -0.21936380863189697,
                -0.3706195652484894,
                0.1302376240491867,
                0.1621798574924469,
                -0.25548067688941956,
                -0.0230578500777483,
                0.3049582242965698,
                -0.11566542834043503,
                -0.302651584148407,
                -0.29606133699417114,
                -0.3278670608997345,
                0.24797236919403076,
                -0.0504973866045475,
                -0.24326474964618683,
                -0.06627403199672699,
                0.15952220559120178,
                0.11312242597341537,
                0.19110116362571716,
                -0.10547192394733429,
                0.30971771478652954,
                0.22035348415374756,
                -0.15857094526290894,
                0.23552946746349335,
                0.2942197918891907,
                0.1407698392868042,
                -0.19504116475582123,
                -0.23875883221626282,
                -0.1550157517194748,
                -0.13475769758224487,
                0.3689000606536865,
                0.1229267418384552,
                0.22628888487815857,
                0.35557523369789124,
                0.25458377599716187,
                -0.12745240330696106,
                -0.1972598433494568,
                0.08658862113952637,
                0.08871594816446304,
                0.2881406545639038,
                0.2658863663673401,
                -0.11005662381649017,
                0.11030624806880951,
                -0.24505086243152618,
                -0.11823860555887222,
                0.2550111413002014,
                0.375038743019104,
                -0.12630392611026764,
                0.01892673783004284,
                -0.1403668373823166,
                -0.1445336490869522,
                -0.02798577956855297,
                -0.11425771564245224,
                -0.0919828861951828,
                0.23325157165527344,
                -0.3364620804786682,
                0.02279588393867016,
                0.1423797756433487,
                -0.11604342609643936,
                0.13545337319374084,
                0.07407747209072113,
                0.14597187936306,
                -0.27204620838165283,
                -0.22644498944282532,
                0.11317697167396545,
                0.13647571206092834,
                0.1405288279056549,
                0.11409970372915268,
                -0.009893728420138359,
                0.025124214589595795,
                -0.1647835224866867,
                -0.2130238264799118,
                -0.20460888743400574,
                0.20509377121925354,
                -0.22812435030937195,
                0.15347442030906677,
                0.23079143464565277,
                -0.1382981836795807,
                0.04443177208304405,
                0.23006704449653625,
                0.04649245738983154,
                -0.2077140063047409,
                -0.3197847306728363,
                -0.18242758512496948,
                -0.017080815508961678,
                0.0025513991713523865,
                0.38007408380508423,
                -0.1959245800971985,
                -0.06440386176109314,
                -0.008918662555515766,
                -0.25313684344291687,
                -0.032575398683547974,
                0.2361120730638504,
                0.28616032004356384,
                0.3196631371974945,
                -0.021627340465784073,
                0.26046866178512573,
                0.3435859978199005,
                -0.33648911118507385,
                0.28332585096359253,
                -0.10588354617357254,
                0.29195865988731384,
                0.332797110080719,
                0.2853376567363739,
                0.36938759684562683,
                0.029052788391709328,
                -0.32769128680229187,
                0.06446991860866547,
                -0.3592551350593567,
                0.03630710020661354,
                0.07829782366752625,
                -0.27274999022483826,
                0.046884216368198395,
                0.2961670160293579,
                0.07344932854175568,
                -0.3276521563529968,
                0.14705689251422882,
                -0.2528406083583832,
                0.3177916407585144,
                0.20550374686717987,
                0.14536568522453308,
                0.1996174454689026,
                -0.31394800543785095,
                0.347415030002594,
                -0.13238348066806793,
                -0.1554563045501709,
                -0.14436590671539307,
                0.3441866636276245,
                0.3318426012992859,
                0.11341346055269241,
                0.3252306282520294,
                -0.04795553535223007,
                -0.2003227174282074,
                -0.3172864615917206,
                0.27496594190597534,
                0.2519519031047821,
                0.0893440693616867,
                -0.23436497151851654,
                0.1432085782289505,
                -0.20732438564300537,
                0.054786838591098785,
                0.023703869432210922,
                0.22103995084762573,
                0.042058054357767105,
                0.24202750623226166,
                -0.13334186375141144,
                -0.2612450420856476,
                0.3472152650356293,
                -0.3687784671783447,
                -0.12433920055627823,
                0.11108792573213577
            ],
            "dims": [
                22,
                22
            ]
        },
        "l1_sineblock_dense_a.bias": {
            "data": [
                -0.007903235033154488,
                0.019152868539094925,
                0.007747180759906769,
                -0.029102150350809097,
                0.019607895985245705,
                0.025794172659516335,
                -0.009206347167491913,
                -0.007861184887588024,
                -0.016380196437239647,
                0.012463494203984737,
                0.006035878323018551,
                -0.017123566940426826,
                -0.0006587003008462489,
                0.02505364641547203,
                0.0035290424712002277,
                -0.02472592517733574,
                -0.004938357975333929,
                -0.01685483194887638,
                -0.02047201246023178,
                0.006559029221534729,
                0.006006516516208649,
                -0.012796048074960709
            ],
            "dims": [
                22,
                1
            ]
        },
        "l1_sineblock_dense_b.kernel": {
            "data": [
                0.054983966052532196,
                0.12206794321537018,
                -0.2532893121242523,
                0.11263179033994675,
                -0.1210186779499054,
                0.03900003805756569,
                0.31767547130584717,
                0.015088853426277637,
                0.21160881221294403,
                0.2082299143075943,
                -0.18847393989562988,
                -0.27131691575050354,
                0.06517571955919266,
                0.2887316048145294,
                0.26297691464424133,
                -0.1366255283355713,
                0.35178491473197937,
                0.14234314858913422,
                0.2652793526649475,
                0.10981746762990952,
                -0.23459292948246002,
                -0.1182800754904747,
                0.23417876660823822,
                -0.0387720987200737,
                -0.060915492475032806,
                -0.12311454862356186,
                -0.23929984867572784,
                0.30470240116119385,
                0.17759408056735992,
                0.37408941984176636,
                0.0012243945384398103,
                -0.3516079783439636,
                -0.2319205403327942,
                -0.07194569706916809,
                -0.21808817982673645,
                -0.05656708776950836,
                -0.20400884747505188,
                -0.19532623887062073,
                -0.3476411998271942,
                -0.19465836882591248,
                0.12049128115177155,
                -0.2661280035972595,
                0.07008608430624008,
                0.06583763659000397,
                0.03400619700551033,
                0.1355205774307251,
                0.1505468189716339,
                -0.16581642627716064,
                -0.06773103028535843,
                -0.18345732986927032,
                -0.022353142499923706,
                -0.26893350481987,
                0.13510525226593018,
                0.27467256784439087,
                -0.3353675305843353,
                -0.0038046513218432665,
                0.11630908399820328,
                0.14791220426559448,
                0.023311223834753036,
                0.23861484229564667,
                0.0799182876944542,
                -0.12464865297079086,
                0.2782342731952667,
                -0.061534833163022995,
                -0.1016799807548523,
                -0.2531190812587738,
                -0.2182387411594391,
                -0.24830658733844757,
                -0.35861849784851074,
                0.05181862413883209,
                -0.15949518978595734,
                0.14840248227119446,
                -0.31471970677375793,
                0.12326205521821976,
                -0.16197092831134796,
                -0.09208259731531143,
                0.30927056074142456,
                0.3506936728954315,
                0.1304297298192978,
                0.06186613440513611,
                -0.18946638703346252,
                0.15688516199588776,
                -0.2629745304584503,
                0.3220823407173157,
                -0.1395866870880127,
                0.2435331791639328,
                -0.23276399075984955,
                0.12666888535022736,
                0.3673251271247864,
                -0.17033733427524567,
                0.14298592507839203,
                -0.09391600638628006,
                -0.3374474048614502,
                0.03305305540561676,
                -0.035628605633974075,
                -0.09289118647575378,
                0.21191784739494324,
                0.05376894399523735,
                -0.2696470022201538,
                -0.15558919310569763,
                0.1559884250164032,
                -0.03779955208301544,
                0.02231067232787609,
                0.3268396258354187,
                -0.23812530934810638,
                -0.17142583429813385,
                -0.15316928923130035,
                0.23454338312149048,
                0.35986629128456116,
                0.19459079205989838,
                -0.34042954444885254,
                -0.09281198680400848,
                0.17962108552455902,
                -0.19708451628684998,
                0.024735651910305023,
                0.2594967186450958,
                -0.1523934304714203,
                0.1437266767024994,
                -0.21126136183738708,
                -0.30472612380981445,
                0.1588185578584671,
                -0.14630113542079926,
                0.18197225034236908,
                -0.29204460978507996,
                -0.039888639003038406,
                -0.293555349111557,
                -0.3671380281448364,
                -0.02236098423600197,
                0.0678480714559555,
                -0.24844175577163696,
                0.2969697415828705,
                0.3253278434276581,
                0.28685396909713745,
                0.004162435419857502,
                0.2287774235010147,
                -0.20781046152114868,
                -0.31831488013267517,
                0.3677304983139038,
                -0.13978953659534454,
                -0.17266114056110382,
                0.24494969844818115,
                -0.15798000991344452,
                -0.14220142364501953,
                0.25587326288223267,
                0.05249140411615372,
                -0.3515833616256714,
                -0.239353209733963,
                0.15816617012023926,
                -0.17053210735321045,
                -0.34904274344444275,
                0.01064972672611475,
                0.2644144892692566,
                -0.3152362108230591,
                0.0704093798995018,
                -0.2928142249584198,
                0.3196220099925995,
                -0.35395705699920654,
                0.34573599696159363,
                -0.2812650203704834,
                -0.0363733135163784,
                -0.3305032253265381,
                -0.3649326264858246,
                0.15332452952861786,
                0.22113360464572906,
                0.23525221645832062,
                -0.040337804704904556,
                0.05354840308427811,
                -0.33517804741859436,
                -0.056481823325157166,
                -0.08451518416404724,
                0.2752126157283783,
                -0.20145101845264435,
                0.22976592183113098,
                0.3434426486492157,
                -0.21973589062690735,
                0.22487473487854004,
                0.004612810909748077,
                0.12390796095132828,
                -0.15192309021949768,
                0.10016920417547226,
                0.07904208451509476,
                -0.0705113634467125,
                0.08255131542682648,
                0.14455726742744446,
                0.16094465553760529,
                0.032086081802845,
                -0.2860654294490814,
                0.2951594889163971,
                -0.039410654455423355,
                -0.24339139461517334,
                -0.03656309098005295,
                0.17463915050029755,
                0.11485765874385834,
                0.2145284116268158,
                -0.3679048717021942,
                -0.1864737570285797,
                -0.3684186637401581,
                0.24147531390190125,
                0.2362768054008484,
                0.09991925209760666,
                0.1171979084610939,
                -0.10030831396579742,
                -0.35307401418685913,
                0.22198809683322906,
                -0.034103620797395706,
                -0.2806088924407959,
                -0.05541601404547691,
                -0.07019194960594177,
                -0.3333190977573395,
                -0.29794153571128845,
                0.20139071345329285,
                -0.19083110988140106,
                0.14841145277023315,
                -0.2249271720647812,
                -0.21326588094234467,
                0.22727034986019135,
                -0.20747612416744232,
                -0.17894938588142395,
                -0.2168417125940323,
                -0.2360144853591919,
                0.06775909662246704,
                0.11346288025379181,
                -0.08486239612102509,
                -0.2795242667198181,
                0.14602455496788025,
                0.10926026105880737,
                -0.1661549210548401,
                -0.01978985406458378,
                -0.218187615275383,
                0.04823216795921326,
                -0.3283257782459259,
                -0.3679114580154419,
                0.03524211049079895,
                0.2832365334033966,
                0.08733300864696503,
                0.04188099503517151,
                -0.13762010633945465,
                0.24581360816955566,
                0.26403388381004333,
                0.31572189927101135,
                0.039987653493881226,
                0.27670279145240784,
                -0.19956481456756592,
                -0.20544591546058655,
                0.1251717060804367,
                -0.35174891352653503,
                -0.2794191837310791,
                0.1993909776210785,
                -0.2819807827472687,
                0.18833018839359283,
                0.17146311700344086,
                -0.13072949647903442,
                0.2671016454696655,
                -0.18065857887268066,
                -0.23480381071567535,
                0.07228191196918488,
                0.36091896891593933,
                -0.18976444005966187,
                -0.3017804026603699,
                0.3387691378593445,
                -0.004362724255770445,
                0.33725184202194214,
                0.2323996126651764,
                -0.13316692411899567,
                0.2850297689437866,
                0.050106871873140335,
                0.3147193193435669,
                0.38093605637550354,
                0.39271578192710876,
                0.3420264422893524,
                0.19815558195114136,
                -0.0639474093914032,
                0.0019311034120619297,
                0.1851368397474289,
                0.00023291181423701346,
                -0.22195421159267426,
                -0.04014965146780014,
                -0.25378838181495667,
                -0.15292221307754517,
                -0.08177806437015533,
                -0.04064076393842697,
                -0.17180778086185455,
                0.11234460771083832,
                -0.11207318305969238,
                0.016210662201046944,
                0.1529468446969986,
                -0.2712940573692322,
                0.128252774477005,
                -0.2882382273674011,
                0.06652535498142242,
                0.2178056836128235,
                0.04423912242054939,
                -0.2496209740638733,
                -0.1250886470079422,
                -0.10381264984607697,
                0.2248530387878418,
                0.04134143143892288,
                -0.2232784926891327,
                0.13864478468894958,
                -0.2903137803077698,
                0.19753611087799072,
                0.15892724692821503,
                0.3318278193473816,
                -0.1644076406955719,
                0.10908449441194534,
                0.037784282118082047,
                0.2706632912158966,
                0.09208379685878754,
                0.1702595353126526,
                -0.32256880402565,
                -0.19245365262031555,
                0.15089496970176697,
                -0.050354838371276855,
                -0.24253985285758972,
                -0.12626245617866516,
                0.3002292215824127,
                0.31229373812675476,
                -0.1368609219789505,
                0.2966267764568329,
                -0.13897612690925598,
                -0.2612576484680176,
                0.03269818797707558,
                -0.15282997488975525,
                -0.3071407377719879,
                -0.35953181982040405,
                0.2211148738861084,
                -0.2756927013397217,
                -0.36315247416496277,
                0.27064594626426697,
                0.11765776574611664,
                0.1084241196513176,
                -0.08198274672031403,
                0.23297472298145294,
                -0.2952588200569153,
                0.26918309926986694,
                -0.13246865570545197,
                0.07404157519340515,
                0.23004025220870972,
                0.03808210790157318,
                0.03246544674038887,
                -0.3959103226661682,
                -0.0974060595035553,
                -0.2736327350139618,
                -0.1624128669500351,
                -0.012644283473491669,
                -0.2654767334461212,
                0.14937739074230194,
                0.31545180082321167,
                -0.24399276077747345,
                0.19399237632751465,
                -0.2492041140794754,
                0.16122406721115112,
                -0.2200460433959961,
                0.2286631464958191,
                0.2021445333957672,
                0.32664433121681213,
                0.08089271932840347,
                -0.1340343952178955,
                -0.05876269191503525,
                -0.00360669894143939,
                -0.03385865315794945,
                -0.04797815531492233,
                0.21608197689056396,
                0.017715655267238617,
                -0.10404706001281738,
                0.3393346965312958,
                0.13156668841838837,
                0.10604012757539749,
                -0.32650214433670044,
                -0.3555178642272949,
                0.3300497531890869,
                -0.13833051919937134,
                0.18791253864765167,
                0.32457613945007324,
                0.33302170038223267,
                0.2664877772331238,
                0.11378154158592224,
                -0.2787710726261139,
                0.13633742928504944,
                0.29850301146507263,
                -0.35530802607536316,
                -0.09569882601499557,
                0.3544221520423889,
                -0.2762347459793091,
                0.06308992207050323,
                0.1906435787677765,
                0.32065629959106445,
                0.286567747592926,
                -0.1083456501364708,
                -0.24317523837089539,
                -0.23992744088172913,
                -0.06702103465795517,
                -0.342153936624527,
                0.2896557152271271,
                -0.2286480814218521,
                0.14858046174049377,
                -0.2504647672176361,
                0.06075787916779518,
                0.36093220114707947,
                0.2609274089336395,
                0.06472308188676834,
                -0.15147824585437775,
                -0.05143547058105469,
                0.007193849887698889,
                0.006443426478654146,
                -0.024787088856101036,
                -0.23726916313171387,
                0.3314158022403717,
                -0.3250013291835785,
                -0.289700448513031,
                -0.19021974503993988,
                -0.25623372197151184,
                -0.13226601481437683,
                0.3169225752353668,
                -0.060884080827236176,
                0.13169123232364655,
                0.30589696764945984,
                0.12787148356437683,
                0.3003283441066742,
                -0.10289394855499268,
                -0.22607940435409546,
                0.2730712294578552,
                0.21303759515285492,
                -0.021839333698153496,
                0.16030475497245789,
                0.2606339454650879,
                0.10472369194030762,
                -0.17556458711624146,
                0.3533630967140198,
                -0.11829167604446411,
                -0.023933054879307747,
                -0.2286597639322281,
                0.011958763003349304,
                -0.3394630253314972,
                0.00521303154528141,
                0.30347561836242676,
                -0.010109050199389458,
                0.021136518567800522,
                0.27199020981788635,
                -0.27671679854393005,
                0.007903731428086758,
                0.21196360886096954,
                -0.0466744527220726,
                -0.007547163404524326,
                -0.2947140634059906,
                -0.17285111546516418,
                0.21824094653129578,
                0.20364287495613098,
                -0.05033411458134651,
                -0.22941681742668152,
                0.15160875022411346,
                -0.2634146809577942,
                -0.17358344793319702,
                -0.10908166319131851,
                -0.016999725252389908,
                -0.3378072679042816,
                -0.2228354513645172,
                0.3578201234340668,
                0.08397603034973145,
                0.3460027277469635,
                0.39188534021377563,
                0.3104648292064667,
                -0.22735972702503204,
                -0.013601561076939106,
                -0.15520590543746948,
                -0.060595422983169556,
                0.13341209292411804,
                0.27114418148994446,
                0.23836933076381683,
                0.1287793517112732,
                -0.036637019366025925,
                -0.2003708779811859,
                0.03893863409757614,
                0.3210241496562958,
                -0.16545867919921875,
                0.013331037946045399,
                0.16678859293460846,
                0.25397148728370667,
                0.031931519508361816,
                -0.16568173468112946,
                0.3244224786758423,
                0.20584288239479065,
                -0.0756310299038887,
                -0.048511262983083725
            ],
            "dims": [
                22,
                22
            ]
        },
        "l1_sineblock_dense_b.bias": {
            "data": [
                0.0063562216237187386,
                -0.00013113180466461927,
                -0.011567531153559685,
                -0.01091985497623682,
                -0.009036638773977757,
                -0.06671790778636932,
                0.009210629388689995,
                -0.012447559274733067,
                -0.011597495526075363,
                0.005956955254077911,
                -0.005053091794252396,
                -0.03899494558572769,
                0.04701914265751839,
                -0.012941191904246807,
                -0.0007802940672263503,
                -0.011383690871298313,
                -0.008977488614618778,
                -0.01912488043308258,
                -0.05914664641022682,
                -0.007136012893170118,
                0.01656806282699108,
                -0.0025762589648365974
            ],
            "dims": [
                22,
                1
            ]
        },
        "l2_sineblock_dense_a.kernel": {
            "data": [
                0.038610685616731644,
                -0.0067530120722949505,
                0.23010320961475372,
                -0.1091894805431366,
                -0.17042258381843567,
                0.14576491713523865,
                0.20456326007843018,
                -0.10937679558992386,
                -0.2724495530128479,
                0.1915210634469986,
                -0.01238454319536686,
                0.10798045992851257,
                -0.1394168883562088,
                0.20062585175037384,
                0.24282528460025787,
                0.06527264416217804,
                -0.270648330450058,
                0.21312524378299713,
                -0.00523200212046504,
                0.004941818304359913,
                0.24380502104759216,
                0.30992043018341064,
                0.2930552661418915,
                -0.2478214055299759,
                0.33891454339027405,
                -0.20851774513721466,
                -0.1814201921224594,
                0.1415453553199768,
                -0.22428831458091736,
                0.2641018033027649,
                0.3497318923473358,
                0.1569822132587433,
                -0.2662782669067383,
                -0.05261598154902458,
                -0.14125379920005798,
                -0.22499752044677734,
                -0.2082674354314804,
                -0.3668857514858246,
                0.10538844764232635,
                -0.2323448359966278,
                -0.2356446236371994,
                0.2284526526927948,
                -0.23058082163333893,
                0.11703898757696152,
                0.06625190377235413,
                0.015576663427054882,
                -0.3151080906391144,
                0.006479915697127581,
                -0.30703800916671753,
                -0.11492058634757996,
                0.02705269865691662,
                -0.15550675988197327,
                0.15437695384025574,
                -0.18633313477039337,
                -0.014411086216568947,
                0.18434716761112213,
                0.1912587583065033,
                -0.29329559206962585,
                -0.20730824768543243,
                -0.1279565989971161,
                -0.2387242168188095,
                -0.31061863899230957,
                -0.0404815748333931,
                0.02073477767407894,
                0.26249536871910095,
                -0.357883095741272,
                0.16687826812267303,
                -0.3025100827217102,
                -0.18765239417552948,
                -0.13258208334445953,
                0.10138621181249619,
                -0.32741090655326843,
                -0.20783141255378723,
                0.01056707464158535,
                -0.2642844319343567,
                -0.11417719721794128,
                -0.2935875952243805,
                0.22086748480796814,
                -0.35703861713409424,
                0.329804390668869,
                -0.19250865280628204,
                0.048911359161138535,
                0.29513058066368103,
                -0.16950099170207977,
                -0.050381146371364594,
                0.1662040650844574,
                -0.12374601513147354,
                -0.3175880014896393,
                0.26994457840919495,
                0.010403861291706562,
                -0.15301313996315002,
                -0.002837033476680517,
                0.05857791006565094,
                0.2020592987537384,
                -0.1035466194152832,
                -0.32486358284950256,
                -0.08432382345199585,
                -0.31595107913017273,
                0.1805627942085266,
                0.08038858324289322,
                0.1678842455148697,
                -0.2629234790802002,
                0.1789359301328659,
                -0.3454175591468811,
                0.3459911048412323,
                -0.009811596013605595,
                0.19172753393650055,
                -0.375078946352005,
                0.0873565822839737,
                0.2820231318473816,
                0.3991827964782715,
                0.3355960249900818,
                -0.15599757432937622,
                0.13599568605422974,
                -0.08111459761857986,
                -0.2562464773654938,
                -0.1945560723543167,
                -0.012174282222986221,
                0.1922098994255066,
                0.20674389600753784,
                -0.0034066468942910433,
                0.2773626148700714,
                -0.0872657299041748,
                0.12330296635627747,
                0.20662111043930054,
                0.11134350299835205,
                0.37072092294692993,
                0.21783261001110077,
                0.29326102137565613,
                -0.23796187341213226,
                0.06445987522602081,
                0.27756205201148987,
                -0.2012893408536911,
                0.25495412945747375,
                -0.03494926169514656,
                -0.34376925230026245,
                0.08348378539085388,
                -0.12793304026126862,
                0.2282913774251938,
                -0.23326824605464935,
                -0.1419382095336914,
                0.05238144099712372,
                0.0968131572008133,
                0.07714216411113739,
                0.2890959084033966,
                -0.042351655662059784,
                0.16845840215682983,
                0.17404572665691376,
                -0.27993878722190857,
                0.3249807357788086,
                -0.3784683346748352,
                0.025410208851099014,
                -0.038879793137311935,
                0.17259982228279114,
                0.1983565092086792,
                0.18770578503608704,
                -0.2250649780035019,
                0.2584681808948517,
                0.06614808738231659,
                0.017537357285618782,
                0.29897812008857727,
                -0.2534102201461792,
                0.20707154273986816,
                0.14833760261535645,
                0.12579290568828583,
                -0.040642790496349335,
                0.1082606166601181,
                -0.35764259099960327,
                -0.2000548243522644,
                -0.1066884696483612,
                0.19550353288650513,
                -0.20680959522724152,
                -0.09816227108240128,
                0.4041590392589569,
                -0.061224181205034256,
                0.18591278791427612,
                -0.03292139992117882,
                0.1910938024520874,
                0.13679568469524384,
                -0.09116537868976593,
                -0.28791069984436035,
                0.0702919140458107,
                0.06142079085111618,
                0.17812161147594452,
                -0.07794402539730072,
                0.10459109395742416,
                0.2429584264755249,
                -0.33711811900138855,
                0.2403133362531662,
                -0.18778103590011597,
                -0.18756064772605896,
                0.14554238319396973,
                -0.053239885717630386,
                0.32069554924964905,
                0.025757556781172752,
                -0.05677693337202072,
                0.20759379863739014,
                -0.20276233553886414,
                0.1948554664850235,
                0.16017980873584747,
                0.3487764596939087,
                0.2334265410900116,
                0.17482289671897888,
                -0.24812842905521393,
                0.21868805587291718,
                -0.2704865634441376,
                -0.021480249240994453,
                0.267914742231369,
                0.10083884000778198,
                -0.04544069990515709,
                -0.08345889300107956,
                0.3609737455844879,
                -0.004581371322274208,
                0.16511106491088867,
                0.2348955273628235,
                0.1165623739361763,
                0.2560098469257355,
                -0.03449024260044098,
                -0.2633194029331207,
                0.24525967240333557,
                -0.19829024374485016,
                -0.3063010275363922,
                -0.03802431374788284,
                -0.05873721092939377,
                -0.35387808084487915,
                0.2894435226917267,
                0.2817714214324951,
                -0.025366894900798798,
                -0.35266804695129395,
                0.1389305293560028,
                -0.17683520913124084,
                0.13755254447460175,
                0.3804231286048889,
                -0.09145410358905792,
                -0.24918298423290253,
                -0.22240665555000305,
                -0.27054738998413086,
                -0.2023835927248001,
                -0.0488332100212574,
                0.1030702218413353,
                -0.0736115351319313,
                -0.3377630114555359,
                -0.17776423692703247,
                -0.23227308690547943,
                -0.3341914713382721,
                -0.023925146088004112,
                -0.01426751259714365,
                0.05989455804228783,
                -0.32317423820495605,
                -0.043071482330560684,
                0.3036192059516907,
                -0.3577015697956085,
                0.367752343416214,
                -0.21379970014095306,
                0.33592310547828674,
                0.1262861043214798,
                -0.34635043144226074,
                -0.3606618344783783,
                -0.1772671788930893,
                -0.06038212776184082,
                -0.06918598711490631,
                -0.12634867429733276,
                0.1164994090795517,
                0.18595315515995026,
                -0.24799981713294983,
                0.31721681356430054,
                -0.21691648662090302,
                0.3295266032218933,
                0.2681998014450073,
                -0.3261447548866272,
                -0.34873950481414795,
                0.042772743850946426,
                0.33880066871643066,
                0.3414331376552582,
                -0.259044885635376,
                -0.12475801259279251,
                0.14518482983112335,
                0.08836077153682709,
                0.24529539048671722,
                -0.15765045583248138,
                -0.2727492153644562,
                -0.35020309686660767,
                0.13332204520702362,
                -0.24919022619724274,
                0.3264336884021759,
                -0.2749398946762085,
                0.2861410677433014,
                -0.14961841702461243,
                0.12154905498027802,
                0.311323881149292,
                0.34710967540740967,
                0.12757976353168488,
                0.052090756595134735,
                0.2416219711303711,
                0.20425787568092346,
                0.33129769563674927,
                0.2075599730014801,
                0.11519964784383774,
                -0.1666916310787201,
                -0.16991494596004486,
                -0.11592621356248856,
                -0.216546893119812,
                -0.2594124972820282,
                -0.19411562383174896,
                -0.2635818421840668,
                0.2122143656015396,
                0.3673681914806366,
                0.25734004378318787,
                -0.33704081177711487,
                -0.11129143834114075,
                -0.05022711306810379,
                -0.2960917055606842,
                0.257469117641449,
                0.08005297929048538,
                0.24282872676849365,
                0.0012974281562492251,
                0.30485308170318604,
                0.21649141609668732,
                -0.09959785640239716,
                -0.29824039340019226,
                0.002565422561019659,
                -0.1381545513868332,
                -0.12425098568201065,
                -0.2363373339176178,
                -0.3414378762245178,
                -0.29255378246307373,
                -0.12617738544940948,
                0.3170578181743622,
                0.015653342008590698,
                -0.17492224276065826,
                0.2218649834394455,
                0.2714115381240845,
                0.12568026781082153,
                0.1261453628540039,
                0.3213164508342743,
                -0.14350689947605133,
                0.3374280631542206,
                0.2592320740222931,
                0.3138206899166107,
                -0.26877737045288086,
                -0.17046979069709778,
                0.343210905790329,
                0.14201050996780396,
                -0.2907786965370178,
                -0.2612006962299347,
                -0.3069867789745331,
                -0.16829755902290344,
                -0.0007622841512784362,
                -0.0428677462041378,
                -0.3410998582839966,
                -0.2992241382598877,
                0.17196545004844666,
                -0.17146581411361694,
                -0.3260772228240967,
                -0.07209441810846329,
                -0.11370836198329926,
                0.16311509907245636,
                0.03551173582673073,
                0.10525321960449219,
                0.245025634765625,
                0.36218708753585815,
                -0.18985706567764282,
                0.275567889213562,
                0.1017688512802124,
                -0.285923033952713,
                -0.00029154360527172685,
                -0.2026752084493637,
                -0.07789425551891327,
                -0.1690363734960556,
                0.0710873156785965,
                -0.22428543865680695,
                -0.2563501298427582,
                -0.3491016924381256,
                -0.31244194507598877,
                0.2614746391773224,
                -0.23094594478607178,
                0.1919535994529724,
                0.06164640560746193,
                0.07850469648838043,
                0.21743924915790558,
                -0.3168165683746338,
                -0.14883697032928467,
                0.21263109147548676,
                -0.1824621707201004,
                -0.24828436970710754,
                -0.23079217970371246,
                -0.012945878319442272,
                -0.05658532679080963,
                -0.05839217081665993,
                0.1922457367181778,
                -0.27737799286842346,
                0.28216347098350525,
                0.25117602944374084,
                0.37434664368629456,
                0.22217892110347748,
                -0.15263570845127106,
                -0.0907859280705452,
                0.19462555646896362,
                -0.1250927597284317,
                -0.20028381049633026,
                -0.24607519805431366,
                0.01945602335035801,
                0.09341762959957123,
                0.3734705448150635,
                0.07105175405740738,
                -0.16493865847587585,
                -0.05115596204996109,
                0.33933740854263306,
                -0.31155383586883545,
                0.2784239947795868,
                0.29750359058380127,
                0.0585503950715065,
                -0.004376095719635487,
                0.04655939340591431,
                -0.036202579736709595,
                -0.07381678372621536,
                -0.08531978726387024,
                -0.289482980966568,
                0.22641834616661072,
                -0.2010704129934311,
                0.2263106256723404,
                -0.33525776863098145,
                0.13678424060344696,
                -0.27740466594696045,
                0.26181888580322266,
                -0.007866415195167065,
                -0.1921178251504898,
                0.021617600694298744,
                0.2578342854976654,
                -0.15506942570209503,
                -0.01563381403684616,
                -0.09318912029266357,
                -0.21373426914215088,
                -0.3115244209766388,
                0.10012908279895782,
                -0.31904569268226624,
                0.255612313747406,
                -0.042293064296245575,
                0.19785578548908234,
                0.01559381652623415,
                -0.15155275166034698,
                0.16879774630069733,
                0.1727112978696823,
                0.26856452226638794,
                -0.38012388348579407,
                0.2939472198486328,
                -0.22523023188114166,
                -0.3302956521511078,
                0.25031089782714844,
                0.28877803683280945,
                -0.15007372200489044,
                0.05527115240693092,
                -0.3420734703540802,
                -0.36312949657440186,
                0.3578105866909027,
                0.02315426804125309,
                0.07918059825897217,
                -0.028881069272756577,
                0.28312188386917114,
                0.10897175967693329,
                0.30727067589759827,
                -0.27926698327064514,
                0.24343441426753998,
                -0.19744090735912323,
                0.01854550652205944,
                -0.212086021900177,
                0.17901606857776642,
                0.34081658720970154,
                0.006515702232718468,
                -0.18125170469284058,
                -0.3479452431201935,
                0.10164916515350342,
                0.3170725703239441,
                -0.1066320613026619,
                0.1468563675880432,
                0.19000324606895447,
                -0.16181793808937073,
                0.017286203801631927,
                -0.1929934173822403,
                0.06891968846321106,
                -0.16578906774520874,
                -0.1507394164800644,
                0.27985140681266785,
                0.07147111743688583
            ],
            "dims": [
                22,
                22
            ]
        },
        "l2_sineblock_dense_a.bias": {
            "data": [
                -0.015215611085295677,
                -0.005047270562499762,
                0.08080101013183594,
                0.020874639973044395,
                -0.004083574283868074,
                0.024220464751124382,
                -0.03535517677664757,
                -0.05383552983403206,
                -0.014090215787291527,
                0.1515391618013382,
                -0.013371404260396957,
                0.00023863912792876363,
                -0.008274867199361324,
                -0.05942797288298607,
                0.006926168221980333,
                -0.001878772978670895,
                -0.008728326298296452,
                -0.0021887505427002907,
                -0.01726197451353073,
                -0.01904209330677986,
                -0.03659488260746002,
                0.011781463399529457
            ],
            "dims": [
                22,
                1
            ]
        },
        "l2_sineblock_dense_b.kernel": {
            "data": [
                0.23875300586223602,
                0.27141115069389343,
                0.02626468427479267,
                0.185786634683609,
                -0.06134011223912239,
                0.1377064734697342,
                0.09904606640338898,
                -0.11564143747091293,
                0.36470890045166016,
                -0.26376062631607056,
                0.31728795170783997,
                0.1404259204864502,
                -0.04389694333076477,
                0.2041110098361969,
                0.23545296490192413,
                0.15702758729457855,
                -0.23312988877296448,
                -0.008280366659164429,
                -0.06752225011587143,
                0.1761816442012787,
                0.235245943069458,
                0.045920293778181076,
                -0.28029516339302063,
                -0.01259834785014391,
                0.30512648820877075,
                -0.2002180516719818,
                -0.22819513082504272,
                -0.10467833280563354,
                0.27858370542526245,
                -0.31694748997688293,
                -0.09378308057785034,
                -0.02233421802520752,
                0.1500072479248047,
                0.14893348515033722,
                -0.2543339431285858,
                0.1754954606294632,
                0.3299980163574219,
                0.2215973436832428,
                -0.05570978298783302,
                0.24564707279205322,
                -0.07553936541080475,
                0.13434888422489166,
                0.08334638923406601,
                0.009862305596470833,
                0.022730663418769836,
                0.13794468343257904,
                0.039158012717962265,
                -0.24903906881809235,
                -0.21163544058799744,
                -0.1193038821220398,
                0.2712794244289398,
                -0.16864576935768127,
                -0.19426235556602478,
                0.06462270021438599,
                -0.1534377485513687,
                -0.30354270339012146,
                0.21843008697032928,
                -0.3689020276069641,
                0.27835431694984436,
                -0.06668855249881744,
                0.3673723042011261,
                -0.3147814869880676,
                0.1667417734861374,
                -0.13593249022960663,
                -0.11778686940670013,
                0.02177302911877632,
                -0.07818611711263657,
                -0.24547630548477173,
                -0.03178972750902176,
                -0.1215120404958725,
                0.08178875595331192,
                -0.16091598570346832,
                -0.005592110101133585,
                0.23862919211387634,
                -0.3748222291469574,
                0.052218660712242126,
                -0.277708500623703,
                0.06049865856766701,
                -0.3133988082408905,
                -0.2610870599746704,
                0.33639565110206604,
                -0.21355900168418884,
                0.3655140995979309,
                -0.2439335137605667,
                0.32185351848602295,
                0.306611567735672,
                0.04044864699244499,
                -0.2100752890110016,
                -0.24285563826560974,
                -0.3509904444217682,
                0.01026977226138115,
                -0.04003864526748657,
                0.3343903422355652,
                -0.33585742115974426,
                0.3140915036201477,
                -0.1516648679971695,
                0.17593246698379517,
                -0.08045045286417007,
                0.272502601146698,
                0.19992826879024506,
                0.10531359910964966,
                0.09490615874528885,
                0.0036531423684209585,
                -0.21595551073551178,
                0.3717871308326721,
                -0.09530319273471832,
                0.017939556390047073,
                0.04819869250059128,
                -0.19887079298496246,
                -0.20046396553516388,
                0.3283712565898895,
                -0.3568960130214691,
                0.004331979900598526,
                -0.08044798672199249,
                -0.0602506585419178,
                -0.1685488224029541,
                0.27184468507766724,
                0.16825072467327118,
                -0.06589409708976746,
                -0.3486802577972412,
                0.19813935458660126,
                -0.07643505930900574,
                -0.21962177753448486,
                -0.3630516529083252,
                -0.07113812863826752,
                -0.31687527894973755,
                0.09743129462003708,
                -0.1484156847000122,
                0.26823991537094116,
                0.11688065528869629,
                0.1226169764995575,
                -0.05940187722444534,
                -0.025966670364141464,
                0.052914902567863464,
                -0.2910856008529663,
                -0.08556174486875534,
                0.2773069739341736,
                -0.07080197334289551,
                0.16695934534072876,
                0.32300227880477905,
                0.10064423084259033,
                0.14203213155269623,
                0.1417367160320282,
                0.03492894023656845,
                0.16715942323207855,
                0.3781450092792511,
                0.044735051691532135,
                -0.14332906901836395,
                0.2632704973220825,
                0.07215926796197891,
                -0.12419834733009338,
                0.08230924606323242,
                0.14740420877933502,
                -0.27915021777153015,
                -0.02517005056142807,
                -0.13588286936283112,
                -0.09209669381380081,
                0.283572793006897,
                -0.14704275131225586,
                -0.05263194441795349,
                -0.14604943990707397,
                -0.22773407399654388,
                0.10367848724126816,
                -0.054395515471696854,
                -0.0009044596808962524,
                -0.15140400826931,
                0.0030288768466562033,
                0.2781466841697693,
                -0.16854585707187653,
                0.2121824026107788,
                -0.3121873736381531,
                0.14888183772563934,
                -0.011875644326210022,
                0.04555077105760574,
                -0.1928437203168869,
                0.31307607889175415,
                0.12068354338407516,
                -0.001953210448846221,
                -0.0718180239200592,
                -0.2640691101551056,
                -0.2423272728919983,
                -0.09142578393220901,
                0.2331346720457077,
                0.19700570404529572,
                -0.2453414350748062,
                0.03750470280647278,
                0.13196375966072083,
                0.16653700172901154,
                -0.3238447606563568,
                0.018381765112280846,
                -0.31495893001556396,
                0.0966653972864151,
                -0.31880903244018555,
                0.31917405128479004,
                0.2642512619495392,
                -0.16531839966773987,
                0.08082729578018188,
                -0.3539803922176361,
                -0.3436221480369568,
                -0.14870159327983856,
                -0.06455868482589722,
                0.27685630321502686,
                0.3608912229537964,
                -0.256207138299942,
                0.2961658835411072,
                0.16013053059577942,
                -0.3546072840690613,
                -0.003938011825084686,
                0.2790316343307495,
                -0.21225082874298096,
                0.38568413257598877,
                -0.3663509488105774,
                0.1386229544878006,
                0.0725020170211792,
                0.18008972704410553,
                -0.335457980632782,
                -0.2410179227590561,
                -0.14324793219566345,
                0.01532476581633091,
                0.18558108806610107,
                0.28590866923332214,
                0.16226404905319214,
                0.14952902495861053,
                -0.32111889123916626,
                -0.20438435673713684,
                0.22319576144218445,
                0.1546044498682022,
                0.26736271381378174,
                0.2570880651473999,
                -0.07930611073970795,
                -0.06790350377559662,
                0.10883882641792297,
                -0.3279213011264801,
                0.22075960040092468,
                -0.2521277368068695,
                -0.24359311163425446,
                -0.004942428786307573,
                -0.39368346333503723,
                -0.08981343358755112,
                -0.31790703535079956,
                -0.003394236322492361,
                -0.08401606231927872,
                -0.21118313074111938,
                0.031462229788303375,
                0.03499523922801018,
                -0.2309466004371643,
                0.13782177865505219,
                0.24545818567276,
                -0.043837159872055054,
                -0.031022530049085617,
                0.06493215262889862,
                0.18596814572811127,
                -0.11994794011116028,
                0.15169937908649445,
                -0.28517821431159973,
                -0.21627390384674072,
                -0.0037546525709331036,
                -0.14271187782287598,
                -0.30777230858802795,
                -0.15588882565498352,
                -0.15173105895519257,
                0.14352142810821533,
                0.1934807449579239,
                0.18220794200897217,
                -0.177525594830513,
                0.1703982949256897,
                0.04964940994977951,
                0.10808780789375305,
                -0.003879576688632369,
                -0.21874478459358215,
                0.09414935857057571,
                0.15093311667442322,
                0.16249516606330872,
                0.30802634358406067,
                -0.133537158370018,
                0.12262718379497528,
                0.24552568793296814,
                0.3596228063106537,
                0.19405753910541534,
                -0.190911203622818,
                0.36541861295700073,
                0.2680836319923401,
                0.2165919691324234,
                0.1361815333366394,
                0.30484169721603394,
                -0.31403034925460815,
                0.14761357009410858,
                0.1922532021999359,
                -0.27410784363746643,
                0.16868765652179718,
                0.3655893802642822,
                -0.3147992193698883,
                0.27093467116355896,
                0.33017632365226746,
                0.3533712327480316,
                0.01514450740069151,
                0.23048658668994904,
                -0.029502885416150093,
                -0.3739195466041565,
                -0.2724243998527527,
                -0.3126755356788635,
                0.11813780665397644,
                -0.044870562851428986,
                0.3079976439476013,
                -0.32508036494255066,
                -0.156846284866333,
                0.221258282661438,
                -0.34385672211647034,
                0.2497798204421997,
                0.33851704001426697,
                0.2664361298084259,
                -0.22462154924869537,
                -0.13058052957057953,
                0.2834964096546173,
                -0.26939311623573303,
                0.3235647678375244,
                0.0008087827009148896,
                0.3182506859302521,
                0.3502269387245178,
                -0.25331029295921326,
                0.02859869785606861,
                0.17057576775550842,
                -0.2442971169948578,
                -0.1804741770029068,
                0.17122438549995422,
                -0.01988898776471615,
                -0.2021605223417282,
                0.01419091410934925,
                -0.08316005021333694,
                -0.23668280243873596,
                0.345764696598053,
                -0.10722565650939941,
                -0.26109686493873596,
                -0.21537567675113678,
                0.2851663827896118,
                -0.050874944776296616,
                0.05923605337738991,
                -0.005500655621290207,
                0.10184657573699951,
                -0.21923767030239105,
                -0.009627633728086948,
                -0.3260473608970642,
                -0.23628674447536469,
                0.1223321259021759,
                0.13359591364860535,
                0.1555507332086563,
                -0.3138037323951721,
                -0.2501654624938965,
                -0.30956000089645386,
                -0.2246963083744049,
                0.12943941354751587,
                -0.32383906841278076,
                -0.2706133723258972,
                0.0013191265752539039,
                0.20653967559337616,
                0.2567417025566101,
                -0.21502070128917694,
                -0.2557328939437866,
                0.3504747450351715,
                0.2156595140695572,
                0.08756239712238312,
                0.30218270421028137,
                0.375044584274292,
                -0.014914590865373611,
                -0.22248461842536926,
                0.07366194576025009,
                -0.28388339281082153,
                0.1855701059103012,
                0.2746751606464386,
                -0.06513512879610062,
                -0.2834143340587616,
                -0.1288611739873886,
                0.16210997104644775,
                -0.07038773596286774,
                0.2724129855632782,
                0.017001977190375328,
                -0.08811082690954208,
                -0.07251902669668198,
                -0.29947057366371155,
                -0.3039814531803131,
                0.24988657236099243,
                0.1689174920320511,
                -0.2657618224620819,
                0.31651610136032104,
                0.19551262259483337,
                0.24956314265727997,
                -0.013048955239355564,
                0.10109414905309677,
                0.16291211545467377,
                -0.36115631461143494,
                0.11850740015506744,
                0.0834578275680542,
                -0.20269884169101715,
                0.0924069806933403,
                0.11151126027107239,
                0.14882531762123108,
                -0.2519557476043701,
                0.09291207045316696,
                -0.2565741539001465,
                -0.014315547421574593,
                0.008420695550739765,
                -0.19280113279819489,
                -0.3065132796764374,
                0.23141273856163025,
                0.2270517349243164,
                0.19481408596038818,
                -0.14642174541950226,
                -0.10464511066675186,
                -0.13739463686943054,
                0.016070416197180748,
                -0.3688320815563202,
                -0.15340755879878998,
                0.04903097823262215,
                0.1910211741924286,
                0.011754869483411312,
                0.02826717123389244,
                -0.08557036519050598,
                -0.3651798963546753,
                -0.21629878878593445,
                0.2995853126049042,
                0.3644847869873047,
                -0.20744585990905762,
                -0.042039427906274796,
                0.24513719975948334,
                -0.2383357584476471,
                0.2891107201576233,
                -0.05610113963484764,
                0.34274056553840637,
                -0.3860893249511719,
                0.12793125212192535,
                0.2572546899318695,
                0.2975615859031677,
                0.08654987066984177,
                0.24733124673366547,
                0.3407914936542511,
                0.16400836408138275,
                -0.22751805186271667,
                -0.18036895990371704,
                0.042883846908807755,
                -0.17393317818641663,
                0.28311964869499207,
                0.22822032868862152,
                0.07701988518238068,
                0.006442650221288204,
                -0.028583552688360214,
                -0.24693842232227325,
                -0.303401917219162,
                0.07461536675691605,
                0.2709813714027405,
                0.32886189222335815,
                0.3416260778903961,
                0.36263036727905273,
                -0.10960713028907776,
                0.2358611822128296,
                -0.22289198637008667,
                -0.25863704085350037,
                -0.15784409642219543,
                -0.11558136343955994,
                0.3242611289024353,
                0.1156935915350914,
                -0.07943619042634964,
                0.009358329698443413,
                0.1163119226694107,
                -0.18255430459976196,
                -0.23095448315143585,
                0.20655019581317902,
                -0.20159442722797394,
                0.2211957424879074,
                -0.2718803882598877,
                0.2797639071941376,
                -0.022707941010594368,
                0.31508204340934753,
                -0.32109954953193665,
                -0.23847444355487823,
                0.17852571606636047,
                -0.34380027651786804,
                -0.12534791231155396,
                0.18477389216423035,
                0.00918628741055727,
                -0.027172431349754333,
                -0.07970593869686127,
                -0.08108097314834595,
                -0.25395825505256653,
                -0.25611093640327454
            ],
            "dims": [
                22,
                22
            ]
        },
        "l2_sineblock_dense_b.bias": {
            "data": [
                -0.0017597535625100136,
                -0.012141261249780655,
                -0.0013728931080549955,
                -0.009257669560611248,
                0.019080717116594315,
                -0.016628069803118706,
                0.0038563148118555546,
                -0.006507380399852991,
                -0.009972990490496159,
                0.0001950230507645756,
                -0.02176051400601864,
                -0.010366308502852917,
                0.055378884077072144,
                -0.037730004638433456,
                0.014674953185021877,
                0.007346820086240768,
                0.025755949318408966,
                -0.08592677861452103,
                0.019372137263417244,
                0.019810790196061134,
                -0.007829597219824791,
                -0.004536649212241173
            ],
            "dims": [
                22,
                1
            ]
        },
        "l3_sineblock_dense_a.kernel": {
            "data": [
                0.19311237335205078,
                0.18118388950824738,
                0.3084074556827545,
                0.20928505063056946,
                -0.2505188584327698,
                0.07227812707424164,
                -0.12147102504968643,
                0.017658526077866554,
                -0.2395695000886917,
                0.18084323406219482,
                0.16608262062072754,
                -0.20544587075710297,
                0.05864077806472778,
                -0.2127322256565094,
                0.09796927124261856,
                -0.06774145364761353,
                -0.2839978039264679,
                0.20955480635166168,
                -0.2516489326953888,
                -0.045956868678331375,
                0.3287479877471924,
                0.009898885153234005,
                -0.2213965356349945,
                0.2782210111618042,
                -0.184610515832901,
                -0.2000233680009842,
                0.14306612312793732,
                -0.30258044600486755,
                -0.1337350755929947,
                0.3364948332309723,
                -0.15406139194965363,
                -0.02069798856973648,
                0.320890337228775,
                0.3734564781188965,
                0.3007132112979889,
                -0.4460979104042053,
                -0.15870541334152222,
                0.30781736969947815,
                0.025343766435980797,
                -0.17109107971191406,
                -0.11522703617811203,
                -0.04546031728386879,
                -0.1178327202796936,
                -0.2622045576572418,
                0.08287693560123444,
                -0.14285007119178772,
                -0.23951789736747742,
                -0.3198418915271759,
                0.038448069244623184,
                0.14494970440864563,
                -0.32412394881248474,
                0.13535812497138977,
                -0.2875658869743347,
                -0.17048373818397522,
                -0.1294693797826767,
                0.19207194447517395,
                -0.22992292046546936,
                0.1965997815132141,
                0.3526449501514435,
                -0.08284295350313187,
                -0.14606864750385284,
                -0.10887166112661362,
                0.2523250877857208,
                0.05530104041099548,
                0.10795988887548447,
                -0.006191903725266457,
                0.342501163482666,
                0.04854248836636543,
                0.07347030192613602,
                0.14670608937740326,
                0.16899573802947998,
                -0.2682051658630371,
                0.36269664764404297,
                -0.3463742136955261,
                0.2776821255683899,
                0.2644011080265045,
                0.20555204153060913,
                -0.21640603244304657,
                -0.1740279197692871,
                -0.16966620087623596,
                -0.008912094868719578,
                0.12207798659801483,
                0.03898430988192558,
                0.0895649641752243,
                0.09560766071081161,
                0.27620694041252136,
                0.24175933003425598,
                0.06175721064209938,
                0.06781493872404099,
                0.29030731320381165,
                -0.09080218523740768,
                -0.0011275875149294734,
                -0.07971427589654922,
                0.10408313572406769,
                0.26585543155670166,
                -0.2962404191493988,
                -0.07492097467184067,
                0.12061291933059692,
                -0.08867904543876648,
                -0.1672968864440918,
                -0.33320942521095276,
                -0.09759929031133652,
                0.2386966496706009,
                0.2180827111005783,
                0.29960763454437256,
                0.0659775659441948,
                0.1954878866672516,
                -0.3574153780937195,
                -0.15103396773338318,
                0.15540477633476257,
                0.180558443069458,
                0.0033804799895733595,
                0.07023528963327408,
                -0.2160867154598236,
                -0.20839352905750275,
                -0.00937050674110651,
                -0.15149454772472382,
                0.08104442805051804,
                0.19007889926433563,
                -0.09479871392250061,
                -0.045746419578790665,
                -0.1344505250453949,
                -0.15277856588363647,
                0.16878576576709747,
                0.35604116320610046,
                -0.0655224546790123,
                0.3389233350753784,
                -0.27960914373397827,
                -0.28644508123397827,
                -0.302058607339859,
                -0.12426655739545822,
                0.004445340950042009,
                -0.1930842399597168,
                -0.1300434023141861,
                0.04812651872634888,
                0.11801348626613617,
                0.33118364214897156,
                -0.2516390383243561,
                -0.1876603215932846,
                0.035465896129608154,
                -0.15304076671600342,
                0.23808209598064423,
                0.13833485543727875,
                0.08993635326623917,
                -0.3033469021320343,
                0.1592635214328766,
                -0.3920925259590149,
                -0.3657541573047638,
                -0.06566477566957474,
                -0.07708027213811874,
                -0.2304711639881134,
                0.33714985847473145,
                -0.34081968665122986,
                0.025524945929646492,
                -0.3543560206890106,
                0.37199467420578003,
                0.2798977792263031,
                0.19717776775360107,
                0.19823017716407776,
                -0.007471221964806318,
                0.2867397367954254,
                0.24022625386714935,
                0.06761681288480759,
                -0.22798091173171997,
                0.012280919589102268,
                -0.13810119032859802,
                -0.1266130954027176,
                -0.18710768222808838,
                0.022805210202932358,
                0.30680862069129944,
                -0.1528388410806656,
                0.14413361251354218,
                -0.24269986152648926,
                -0.027130765840411186,
                0.187454491853714,
                0.042316410690546036,
                -0.2917466461658478,
                -0.14913491904735565,
                0.1670924574136734,
                0.24852114915847778,
                0.16550008952617645,
                0.06592767685651779,
                0.11185642331838608,
                0.26648643612861633,
                -0.3762454092502594,
                0.09658802300691605,
                -0.2728291451931,
                0.09545531123876572,
                0.11780174821615219,
                0.15432344377040863,
                0.25416406989097595,
                0.021547209471464157,
                0.37540775537490845,
                0.025976287201046944,
                -0.1474502831697464,
                -0.1760483682155609,
                -0.2190275490283966,
                0.15721233189105988,
                -0.07646884024143219,
                0.0054507143795490265,
                0.04593062773346901,
                0.0028690146282315254,
                0.207029789686203,
                0.2147127240896225,
                0.09972024708986282,
                0.10477522760629654,
                -0.21000656485557556,
                -0.2733195424079895,
                -0.032242290675640106,
                0.0312960185110569,
                -0.06632504612207413,
                0.23846253752708435,
                0.2944689989089966,
                0.22152023017406464,
                -0.13103915750980377,
                0.11083804070949554,
                0.30449435114860535,
                0.158238485455513,
                -0.0737159252166748,
                0.31827467679977417,
                -0.11966044455766678,
                0.0783802941441536,
                0.21111451089382172,
                -0.04052706062793732,
                0.31294143199920654,
                -0.23542727530002594,
                0.012295400723814964,
                -0.17486600577831268,
                -0.2698095440864563,
                -0.14033961296081543,
                -0.11815805733203888,
                0.27040937542915344,
                -0.37590721249580383,
                -0.07409488409757614,
                0.2658449411392212,
                0.27034738659858704,
                0.030606571584939957,
                -0.3451556861400604,
                0.2541836202144623,
                0.20651505887508392,
                0.12654276192188263,
                -0.2796846032142639,
                -0.34225645661354065,
                -0.05970701575279236,
                -0.02104799449443817,
                0.14404982328414917,
                0.2542673349380493,
                -0.02979658730328083,
                -0.0418122261762619,
                0.01909170113503933,
                -0.3388347327709198,
                -0.09006016701459885,
                0.1616644263267517,
                0.12184146046638489,
                0.332628458738327,
                0.2807139456272125,
                -0.07500020414590836,
                -0.21446914970874786,
                -0.023077158257365227,
                0.16552680730819702,
                0.22929276525974274,
                0.16331616044044495,
                0.0621466226875782,
                0.272232323884964,
                -0.3086318373680115,
                0.29522526264190674,
                0.38007792830467224,
                0.009665628895163536,
                0.04920457676053047,
                -0.012640818953514099,
                -0.24450694024562836,
                0.10436980426311493,
                -0.2753458321094513,
                -0.12357357889413834,
                -0.03571026399731636,
                0.07031775265932083,
                0.28141215443611145,
                0.22692885994911194,
                0.31079256534576416,
                0.10243100672960281,
                -0.043278176337480545,
                0.023756803944706917,
                0.02576810121536255,
                0.25978201627731323,
                0.050154902040958405,
                0.319170743227005,
                -0.020822200924158096,
                -0.3124229609966278,
                -0.16944465041160583,
                0.05907858535647392,
                0.17530043423175812,
                -0.33306440711021423,
                0.3025597631931305,
                -0.13327179849147797,
                -0.02302819862961769,
                0.2891167402267456,
                0.34752145409584045,
                -0.0030058729462325573,
                0.35326921939849854,
                0.1630305051803589,
                0.31959235668182373,
                0.033852964639663696,
                0.15279041230678558,
                0.11049231141805649,
                0.14471904933452606,
                0.19438037276268005,
                -0.12777607142925262,
                0.2744876444339752,
                0.3173178434371948,
                -0.06517244875431061,
                -0.2496660053730011,
                0.1801806539297104,
                -0.2671496272087097,
                0.02609577775001526,
                -0.08304749429225922,
                0.10677773505449295,
                -0.04733512923121452,
                -0.16550225019454956,
                -0.06545954942703247,
                0.2757248878479004,
                -0.13352562487125397,
                -0.25803232192993164,
                -0.1912611424922943,
                -0.08138936758041382,
                -0.1679355800151825,
                -0.26129916310310364,
                -0.075026735663414,
                -0.25548112392425537,
                -0.16189347207546234,
                0.2560008764266968,
                -0.0038900161162018776,
                0.20785024762153625,
                -0.09659022837877274,
                0.1389012634754181,
                -0.35148635506629944,
                0.09955577552318573,
                0.17785871028900146,
                -0.27709177136421204,
                0.15842309594154358,
                -0.15330985188484192,
                0.31427592039108276,
                0.22034385800361633,
                -0.058965813368558884,
                -0.18156743049621582,
                -0.21862207353115082,
                -0.3527745008468628,
                -0.10911732912063599,
                -0.26467281579971313,
                0.24459077417850494,
                -0.17532947659492493,
                -0.1992819905281067,
                0.013209035620093346,
                -0.2365303337574005,
                0.1878751963376999,
                0.23010042309761047,
                -0.0935945212841034,
                -0.2695152461528778,
                0.02938171476125717,
                -0.35615697503089905,
                -0.15252400934696198,
                0.270251601934433,
                0.3041456639766693,
                -0.006095127668231726,
                0.05727408081293106,
                -0.003988038282841444,
                0.32435667514801025,
                0.014920399524271488,
                0.3477446436882019,
                -0.32006892561912537,
                -0.1369635909795761,
                -0.12172440439462662,
                -0.05165214464068413,
                0.28860557079315186,
                -0.33525168895721436,
                -0.08087445050477982,
                -0.18326468765735626,
                0.2847101092338562,
                -0.1224123015999794,
                -0.21837249398231506,
                -0.19898568093776703,
                0.20488332211971283,
                0.01270599290728569,
                -0.1399063766002655,
                -0.25702711939811707,
                -0.07283607870340347,
                -0.10351643711328506,
                0.06925927102565765,
                -0.23310644924640656,
                0.33094552159309387,
                -0.19512365758419037,
                0.016179081052541733,
                0.3151441812515259,
                -0.11519913375377655,
                0.057508684694767,
                -0.09579894691705704,
                -0.23047401010990143,
                0.2971533536911011,
                0.3805268108844757,
                -0.09495427459478378,
                0.17647022008895874,
                0.18539060652256012,
                -0.2712710201740265,
                -0.04156367853283882,
                0.24333283305168152,
                0.20100706815719604,
                -0.2770506739616394,
                0.14822420477867126,
                -0.21250252425670624,
                0.2799370288848877,
                0.19590435922145844,
                -0.31956809759140015,
                -0.18355439603328705,
                -0.1556989848613739,
                -0.1526486575603485,
                0.18752941489219666,
                -0.1281854212284088,
                0.13250960409641266,
                -0.12949468195438385,
                -0.18777820467948914,
                0.1891772747039795,
                -0.04928404465317726,
                0.11419607698917389,
                -0.2031671553850174,
                0.26767608523368835,
                0.2113991230726242,
                0.10067719966173172,
                0.22279423475265503,
                -0.012866341508924961,
                0.34321534633636475,
                -0.21932822465896606,
                0.22005607187747955,
                -0.2144913226366043,
                -0.10297886282205582,
                -0.21281880140304565,
                -0.12790264189243317,
                -0.04252467304468155,
                -0.15699362754821777,
                -0.20262545347213745,
                0.2597368359565735,
                0.025425778701901436,
                0.317749559879303,
                0.2101852297782898,
                0.05010909214615822,
                0.2207372784614563,
                0.35393890738487244,
                0.12555135786533356,
                -0.30949461460113525,
                -0.2451062649488449,
                0.37521499395370483,
                0.04880146682262421,
                0.004484490491449833,
                -0.2330605834722519,
                -0.09029839932918549,
                0.12207993865013123,
                -0.22067132592201233,
                0.37581145763397217,
                0.3682616353034973,
                -0.018272828310728073,
                -0.10083498805761337,
                -0.24919109046459198,
                0.05088859796524048,
                -0.2230163961648941,
                0.04216616600751877,
                0.30092358589172363,
                0.18402758240699768,
                -0.007720626890659332,
                0.08966563642024994,
                -0.14289379119873047,
                0.2264316976070404,
                -0.1057983785867691,
                0.3253723084926605,
                -0.1436963528394699,
                0.04091136157512665,
                -0.1650053709745407,
                -0.2933005094528198,
                0.14259852468967438,
                0.0021260157227516174,
                -0.21162015199661255,
                0.3063000440597534,
                -0.39213764667510986,
                -0.2139435112476349,
                -0.10478249192237854,
                0.338824987411499,
                0.06731817126274109
            ],
            "dims": [
                22,
                22
            ]
        },
        "l3_sineblock_dense_a.bias": {
            "data": [
                0.0428493432700634,
                -0.0006148889660835266,
                0.020066944882273674,
                0.004965184722095728,
                -0.012177841737866402,
                -0.002116849645972252,
                -0.0021106565836817026,
                -0.002050809795036912,
                0.04426496475934982,
                0.02314707078039646,
                -0.0479290634393692,
                0.0023633555974811316,
                -0.005861694924533367,
                0.05421296879649162,
                -0.0076293000020086765,
                0.07339222729206085,
                -0.015807487070560455,
                -0.026587331667542458,
                -0.00652178144082427,
                -0.004688758868724108,
                -0.0036295654717832804,
                0.026519009843468666
            ],
            "dims": [
                22,
