{
    "architecture": {
        "network_type": "SIREN",
        "layer_dimensions": [
            3,
            38,
            38,
            38,
            38,
            38,
            38,
            38,
            38,
            38,
            38,
            38,
            38,
            38,
            38,
            1
        ],
        "frequencies": 0
    },
    "parameters": {
        "original_values_bounds": [
            [
                1.4342561960220337
            ],
            [
                -4.677231311798096
            ]
        ],
        "layers": {
            "l0_sinelayer_dense.kernel": [
                0.12613841891288757,
                0.009474257007241249,
                0.056157227605581284,
                0.20866425335407257,
                -0.2741123139858246,
                -0.020671561360359192,
                0.2051900029182434,
                -0.0012827992904931307,
                0.134965181350708,
                -0.17158862948417664,
                0.11070545017719269,
                -0.21108323335647583,
                0.10893590748310089,
                -0.17111627757549286,
                0.07874900102615356,
                -0.0030493903905153275,
                0.27558448910713196,
                0.3400316834449768,
                -0.3123492896556854,
                0.04359793663024902,
                -0.04269057884812355,
                -0.37462499737739563,
                -0.029619693756103516,
                0.17556115984916687,
                0.37528401613235474,
                0.34322476387023926,
                -0.3642788231372833,
                0.15481331944465637,
                -0.2596619129180908,
                -0.01074649766087532,
                -0.31176993250846863,
                0.32191038131713867,
                0.2351081222295761,
                0.29482975602149963,
                -0.2855088710784912,
                -0.3057475984096527,
                -0.047363605350255966,
                -0.0841074138879776,
                -0.06925198435783386,
                0.08168646693229675,
                -0.0036708179395645857,
                -0.09496880322694778,
                -0.06643269211053848,
                0.3068273663520813,
                -0.20964035391807556,
                0.36201703548431396,
                0.2962783873081207,
                0.04972783476114273,
                -0.28284791111946106,
                -0.1064063161611557,
                -0.23791274428367615,
                0.21478520333766937,
                0.04459467902779579,
                0.2696395218372345,
                -0.07228965312242508,
                0.3284406065940857,
                -0.02505146712064743,
                0.23180684447288513,
                0.037315212190151215,
                0.3453103005886078,
                -0.22591958940029144,
                0.11404575407505035,
                -0.24712468683719635,
                -0.07133100926876068,
                -0.33575209975242615,
                0.32909470796585083,
                -0.18889005482196808,
                0.255664587020874,
                0.3153739273548126,
                -0.25869113206863403,
                0.2108398973941803,
                -0.327182412147522,
                -0.18115462362766266,
                0.1474972367286682,
                0.22139416635036469,
                0.23526938259601593,
                -0.13830848038196564,
                -0.1267576813697815,
                0.12923632562160492,
                -0.13111090660095215,
                -0.32594263553619385,
                -0.017253991216421127,
                0.22306013107299805,
                -0.37646088004112244,
                0.2115938365459442,
                -0.18129749596118927,
                0.15847985446453094,
                0.14625835418701172,
                -0.2080431580543518,
                0.05714651569724083,
                -0.0956365242600441,
                0.006864185445010662,
                -0.16519194841384888,
                0.28768786787986755,
                -0.22937653958797455,
                0.2129596322774887,
                0.3458981513977051,
                -0.0018649686826393008,
                -0.1707637757062912,
                -0.28730419278144836,
                0.18402059376239777,
                0.07090387493371964,
                -0.312244713306427,
                0.3622293174266815,
                0.03457028791308403,
                0.23080524802207947,
                0.27574992179870605,
                0.04352057725191116,
                0.10393134504556656,
                -0.19886377453804016,
                0.13702523708343506,
                0.309974730014801,
                -0.24067048728466034,
                -0.27372708916664124
            ],
            "l0_sinelayer_dense.bias": [
                0.0006166194216348231,
                -0.01842186227440834,
                0.0012850371422246099,
                -0.0018314390908926725,
                0.0027522507589310408,
                -0.00414174934849143,
                -0.002216168213635683,
                0.00446781562641263,
                0.004507595673203468,
                -0.0021726947743445635,
                -0.0021854450460523367,
                0.0071866377256810665,
                -0.0009499325533397496,
                6.071786629036069e-08,
                -0.0019121220102533698,
                0.0022767239715903997,
                -0.0023706622887402773,
                0.0010328917996957898,
                0.00023691989190410823,
                -0.0012532277032732964,
                -0.009229353629052639,
                -0.004379515536129475,
                -0.0015651123831048608,
                -0.005922006443142891,
                -0.012911678291857243,
                0.002986256731674075,
                0.006597413215786219,
                0.0013566589914262295,
                0.001950691221281886,
                -0.001924311276525259,
                -0.00023636460537090898,
                -0.0027145082131028175,
                -0.0018651915015652776,
                -0.001782323233783245,
                0.00016592716565355659,
                -0.0003005127073265612,
                0.003607202088460326,
                0.0033608314115554094
            ],
            "l1_sineblock_dense_a.kernel": [
                0.2693961262702942,
                -0.25577566027641296,
                -0.1423770785331726,
                -0.17246298491954803,
                0.181884765625,
                -0.013249649666249752,
                0.23659822344779968,
                -0.2400728464126587,
                0.1428847312927246,
                -0.23237726092338562,
                -0.13697053492069244,
                0.26547688245773315,
                0.20866335928440094,
                -0.20873303711414337,
                0.1166212260723114,
                -0.2638210356235504,
                -0.04656405374407768,
                0.15547657012939453,
                -0.2332022786140442,
                0.27479109168052673,
                -0.06956254690885544,
                0.13642518222332,
                0.28402501344680786,
                0.03262965381145477,
                -0.12314674258232117,
                0.20982539653778076,
                0.24670369923114777,
                0.0516410693526268,
                0.05027768015861511,
                0.25716230273246765,
                0.19605670869350433,
                0.013791021890938282,
                -0.08270463347434998,
                0.21646152436733246,
                -0.010400233790278435,
                -0.03327227756381035,
                0.0036976425908505917,
                -0.11104121059179306,
                0.05756748095154762,
                -0.06403575837612152,
                -0.2601550221443176,
                0.2264956533908844,
                0.14657989144325256,
                -0.24874268472194672,
                -0.0024525965563952923,
                -0.23059679567813873,
                -0.046780556440353394,
                0.268386572599411,
                0.027617426589131355,
                -0.0876913070678711,
                -0.12102582305669785,
                0.11218370497226715,
                -0.051299553364515305,
                0.03423827886581421,
                0.07771781086921692,
                0.0279278252273798,
                0.07188181579113007,
                0.11126652359962463,
                0.0950424075126648,
                -0.2224307656288147,
                -0.24277715384960175,
                0.2529803514480591,
                -0.018984220921993256,
                0.007957727648317814,
                0.011479773558676243,
                -0.048418715596199036,
                0.22137005627155304,
                -0.28304967284202576,
                -0.07445943355560303,
                -0.038040824234485626,
                -0.13631653785705566,
                0.0008132228394970298,
                -0.11987164616584778,
                -0.22698374092578888,
                -0.17253990471363068,
                -0.09695172309875488,
                -0.05529637262225151,
                0.11250536143779755,
                -0.0645175352692604,
                -0.12307871133089066,
                -0.2592795193195343,
                -0.14380446076393127,
                0.27434906363487244,
                -0.04140627011656761,
                0.020080192014575005,
                0.12738700211048126,
                -0.05675968527793884,
                0.1799299269914627,
                -0.1749584972858429,
                0.26366135478019714,
                -0.2454638034105301,
                0.2373180240392685,
                0.2593221068382263,
                -0.14543764293193817,
                0.06964075565338135,
                -0.12199089676141739,
                -0.12812532484531403,
                -0.08000372350215912,
                0.01944577880203724,
                -0.17757728695869446,
                0.027875935658812523,
                0.049055252224206924,
                -0.1185407042503357,
                -0.06895960867404938,
                0.28775647282600403,
                0.052554719150066376,
                -0.0697999894618988,
                0.14537684619426727,
                0.20707184076309204,
                -0.011154850013554096,
                -0.019313909113407135,
                0.11018403619527817,
                -0.2557544410228729,
                -0.02442063018679619,
                0.061121731996536255,
                -0.2702574133872986,
                0.2636474668979645,
                0.2247755080461502,
                0.1476285308599472,
                0.0367436520755291,
                -0.030965175479650497,
                0.09761741757392883,
                0.2419433295726776,
                -0.07624635100364685,
                -0.20880572497844696,
                0.16123010218143463,
                -0.26134371757507324,
                0.167474165558815,
                0.17367391288280487,
                0.07811622321605682,
                0.047668635845184326,
                0.21281759440898895,
                -0.23608723282814026,
                0.17702406644821167,
                0.2592993974685669,
                -0.18432055413722992,
                -0.18873471021652222,
                0.015795206651091576,
                -0.1668863594532013,
                0.027533413842320442,
                -0.26360124349594116,
                -0.2369028925895691,
                -0.15867385268211365,
                -0.014212297275662422,
                0.06790895015001297,
                0.05364488437771797,
                0.19458486139774323,
                0.27526867389678955,
                0.1518588662147522,
                -0.07086171209812164,
                -0.1931077241897583,
                0.11609037220478058,
                0.11379466205835342,
                -0.05866224691271782,
                0.013266567140817642,
                -0.1895086020231247,
                0.22808095812797546,
                -0.14938150346279144,
                -0.2211751788854599,
                0.27569395303726196,
                -0.10770370066165924,
                0.10125936567783356,
                0.18017148971557617,
                -0.22025085985660553,
                -0.07892374694347382,
                0.241436168551445,
                -0.04999750480055809,
                0.2572822570800781,
                0.276324987411499,
                0.21881887316703796,
                0.12766116857528687,
                -0.24566957354545593,
                -0.062440335750579834,
                0.21182513236999512,
                -0.2317834347486496,
                0.1750599592924118,
                -0.029737574979662895,
                0.2667543590068817,
                -0.208214670419693,
                -0.06365837156772614,
                0.22600910067558289,
                -0.06547825783491135,
                0.12429185956716537,
                -0.06408818811178207,
                0.19366510212421417,
                0.1733751893043518,
                0.25883617997169495,
                0.20194149017333984,
                0.14858098328113556,
                -0.05191607400774956,
                0.22980453073978424,
                -0.22052620351314545,
                0.033642321825027466,
                -0.02093605324625969,
                0.04432457312941551,
                -0.21746258437633514,
                -0.1845107227563858,
                0.018205279484391212,
                -0.07800337672233582,
                0.13112984597682953,
                -0.24230782687664032,
                0.06730537116527557,
                0.00277995178475976,
                -0.051868047565221786,
                -0.1064058169722557,
                -0.07196686416864395,
                0.14196865260601044,
                0.24630147218704224,
                0.15172286331653595,
                -0.06755097210407257,
                -0.13939766585826874,
                0.22319012880325317,
                0.03882613033056259,
                -0.14909911155700684,
                0.2442365288734436,
                -0.09458997845649719,
                0.15726007521152496,
                -0.2251977026462555,
                0.06157182529568672,
                -0.06976731866598129,
                -0.1274745762348175,
                0.17383000254631042,
                0.2690940797328949,
                0.11487311124801636,
                -0.19469310343265533,
                0.25501134991645813,
                -0.05277012661099434,
                0.10034798085689545,
                0.13829243183135986,
                0.037131067365407944,
                -0.1945904642343521,
                0.06948722898960114,
                0.2468343824148178,
                -0.07541927695274353,
                0.21134838461875916,
                0.17944446206092834,
                -0.048001643270254135,
                0.246932253241539,
                -0.02804439142346382,
                -0.06609587371349335,
                -0.07289908826351166,
                0.12585818767547607,
                -0.03777247294783592,
                -0.10166677832603455,
                -0.25450626015663147,
                0.042182572185993195,
                0.22225604951381683,
                -0.19991031289100647,
                -0.24280165135860443,
                0.19928570091724396,
                0.010865678079426289,
                0.16479824483394623,
                -0.20316819846630096,
                -0.02299560233950615,
                0.19946780800819397,
                -0.10546902567148209,
                0.01036445889621973,
                -0.06735033541917801,
                -0.1903369426727295,
                -0.2450859248638153,
                0.14623703062534332,
                0.27406200766563416,
                -0.019270136952400208,
                -0.14720246195793152,
                0.08522453159093857,
                0.23408858478069305,
                -0.014077454805374146,
                0.17813433706760406,
                -0.17405182123184204,
                -0.16128340363502502,
                0.06935317069292068,
                -0.23062166571617126,
                0.041362863034009933,
                -0.18329185247421265,
                -0.159845232963562,
                0.17827065289020538,
                -0.2696221172809601,
                -0.12411333620548248,
                0.014914543367922306,
                0.22084598243236542,
                0.17292067408561707,
                0.010619284585118294,
                0.2506677806377411,
                -0.1996423602104187,
                -0.22400814294815063,
                0.1351214498281479,
                0.24480020999908447,
                -0.25535836815834045,
                -0.15083207190036774,
                0.2697109878063202,
                0.03817563131451607,
                0.1661531627178192,
                -0.0971737876534462,
                -0.12124887853860855,
                0.0174692552536726,
                0.2258809357881546,
                0.19011028110980988,
                0.10569959878921509,
                -0.20204868912696838,
                0.17870184779167175,
                0.05687955766916275,
                -0.21571369469165802,
                0.19432927668094635,
                -0.2627996802330017,
                -0.06374819576740265,
                -0.17079563438892365,
                -0.0741642639040947,
                -0.2143644392490387,
                0.020472636446356773,
                0.022986477240920067,
                0.1941763013601303,
                -0.07410027086734772,
                0.0022205698769539595,
                -0.18556445837020874,
                0.22302880883216858,
                -0.23760166764259338,
                -0.0954195186495781,
                -0.018419884145259857,
                -0.11053329706192017,
                -0.09073058515787125,
                -0.0018105804920196533,
                -0.1443057358264923,
                -0.23550502955913544,
                0.1788032054901123,
                -0.1637159287929535,
                0.2366625815629959,
                -0.0015560989268124104,
                0.25470051169395447,
                0.1635502129793167,
                0.22613276541233063,
                -0.2565980851650238,
                0.0015625095693394542,
                -0.19112467765808105,
                -0.0364547036588192,
                -0.18094953894615173,
                -0.2569091320037842,
                0.0847761482000351,
                0.11942955106496811,
                -0.20059476792812347,
                -0.012228521518409252,
                0.23240633308887482,
                -0.083776094019413,
                -0.22820700705051422,
                -0.2564251720905304,
                -0.251077264547348,
                0.18099865317344666,
                -0.034617628902196884,
                -0.17412959039211273,
                -0.01188295055180788,
                0.13021603226661682,
                0.0784590020775795,
                0.13849063217639923,
                -0.06933028250932693,
                0.22887490689754486,
                0.15735502541065216,
                -0.09623055905103683,
                0.18716400861740112,
                0.19114135205745697,
                0.11879657953977585,
                -0.12699751555919647,
                -0.18157757818698883,
                -0.12882381677627563,
                -0.09721031785011292,
                0.2627185881137848,
                0.09772570431232452,
                0.17010216414928436,
                0.2658635675907135,
                0.1983957141637802,
                -0.09458769112825394,
                -0.14379607141017914,
                0.05532802268862724,
                0.06428494304418564,
                0.22151385247707367,
                0.19822947680950165,
                -0.05758807808160782,
                0.0916995257139206,
                -0.19338791072368622,
                -0.08955436944961548,
                0.19359780848026276,
                0.24797621369361877,
                -0.09027625620365143,
                0.037060778588056564,
                -0.08939114958047867,
                -0.11020719259977341,
                -0.013492786325514317,
                -0.10780952870845795,
                -0.07162541896104813,
                0.17601248621940613,
                -0.25072139501571655,
                0.024643735960125923,
                0.10687603056430817,
                -0.08030147850513458,
                0.10679785162210464,
                0.052237994968891144,
                0.10683874040842056,
                -0.20949724316596985,
                -0.18961407244205475,
                0.08032635599374771,
                0.12145168334245682,
                0.11167777329683304,
                0.08029872179031372,
                0.0269398782402277,
                0.017968669533729553,
                -0.13258056342601776,
                -0.16828906536102295,
                -0.15474656224250793,
                0.14999015629291534,
                -0.14931674301624298,
                0.11396461725234985,
                0.17507745325565338,
                -0.10654882341623306,
                0.04364897683262825,
                0.1707514077425003,
                0.027374928817152977,
                -0.16677044332027435,
                -0.25275421142578125,
                -0.13533784449100494,
                -0.011171690188348293,
                -0.02237132377922535,
                0.2642153799533844,
                -0.17090542614459991,
                -0.043463192880153656,
                -0.01660189963877201,
                -0.16625644266605377,
                -0.018104510381817818,
                0.19311128556728363,
                0.17803536355495453,
                0.21814969182014465,
                -0.01208462007343769,
                0.21696628630161285,
                0.26706022024154663,
                -0.22445565462112427,
                0.2067934274673462,
                -0.09050984680652618,
                0.23934632539749146,
                0.27679717540740967,
                0.20781421661376953,
                0.26778244972229004,
                0.0310406144708395,
                -0.2400519847869873,
                0.025153642520308495,
                -0.28501856327056885,
                0.01699499599635601,
                0.06331390142440796,
                -0.20538337528705597,
                0.03836023062467575,
                0.23699432611465454,
                0.04804571717977524,
                -0.2646421492099762,
                0.10874997824430466,
                -0.1950909048318863,
                0.24204744398593903,
                0.15780049562454224,
                0.1187228411436081,
                0.14332793653011322,
                -0.23273618519306183,
                0.26833197474479675,
                -0.09143630415201187,
                -0.12614895403385162,
                -0.13497327268123627,
                0.2710953950881958,
                0.25302350521087646,
                0.0804177075624466,
                0.2514292597770691,
                -0.020885884761810303,
                -0.15921755135059357,
                -0.24168473482131958,
                0.23317675292491913,
                0.18806876242160797,
                0.04670465737581253,
                -0.17809119820594788,
                0.12457898259162903,
                -0.15575440227985382,
                0.04655137285590172,
                0.02157728001475334,
                0.16602878272533417,
                0.03278673440217972,
                0.1825694888830185,
                -0.10596616566181183,
                -0.20536577701568604,
                0.2766452729701996,
                -0.2795819342136383,
                -0.10329146683216095,
                0.08231929689645767,
                -0.19332462549209595,
                -0.11874330043792725,
                0.15445266664028168,
                -0.02982945740222931,
                -0.06338518112897873,
                0.13696101307868958,
                -0.01390101108700037,
                -0.035246703773736954,
                0.11277645081281662,
                -0.1260720044374466,
                -0.10821792483329773,
                0.2054978609085083,
                -0.10326274484395981,
                -0.10891887545585632,
                0.2546769678592682,
                -0.16614699363708496,
                -0.1641474813222885,
                -0.1985623836517334,
                -0.08069423586130142,
                0.26197004318237305,
                -0.13763903081417084,
                -0.20085033774375916,
                0.24858751893043518,
                -0.03673886880278587,
                0.17615313827991486,
                -0.0667945146560669,
                0.14798720180988312,
                0.11021999269723892,
                0.008219944313168526,
                0.06700992584228516,
                0.2635515034198761,
                0.21321527659893036,
                0.2583296597003937,
                0.2144782692193985,
                0.1347632110118866,
                0.16768962144851685,
                -0.08168386667966843,
                0.1752605140209198,
                -0.17057248950004578,
                0.2663026452064514,
                0.17915841937065125,
                -0.24960029125213623,
                -0.04618338868021965,
                0.2538723945617676,
                0.12440638989210129,
                -0.06288118660449982,
                -0.25706931948661804,
                0.04665853828191757,
                -0.05065140128135681,
                0.22444739937782288,
                -0.23421889543533325,
                0.2616005539894104,
                0.08934694528579712,
                -0.15029951930046082,
                0.11786813288927078,
                0.09608512371778488,
                -0.04038490355014801,
                0.005577500443905592,
                0.21350005269050598,
                0.16273453831672668,
                -0.07379668205976486,
                0.28119513392448425,
                0.22372989356517792,
                -0.01774509996175766,
                -0.26151397824287415,
                -0.2463180124759674,
                0.16368670761585236,
                0.2593403160572052,
                -0.0001615165383554995,
                0.23522980511188507,
                0.02684379741549492,
                0.139510378241539,
                -0.18633277714252472,
                0.2468104064464569,
                -0.12925724685192108,
                0.15509569644927979,
                -0.08127164095640182,
                0.13721206784248352,
                0.06698738783597946,
                -0.027144039049744606,
                0.14264832437038422,
                0.18055298924446106,
                -0.14997343719005585,
                -0.25873467326164246,
                -0.2186846137046814,
                0.22816723585128784,
                -0.09694130718708038,
                0.14392893016338348,
                0.08909603953361511,
                -0.009335119277238846,
                -0.0036773961037397385,
                -0.22115306556224823,
                0.007633890025317669,
                0.010109308175742626,
                0.1395142525434494,
                -0.10084512084722519,
                0.11171545088291168,
                -0.2007019966840744,
                0.024859445169568062,
                0.10486073046922684,
                -0.03505513072013855,
                0.22459198534488678,
                0.18417921662330627,
                -0.059451933950185776,
                -0.03727918863296509,
                0.031946178525686264,
                0.20809045433998108,
                0.2246188372373581,
                -0.08540588617324829,
                -0.12180814146995544,
                -0.05161973461508751,
                0.06084414944052696,
                0.044481463730335236,
                -0.12135473638772964,
                0.13987578451633453,
                0.13939854502677917,
                0.0725874975323677,
                0.22842629253864288,
                0.06933439522981644,
                0.08026422560214996,
                0.11379288136959076,
                -0.1482761800289154,
                0.09689150750637054,
                -0.24506627023220062,
                0.19883230328559875,
                -0.10316835343837738,
                0.23555846512317657,
                -0.06683381646871567,
                -0.07192502915859222,
                0.1842605024576187,
                -0.25690922141075134,
                0.24105489253997803,
                0.15031923353672028,
                0.23846961557865143,
                0.0929235965013504,
                -0.2153283804655075,
                -0.18976527452468872,
                -0.1712968498468399,
                0.06216373294591904,
                0.002021202351897955,
                -0.21045662462711334,
                -0.12064620852470398,
                -0.1076836884021759,
                -0.04957195743918419,
                -0.14670751988887787,
                -0.15858760476112366,
                -0.17894533276557922,
                -0.19968685507774353,
                -0.027038313448429108,
                0.24588175117969513,
                0.22275741398334503,
                0.23346003890037537,
                0.1736316978931427,
                -0.14274421334266663,
                -0.27011266350746155,
                0.2618928551673889,
                -0.027940986678004265,
                0.14334474503993988,
                0.2793966829776764,
                -0.21866029500961304,
                -0.24046652019023895,
                0.018253862857818604,
                -0.1049213856458664,
                0.20920372009277344,
                -0.1207827776670456,
                0.1010371595621109,
                -0.16484670341014862,
                -0.2118770331144333,
                0.253662109375,
                0.2732468843460083,
                -0.05742267146706581,
                -0.1172470822930336,
                -0.17072553932666779,
                -0.16552551090717316,
                0.016908762976527214,
                0.23905211687088013,
                -0.26814544200897217,
                0.18928134441375732,
                -0.1986539661884308,
                -0.09140469133853912,
                -0.05628788843750954,
                -0.11708468943834305,
                -0.12763062119483948,
                0.08725257962942123,
                0.18364548683166504,
                0.19987836480140686,
                -0.1723579317331314,
                0.06250426173210144,
                -0.2296985387802124,
                0.24402102828025818,
                -0.2662909924983978,
                0.03744874149560928,
                -0.27756762504577637,
                -0.08253403007984161,
                -0.0005776835605502129,
                0.1542297750711441,
                -0.21228845417499542,
                -0.06697051227092743,
                -0.21738125383853912,
                0.16561248898506165,
                0.19521266222000122,
                -0.10881735384464264,
                0.20429588854312897,
                -0.08574746549129486,
                -0.15286950767040253,
                0.08644838631153107,
                0.0788799598813057,
                0.11184301227331161,
                -0.23862148821353912,
                -0.12126483023166656,
                -0.06176352873444557,
                0.11297762393951416,
                0.03382018581032753,
                -0.22520047426223755,
                -0.23704056441783905,
                0.17645180225372314,
                -0.11693618446588516,
                0.1069968044757843,
                -0.2415955662727356,
                -0.225355863571167,
                0.2108432948589325,
                0.2528688311576843,
                0.14062893390655518,
                0.259249746799469,
                0.027121983468532562,
                -0.10530517995357513,
                -0.20085740089416504,
                0.2508307099342346,
                0.02182215079665184,
                -0.1152970939874649,
                -0.08507640659809113,
                -0.19140493869781494,
                -0.1791459172964096,
                0.2353544384241104,
                -0.13961127400398254,
                0.13715168833732605,
                -0.09005924314260483,
                0.27233052253723145,
                0.2658127546310425,
                0.1668388396501541,
                0.15770882368087769,
                -0.20238076150417328,
                0.16437198221683502,
                -0.150729238986969,
                -0.1998409479856491,
                0.18046881258487701,
                -0.20884636044502258,
                0.08586699515581131,
                -0.2562972605228424,
                -0.1842810958623886,
                -0.22601629793643951,
                -0.02162853628396988,
                0.20648573338985443,
                0.25183260440826416,
                -0.1833926886320114,
                0.18053363263607025,
                0.054155383259058,
                -0.17437654733657837,
                0.18643461167812347,
                0.18757684528827667,
                -0.12091070413589478,
                0.1768125295639038,
                0.20634987950325012,
                0.1508827656507492,
                -0.25209319591522217,
                0.24598075449466705,
                -0.02491714432835579,
                -0.2464914470911026,
                -0.04110956937074661,
                -0.2661174535751343,
                0.24970673024654388,
                0.12464840710163116,
                -0.1723928153514862,
                -0.165323406457901,
                -0.17982271313667297,
                0.2382463663816452,
                0.1982094645500183,
                -0.001359889516606927,
                0.007631605491042137,
                -0.11992853879928589,
                0.21511800587177277,
                -0.16219806671142578,
                0.062139082700014114,
                0.2049071043729782,
                0.2535672187805176,
                -0.018342135474085808,
                -0.024695854634046555,
                -0.21278829872608185,
                -0.14704115688800812,
                -0.051503751426935196,
                0.12324860692024231,
                -0.14660359919071198,
                0.22919560968875885,
                0.23133151233196259,
                -0.08633687347173691,
                -0.2557031512260437,
                -0.009842192754149437,
                0.22316759824752808,
                0.1403137892484665,
                0.03683521971106529,
                -0.07383481413125992,
                -0.021802755072712898,
                -0.04274173825979233,
                -0.24707545340061188,
                0.1578514277935028,
                -0.027072185650467873,
                0.13306964933872223,
                0.23300142586231232,
                0.19829267263412476,
                -0.031899772584438324,
                -0.16177994012832642,
                -0.20402991771697998,
                0.007308728527277708,
                0.260153591632843,
                0.057205747812986374,
                -0.0074602654203772545,
                0.23717255890369415,
                0.0029595885425806046,
                -0.2795785963535309,
                -0.08060673624277115,
                0.17497000098228455,
                0.18863078951835632,
                -0.19482965767383575,
                0.22770531475543976,
                -0.20678772032260895,
                -0.14210855960845947,
                -0.06508693844079971,
                0.07381080836057663,
                0.07398156076669693,
                0.13184456527233124,
                -0.23940852284431458,
                -0.06768642365932465,
                0.07954339683055878,
                -0.17436173558235168,
                0.034977883100509644,
                -0.04678237810730934,
                -0.26580095291137695,
                -0.12181142717599869,
                0.14348940551280975,
                -0.1356104016304016,
                -0.04124322161078453,
                -0.11826357990503311,
                -0.09294328838586807,
                0.00447836983948946,
                0.22874560952186584,
                -0.029535580426454544,
                0.11159785836935043,
                0.23067694902420044,
                -0.18742288649082184,
                -0.0164809413254261,
                -0.2815822958946228,
                0.16727453470230103,
                0.268658846616745,
                0.1898074895143509,
                -0.26444512605667114,
                -0.02597387135028839,
                0.17247235774993896,
                0.20475642383098602,
                0.14566916227340698,
                0.2659039795398712,
                -0.15480424463748932,
                0.17372411489486694,
                -0.16526255011558533,
                -0.021586773917078972,
                -0.08156396448612213,
                -0.280221164226532,
                -0.24659810960292816,
                0.1514737457036972,
                -0.1809709668159485,
                0.05036597326397896,
                0.1673273891210556,
                0.12024180591106415,
                0.2733519673347473,
                -0.10057496279478073,
                -0.07599058747291565,
                0.26923319697380066,
                0.19629789888858795,
                0.00384787330403924,
                -0.037907738238573074,
                0.1511632800102234,
                0.12476862967014313,
                -0.18006256222724915,
                -0.13333116471767426,
                0.032432399690151215,
                0.16895775496959686,
                0.04385381564497948,
                -0.09201420098543167,
                -0.07920140027999878,
                -0.1597936898469925,
                0.008258923888206482,
                -0.165703684091568,
                -0.035351626574993134,
                0.13141241669654846,
                -0.24881035089492798,
                0.11026528477668762,
                -0.05895235762000084,
                -0.15163646638393402,
                0.03075600415468216,
                0.20131915807724,
                -0.16007627546787262,
                0.01088461373001337,
                -0.17948874831199646,
                -0.017618810757994652,
                0.2545735239982605,
                0.13557451963424683,
                0.20214048027992249,
                -0.06760711222887039,
                -0.2342635691165924,
                -0.23742297291755676,
                -0.19043344259262085,
                -0.13815493881702423,
                0.25893649458885193,
                -0.18940480053424835,
                0.1346234381198883,
                -0.14039747416973114,
                0.061759691685438156,
                -0.2716548442840576,
                -0.016354119405150414,
                -0.08938316255807877,
                -0.14165496826171875,
                -0.14220531284809113,
                -0.18243341147899628,
                -0.20565706491470337,
                -0.27381646633148193,
                0.25930389761924744,
                -0.21025440096855164,
                -0.21766531467437744,
                -0.27499037981033325,
                -0.14750458300113678,
                0.0018961930181831121,
                -0.0711100846529007,
                -0.2149585336446762,
                0.11798789352178574,
                0.14573852717876434,
                0.2190658152103424,
                0.2098650187253952,
                -0.23310811817646027,
                -0.16946348547935486,
                -0.08148160576820374,
                0.1493959128856659,
                -0.27060624957084656,
                -0.031903114169836044,
                0.1803705245256424,
                -0.024391645565629005,
                -0.015223691239953041,
                0.09273438155651093,
                -0.04004983231425285,
                0.02588280662894249,
                0.20629464089870453,
                -0.08185895532369614,
                -0.06967276334762573,
                -0.004608852788805962,
                -0.26200708746910095,
                -0.028421364724636078,
                -0.05287529528141022,
                -0.003565988503396511,
                -0.13046996295452118,
                -0.056842610239982605,
                -0.15953871607780457,
                -0.0220453143119812,
                0.07150612026453018,
                -0.250216543674469,
                -0.20481789112091064,
                0.15887495875358582,
                -0.2768303155899048,
                -0.14827221632003784,
                0.1811392456293106,
                -0.18678730726242065,
                -0.2619359493255615,
                0.12101364135742188,
                0.1469905972480774,
                0.03345524147152901,
                -0.13382437825202942,
                -0.2456834614276886,
                -0.229319766163826,
                -0.03473085165023804,
                0.10217174142599106,
                -0.02650938183069229,
                -0.18192413449287415,
                0.1462346315383911,
                0.23386524617671967,
                -0.22691620886325836,
                -0.22736135125160217,
                -0.22953848540782928,
                0.06279593706130981,
                -0.14476417005062103,
                0.19227954745292664,
                0.024715883657336235,
                -0.10999633371829987,
                -0.23416480422019958,
                0.12354147434234619,
                0.06496251374483109,
                0.007914561778306961,
                -0.07304739207029343,
                -0.0063272337429225445,
                -0.031261421740055084,
                -0.1271192878484726,
                0.20511531829833984,
                -0.07591255009174347,
                0.240669846534729,
                -0.09108708798885345,
                0.1603366881608963,
                -0.04210939630866051,
                0.23082993924617767,
                0.03597988933324814,
                0.14064878225326538,
                -0.012999330647289753,
                -0.06877919286489487,
                -0.10081196576356888,
                -0.14546331763267517,
                0.0913754552602768,
                -0.15635256469249725,
                0.06120593845844269,
                0.08030004054307938,
                -0.23961247503757477,
                0.04198438674211502,
                -0.21663132309913635,
                -0.08600221574306488,
                -0.17430566251277924,
                -0.21571777760982513,
                -0.06275579333305359,
                0.28348132967948914,
                0.01812116615474224,
                -0.19349181652069092,
                -0.13943380117416382,
                0.16734948754310608,
                0.16498665511608124,
                -0.19686396420001984,
                0.13393385708332062,
                -0.0459321103990078,
                0.17239825427532196,
                -0.08358698338270187,
                -0.17356190085411072,
                -0.26914840936660767,
                0.06095638498663902,
                -0.07185716927051544,
                -0.09881102293729782,
                0.10619445890188217,
                0.1070479229092598,
                -0.09057965129613876,
                -0.15500058233737946,
                -0.19480852782726288,
                -0.02187742106616497,
                0.015604217536747456,
                0.27694809436798096,
                0.08987313508987427,
                -0.2268226593732834,
                -0.13353241980075836,
                -0.07306548953056335,
                0.2284373790025711,
                -0.09311510622501373,
                0.019350910559296608,
                -0.10654809325933456,
                0.21997207403182983,
                -0.2490503489971161,
                0.26880326867103577,
                -0.18463222682476044,
                0.06345584243535995,
                0.27014094591140747,
                -0.11745774000883102,
                0.05997680127620697,
                -0.22527512907981873,
                0.1873295158147812,
                0.1159631758928299,
                -0.16299915313720703,
                -0.07370134443044662,
                -0.07340562343597412,
                -0.18243059515953064,
                0.1534472405910492,
                0.21265654265880585,
                -0.054267946630716324,
                0.10834724456071854,
                0.06552992016077042,
                -0.031854283064603806,
                0.09004028141498566,
                0.024306682869791985,
                0.01005595363676548,
                0.2079407423734665,
                -0.15228813886642456,
                -0.1315201073884964,
                -0.06799543648958206,
                -0.23563693463802338,
                0.12136281281709671,
                0.16373664140701294,
                -0.19972075521945953,
                0.21007029712200165,
                0.1823851317167282,
                -0.05007406696677208,
                0.155912846326828,
                0.11090672761201859,
                0.04547053575515747,
                0.036474619060754776,
                0.09452483803033829,
                0.17858567833900452,
                0.12757349014282227,
                -0.1583373099565506,
                -0.25295358896255493,
                0.238271102309227,
                0.21896280348300934,
                0.13860738277435303,
                0.18271395564079285,
                0.007236401550471783,
                -0.256408154964447,
                0.16995985805988312,
                0.2499157041311264,
                0.10029464960098267,
                0.04901714250445366,
                -0.2718430757522583,
                -0.2716519236564636,
                0.22491759061813354,
                -0.13398480415344238,
                0.03121468424797058,
                0.14703378081321716,
                0.1406448632478714,
                -0.1992555409669876,
                -0.19385410845279694,
                -0.15484479069709778,
                -0.23680365085601807,
                0.2758401930332184,
                -0.0957721620798111,
                0.05284178629517555,
                -0.06923812627792358,
                0.14360128343105316,
                -0.15054866671562195,
                0.08501069247722626,
                -0.028447797521948814,
                0.27147093415260315,
                0.11525769531726837,
                0.1434573084115982,
                0.23893161118030548,
                -0.12643569707870483,
                0.17465448379516602,
                -0.2135978639125824,
                0.02402667887508869,
                -0.19301946461200714,
                -0.07048144191503525,
                -0.047514837235212326,
                -0.204873725771904,
                0.2788170576095581,
                -0.071977898478508,
                -0.25418850779533386,
                0.18246231973171234,
                -0.24723130464553833,
                -0.23971332609653473,
                -0.0900098979473114,
                0.11444295197725296,
                0.09035106003284454,
                0.2745307385921478,
                0.140487939119339,
                0.0687636062502861,
                -0.1024508997797966,
                -0.08406800776720047,
                -0.17358841001987457,
                -0.1861361861228943,
                -0.11831758171319962,
                -0.023941516876220703,
                0.2238990217447281,
                -0.16822917759418488,
                0.10794537514448166,
                -0.20248417556285858,
                -0.17969830334186554,
                0.23534947633743286,
                -0.18226765096187592,
                0.2569442689418793,
                0.05374700576066971,
                0.2644820511341095,
                -0.15875275433063507,
                -0.2744327783584595,
                -0.2446933388710022,
                -0.03364115208387375,
                0.15966929495334625,
                -0.2505261301994324,
                0.07877834141254425,
                -0.12025123089551926,
                0.014747259207069874,
                -0.16373838484287262,
                -0.24250400066375732,
                -0.23674936592578888,
                -0.12332272529602051,
                0.03573831543326378,
                0.10722146183252335,
                0.04771886020898819,
                -0.16052961349487305,
                -0.12840278446674347,
                -0.1461559236049652,
                0.06672070175409317,
                0.16310124099254608,
                -0.13900114595890045,
                0.03304576501250267,
                -0.18377959728240967,
                0.21059739589691162,
                -0.11538367718458176,
                -0.2228657752275467,
                0.0877581462264061,
                -0.025417335331439972,
                -0.19540268182754517,
                -0.13803422451019287,
                -0.11186697334051132,
                -0.12391631305217743,
                0.26896631717681885,
                0.10160796344280243,
                0.0892433151602745,
                0.18626101315021515,
                -0.04965647682547569,
                -0.23964320123195648,
                -0.008167966268956661,
                -0.08557409048080444,
                0.17222289741039276,
                -0.08759790658950806,
                -0.22063781321048737,
                -0.21988800168037415,
                0.10346323996782303,
                0.1213608905673027,
                -0.18808095157146454,
                -0.1401609480381012,
                -0.10425225645303726,
                0.11817104369401932,
                0.19213074445724487,
                0.09419376403093338,
                0.12888185679912567,
                -0.211351677775383,
                -0.21243317425251007,
                -0.2297583818435669,
                0.1690506637096405,
                0.010596134699881077,
                -0.13297054171562195,
                0.0691770538687706,
                -0.09808098524808884,
                0.15707819163799286,
                -0.027692751958966255,
                -0.18185211718082428,
                -0.28014037013053894,
                -0.09216754883527756,
                -0.1688351333141327,
                -0.13221675157546997,
                0.24917079508304596,
                0.0696958526968956,
                0.047349706292152405,
                0.1235542818903923,
                -0.08169135451316833,
                -0.048022981733083725,
                0.06827627122402191,
                -0.23438866436481476,
                -0.045221585780382156,
                0.23315808176994324,
                0.2596845328807831,
                0.2605011761188507,
                -0.09770126640796661,
                -0.18782705068588257,
                -0.11364737898111343,
                -0.26026615500450134,
                -0.18662117421627045,
                -0.1744975447654724,
                -0.2806451618671417,
                -0.005009511020034552,
                -0.15496598184108734,
                0.09896589815616608,
                0.054228588938713074,
                0.014682324603199959,
                -0.1663087159395218,
                -0.0005409264704212546,
                -0.23933443427085876,
                -0.09844663739204407,
                0.15199322998523712,
                -0.08058281987905502,
                -0.2669318914413452,
                0.16526921093463898,
                0.20326143503189087,
                -0.0039013156201690435,
                -0.002272426849231124,
                0.1283942610025406,
                -0.2210705280303955,
                -0.036866672337055206,
                -0.16579699516296387,
                0.2813801169395447,
                0.060687292367219925,
                -0.18063636124134064,
                0.1566026210784912,
                -0.13611248135566711,
                0.148491770029068,
                0.16248564422130585,
                0.0393853560090065,
                0.14147023856639862,
                -0.1465252786874771,
                0.06363304704427719,
                -0.08313237130641937,
                -0.20335198938846588,
                0.0036068710032850504,
                -0.14338931441307068,
                0.03594084829092026,
                -0.21961632370948792,
                0.03916517645120621,
                -0.07384608685970306,
                -0.25888773798942566,
                0.1386943906545639,
                -0.24317310750484467,
                -0.2700176537036896,
                -0.033165182918310165,
                -0.21034348011016846,
                0.20257064700126648,
                -0.24935203790664673,
                0.0483056902885437,
                0.1991177499294281,
                0.14855386316776276,
                -0.1071224957704544,
                0.17975600063800812,
                0.23167230188846588,
                0.146856427192688,
                -0.009187888354063034,
                0.2568188011646271,
                0.012463632971048355,
                0.06891855597496033,
                -0.10926730185747147,
                -0.06651154905557632,
                -0.015356773510575294,
                0.23635728657245636,
                0.16847319900989532,
                -0.0009585837833583355,
                -0.22534659504890442,
                -0.1041351705789566,
                -0.19512678682804108,
                -0.016022784635424614,
                -0.12303592264652252,
                0.13248005509376526,
                -0.2170383483171463,
                -0.04661869257688522,
                -0.1307457983493805,
                -0.14295604825019836,
                -0.19631874561309814,
                0.23816542327404022,
                -0.094012051820755,
                -0.061044879257678986,
                -0.14817796647548676,
                -0.07896219938993454,
                -0.15641069412231445,
                0.1581774204969406,
                0.14955167472362518,
                0.2133311778306961,
                -0.25553280115127563,
                0.10891568660736084,
                0.15897536277770996,
                -0.07496602088212967,
                0.10398290306329727,
                0.2610790431499481,
                -0.16076119244098663,
                0.10093042254447937,
                0.07494883984327316,
                -0.13723626732826233,
                -0.11542431265115738,
                0.2037542164325714,
                0.08275871723890305,
                -0.12673993408679962,
                0.06308574229478836,
                0.09728609025478363,
                0.15970250964164734,
                -0.17670752108097076,
                -0.1887350231409073,
                0.12066584080457687,
                -0.12046106904745102,
                0.14431306719779968,
                0.017233585938811302,
                0.03377021104097366,
                -0.2159782201051712,
                -0.10801028460264206,
                0.16681984066963196,
                -0.2522338330745697,
                -0.041403234004974365,
                0.26450115442276,
                0.06574596464633942,
                -0.23528626561164856,
                -0.2340150773525238,
                -0.25399407744407654,
                -0.006986039225012064,
                0.25047361850738525,
                -0.0028701545670628548,
                -0.1104394942522049,
                -0.1447678506374359,
                0.19008387625217438,
                0.034144967794418335,
                0.18728983402252197,
                -0.1294390857219696,
                -0.07749239355325699,
                0.10099150240421295,
                -0.2216876894235611,
                0.017239602282643318,
                0.04100857675075531,
                -0.26980477571487427,
                0.1488620638847351,
                -0.2787448763847351,
                0.07045034319162369,
                0.013942611403763294,
                -0.14957194030284882,
                -0.24401728808879852,
                -0.14264912903308868,
                0.028258854523301125,
                -0.03855377808213234,
                0.2675630450248718,
                -0.13500063121318817,
                0.011879509314894676,
                0.20701898634433746,
                0.027515672147274017,
                0.018596790730953217,
                -0.14587125182151794,
                0.12505921721458435,
                -0.23374678194522858,
                0.2798656225204468,
                -0.2710327208042145,
                0.16290394961833954,
                0.19828781485557556,
                -0.014207676984369755,
                0.13821838796138763,
                -0.010688412003219128,
                0.1677638739347458,
                -0.19397523999214172,
                0.1443403661251068,
                -0.03591834381222725,
                0.2070659101009369,
                0.13759064674377441,
                0.09222135692834854,
                -0.07783590257167816,
                0.27437272667884827,
                -0.24331824481487274,
                0.19020859897136688,
                0.23823124170303345,
                0.15094219148159027,
                0.026903251186013222,
                -0.23959887027740479,
                -0.12168070673942566,
                -0.07367546111345291,
                0.23480182886123657,
                0.10737632215023041,
                0.062299203127622604,
                0.04780477285385132,
                -0.04520280286669731,
                0.2081204652786255,
                -0.16446353495121002,
                0.09542736411094666,
                0.04526012763381004,
                0.19831106066703796,
                -0.04553856700658798,
                0.01798354834318161,
                0.03537281975150108,
                0.2325717955827713,
                0.10381308943033218,
                0.2255711853504181,
                -0.2460227906703949,
                0.11407417804002762,
                -0.21201704442501068,
                0.08722053468227386,
                -0.17018795013427734,
                -0.08858002722263336,
                -0.053914930671453476,
                -0.2323688119649887,
                0.2652519941329956,
                -0.10379981994628906,
                -0.1001015454530716,
                -0.030399898067116737,
                0.2650142312049866,
                0.1913316547870636,
                0.03578605130314827
            ],
            "l1_sineblock_dense_a.bias": [
                0.002697071759030223,
                0.0017518161330372095,
                -0.007939353585243225,
                -0.0007805895293131471,
                -0.008979999460279942,
                0.004374650772660971,
                0.00035779475001618266,
                -0.0024493271484971046,
                0.003998867701739073,
                -0.008910715579986572,
                0.002075935248285532,
                -0.00029800337506458163,
                -0.003514891490340233,
                0.005443730391561985,
                0.009019311517477036,
                -0.0029830867424607277,
                0.006663728505373001,
                0.0006706599378958344,
                -0.012242243625223637,
                -0.00022848349181003869,
                -0.005304460413753986,
                0.0037684955168515444,
                -0.0035238570999354124,
                -0.004019306041300297,
                0.003266723593696952,
                -0.005763687659054995,
                -0.004034615587443113,
                0.0017300891922786832,
                -0.002653529169037938,
                0.0031883546616882086,
                -0.0028213849291205406,
                -0.0027909602504223585,
                0.005393459461629391,
                0.006299977190792561,
                -0.0008946755551733077,
                0.0028871779795736074,
                -0.00028497990570031106,
                -0.006394905503839254
            ],
            "l1_sineblock_dense_b.kernel": [
                0.04386359453201294,
                0.0848400667309761,
                -0.20523607730865479,
                0.08045775443315506,
                -0.08679185062646866,
                0.023924022912979126,
                0.2536953389644623,
                0.02438683807849884,
                0.1723090261220932,
                0.17353224754333496,
                -0.16212815046310425,
                -0.19676165282726288,
                0.051927391439676285,
                0.22466261684894562,
                0.1927879899740219,
                -0.12085384875535965,
                0.27445894479751587,
                0.10704365372657776,
                0.21036508679389954,
                0.0800904706120491,
                -0.18140028417110443,
                -0.08960550278425217,
                0.17110560834407806,
                -0.02242254465818405,
                -0.03985719382762909,
                -0.08467765152454376,
                -0.13982149958610535,
                0.2249782681465149,
                0.12811943888664246,
                0.27884167432785034,
                -0.0011922696139663458,
                -0.2831987738609314,
                -0.1515241414308548,
                -0.07086509466171265,
                -0.18063382804393768,
                -0.037934016436338425,
                -0.15324446558952332,
                -0.13361376523971558,
                -0.2618354856967926,
                -0.14343871176242828,
                0.09460374712944031,
                -0.19322752952575684,
                0.05337333306670189,
                0.04699806123971939,
                0.02423406019806862,
                0.10787959396839142,
                0.1175028383731842,
                -0.11286374926567078,
                -0.05472871661186218,
                -0.16140958666801453,
                -0.028999635949730873,
                -0.2180905044078827,
                0.08930027484893799,
                0.20328138768672943,
                -0.23888614773750305,
                -0.01673377864062786,
                0.06632213294506073,
                0.1226055771112442,
                -0.01729370467364788,
                0.1830669492483139,
                0.07574082165956497,
                -0.10828351974487305,
                0.19633707404136658,
                -0.021548260003328323,
                -0.09447316825389862,
                -0.19122587144374847,
                -0.1755141168832779,
                -0.18366235494613647,
                -0.27250051498413086,
                0.025795845314860344,
                -0.09872574359178543,
                0.11742198467254639,
                -0.2310141623020172,
                0.11139313876628876,
                -0.1193833127617836,
                -0.06948306411504745,
                0.22488486766815186,
                0.28100788593292236,
                0.12121720612049103,
                0.039000608026981354,
                -0.12758903205394745,
                0.11661037057638168,
                -0.22463944554328918,
                0.2564394176006317,
                -0.102027527987957,
                0.1847255975008011,
                -0.15193168818950653,
                0.07036802172660828,
                0.2750130295753479,
                -0.13644343614578247,
                0.10607459396123886,
                -0.0710529014468193,
                -0.1799805909395218,
                0.023520631715655327,
                -0.04757196456193924,
                -0.06115465611219406,
                0.1573825627565384,
                0.038078125566244125,
                -0.18809004127979279,
                -0.10883542895317078,
                0.08472947031259537,
                0.007999151945114136,
                0.016925277188420296,
                0.24727623164653778,
                -0.1959046721458435,
                -0.11055926233530045,
                -0.10451053828001022,
                0.20127034187316895,
                0.26173076033592224,
                0.14289556443691254,
                -0.2508339285850525,
                -0.06791417300701141,
                0.13280579447746277,
                -0.13899803161621094,
                -0.019909556955099106,
                0.21326586604118347,
                -0.12173880636692047,
                0.10478996485471725,
                -0.16221986711025238,
                -0.22646082937717438,
                0.11213833838701248,
                -0.10380987823009491,
                0.14038601517677307,
                -0.20510324835777283,
                -0.038645949214696884,
                -0.22714798152446747,
                -0.2684972584247589,
                -0.025935476645827293,
                0.05941201001405716,
                -0.18051564693450928,
                0.21732909977436066,
                0.26322999596595764,
                0.21246929466724396,
                0.007441624999046326,
                0.1752418428659439,
                -0.16942529380321503,
                -0.2418944239616394,
                0.2759656608104706,
                -0.11712557822465897,
                -0.14438162744045258,
                0.18370386958122253,
                -0.14038203656673431,
                -0.09339722245931625,
                0.18437741696834564,
                0.025784390047192574,
                -0.2725803554058075,
                -0.17666365206241608,
                0.14241375029087067,
                -0.12531204521656036,
                -0.2672693133354187,
                -0.0042888992466032505,
                0.21764391660690308,
                -0.2520512640476227,
                0.043394170701503754,
                -0.21565531194210052,
                0.23700733482837677,
                -0.276057630777359,
                0.2623732089996338,
                -0.22056518495082855,
                -0.019689233973622322,
                -0.24448347091674805,
                -0.2805960774421692,
                0.11299850791692734,
                0.18075820803642273,
                0.16056695580482483,
                -0.01404563244432211,
                0.0692327544093132,
                -0.2640819549560547,
                -0.03768474981188774,
                -0.07163393497467041,
                0.20549699664115906,
                -0.13881024718284607,
                0.18754619359970093,
                0.24606452882289886,
                -0.14878171682357788,
                0.16265201568603516,
                0.012621192261576653,
                0.07544007897377014,
                -0.13180114328861237,
                0.09022685885429382,
                0.08031342178583145,
                -0.0692400187253952,
                0.0792807787656784,
                0.12032124400138855,
                0.12947984039783478,
                0.03471806272864342,
                -0.2433384656906128,
                0.23086819052696228,
                -0.02777564898133278,
                -0.176328644156456,
                -0.032375626266002655,
                0.10119134932756424,
                0.08583451062440872,
                0.16156570613384247,
                -0.2746395170688629,
                -0.14947789907455444,
                -0.27374401688575745,
                0.18427938222885132,
                0.1760413646697998,
                0.06492314487695694,
                0.08669591695070267,
                -0.08748866617679596,
                -0.25963473320007324,
                0.19390138983726501,
                -0.0128651587292552,
                -0.20438529551029205,
                -0.04124143719673157,
                -0.04811115935444832,
                -0.2697167694568634,
                -0.2122940868139267,
                0.1910640448331833,
                -0.14918220043182373,
                0.140463188290596,
                -0.17922000586986542,
                -0.17667986452579498,
                0.18829947710037231,
                -0.15441343188285828,
                -0.13950848579406738,
                -0.1422399878501892,
                -0.2007392942905426,
                0.05312668904662132,
                0.09216693788766861,
                -0.059438157826662064,
                -0.2070225030183792,
                0.14350047707557678,
                0.08479835093021393,
                -0.13310565054416656,
                0.01533626951277256,
                -0.15583539009094238,
                0.03636540472507477,
                -0.2524580955505371,
                -0.2689436972141266,
                0.02422083355486393,
                0.2221033126115799,
                0.07627714425325394,
                0.02457600273191929,
                -0.13090579211711884,
                0.18879570066928864,
                0.20713289082050323,
                0.22554868459701538,
                0.04672767594456673,
                0.19735807180404663,
                -0.13779467344284058,
                -0.15097011625766754,
                0.0846453383564949,
                -0.2490181028842926,
                -0.25603780150413513,
                0.1443103849887848,
                -0.21431569755077362,
                0.13726022839546204,
                0.12711483240127563,
                -0.09388777613639832,
                0.20545580983161926,
                -0.15193037688732147,
                -0.18639147281646729,
                0.06584631651639938,
                0.2593139410018921,
                -0.14558352530002594,
                -0.21414898335933685,
                0.2511850893497467,
                -0.004783160984516144,
                0.2745722830295563,
                0.15970487892627716,
                -0.08933678269386292,
                0.22533851861953735,
                0.02488710545003414,
                0.23401594161987305,
                0.2806285321712494,
                0.2808317542076111,
                0.2572232782840729,
                0.164865180850029,
                -0.060582686215639114,
                -0.014590811915695667,
                0.1409604400396347,
                0.022777173668146133,
                -0.17821480333805084,
                -0.02981792762875557,
                -0.22082218527793884,
                -0.11316018551588058,
                -0.05380093678832054,
                -0.006799188908189535,
                -0.1317404806613922,
                0.06968420743942261,
                -0.0763818770647049,
                -0.003993245307356119,
                0.12235553562641144,
                -0.19994108378887177,
                0.09960206598043442,
                -0.2116464078426361,
                0.039301805198192596,
                0.16952276229858398,
                0.052935890853405,
                -0.18734925985336304,
                -0.07806279510259628,
                -0.07980671525001526,
                0.17642442882061005,
                0.013881624676287174,
                -0.15260860323905945,
                0.1251647025346756,
                -0.22809866070747375,
                0.1610100269317627,
                0.11456499993801117,
                0.23401661217212677,
                -0.10690909624099731,
                0.09863413870334625,
                0.024334264919161797,
                0.22480762004852295,
                0.05171295627951622,
                0.12225496023893356,
                -0.23507769405841827,
                -0.1410842090845108,
                0.12368201464414597,
                -0.011219861917197704,
                -0.18568432331085205,
                -0.11048133671283722,
                0.21731315553188324,
                0.22983747720718384,
                -0.1213955208659172,
                0.25025197863578796,
                -0.12045489996671677,
                -0.22491413354873657,
                0.030108420178294182,
                -0.12170115113258362,
                -0.22441622614860535,
                -0.2732006311416626,
                0.15490882098674774,
                -0.21579037606716156,
                -0.25627487897872925,
                0.17016135156154633,
                0.1031394824385643,
                0.07975220680236816,
                -0.05377844348549843,
                0.16350707411766052,
                -0.2043183594942093,
                0.20560865104198456,
                -0.12920774519443512,
                0.050739601254463196,
                0.16228729486465454,
                0.029707428067922592,
                0.019907642155885696,
                -0.27087077498435974,
                -0.08971695601940155,
                -0.25014716386795044,
                -0.1111474260687828,
                -0.024596741423010826,
                -0.20105677843093872,
                0.12030322104692459,
                0.21917761862277985,
                -0.1906963735818863,
                0.16397880017757416,
                -0.2048969715833664,
                0.15023697912693024,
                -0.17157909274101257,
                0.17732931673526764,
                0.16304995119571686,
                0.24561645090579987,
                0.07780952006578445,
                -0.11096645146608353,
                -0.048612870275974274,
                -0.02203172817826271,
                -0.02388262189924717,
                -0.050906702876091,
                0.18112708628177643,
                -0.0021558920852839947,
                -0.09388073533773422,
                0.26096248626708984,
                0.09710169583559036,
                0.10269177705049515,
                -0.2462967187166214,
                -0.27863678336143494,
                0.24474377930164337,
                -0.09217974543571472,
                0.1396927535533905,
                0.24100467562675476,
                0.26311635971069336,
                0.19381257891654968,
                0.08016309142112732,
                -0.2105712890625,
                0.08196559548377991,
                0.21955209970474243,
                -0.2750921845436096,
                -0.10076618194580078,
                0.25905099511146545,
                -0.20503264665603638,
                0.05433926731348038,
                0.13607552647590637,
                0.2369866520166397,
                0.21968694031238556,
                -0.10714025050401688,
                -0.188857764005661,
                -0.1765715479850769,
                -0.062151193618774414,
                -0.26847508549690247,
                0.2325463891029358,
                -0.1816103756427765,
                0.12374462187290192,
                -0.18634656071662903,
                0.044854290783405304,
                0.26700448989868164,
                0.20252858102321625,
                0.04732977971434593,
                -0.10092877596616745,
                -0.02664818987250328,
                0.0030651031993329525,
                0.01571701467037201,
                -0.02046458050608635,
                -0.20764468610286713,
                0.27316316962242126,
                -0.22368352115154266,
                -0.23755894601345062,
                -0.1389468014240265,
                -0.2060588002204895,
                -0.1069568619132042,
                0.24957576394081116,
                -0.03936326131224632,
                0.0748477578163147,
                0.2496061474084854,
                0.09469645470380783,
                0.2284427434206009,
                -0.08446834981441498,
                -0.18019798398017883,
                0.22345741093158722,
                0.14174404740333557,
                -0.015796096995472908,
                0.12312391400337219,
                0.1904299259185791,
                0.07521845400333405,
                -0.1322948932647705,
                0.26006200909614563,
                -0.09233861416578293,
                -0.01917353644967079,
                -0.16485795378684998,
                0.004055206198245287,
                -0.26858773827552795,
                0.010329375974833965,
                0.2273525446653366,
                -0.0076896632090210915,
                0.02930607832968235,
                0.2068561315536499,
                -0.19219791889190674,
                0.005126743111759424,
                0.15827588737010956,
                -0.03780500218272209,
                -0.0011261404724791646,
                -0.24489645659923553,
                -0.1275177299976349,
                0.1704738289117813,
                0.14000752568244934,
                -0.033222656697034836,
                -0.17265574634075165,
                0.12652850151062012,
                -0.20073248445987701,
                -0.1590309739112854,
                -0.08746705949306488,
                -0.027057185769081116,
                -0.2539196312427521,
                -0.15727616846561432,
                0.26598936319351196,
                0.0553089864552021,
                0.26839444041252136,
                0.2811746895313263,
                0.23445186018943787,
                -0.16734296083450317,
                -0.002862333320081234,
                -0.1307828724384308,
                -0.046657729893922806,
                0.07756035774946213,
                0.19804950058460236,
                0.17554925382137299,
                0.07873350381851196,
                -0.04407354071736336,
                -0.15346463024616241,
                0.04194383695721626,
                0.2287772297859192,
                -0.13017694652080536,
                0.01628659851849079,
                0.10908660292625427,
                0.19795970618724823,
                0.04040178284049034,
                -0.14697501063346863,
                0.2341698855161667,
                0.17456866800785065,
                -0.07946508377790451,
                -0.03412332758307457,
                0.1093878298997879,
                0.12133686989545822,
                -0.12278645485639572,
                0.23500581085681915,
                -0.00701934564858675,
                0.06042461842298508,
                0.09716816991567612,
                -0.268136590719223,
                0.152489572763443,
                -0.20439381897449493,
                0.18231511116027832,
                -0.06062282621860504,
                0.07336249947547913,
                0.00857522338628769,
                -0.08073996752500534,
                0.12181974947452545,
                -0.06369856745004654,
                0.2654172480106354,
                0.003609409788623452,
                0.25585418939590454,
                0.22819197177886963,
                -0.02835211530327797,
                -0.20535729825496674,
                -0.027536984533071518,
                -0.09361337125301361,
                0.017842592671513557,
                0.22831681370735168,
                0.11808226257562637,
                0.04767400771379471,
                -0.16475896537303925,
                -0.23695021867752075,
                0.2616976201534271,
                0.24470075964927673,
                0.08149188756942749,
                -0.24011731147766113,
                -0.07816187292337418,
                0.22519226372241974,
                -0.1059119701385498,
                0.17420580983161926,
                -0.23851026594638824,
                0.11141156405210495,
                -0.09393993765115738,
                -0.247489333152771,
                -0.15881863236427307,
                0.058482829481363297,
                -0.05130080133676529,
                -0.05117266997694969,
                -0.1376253217458725,
                -0.0773308128118515,
                -0.20444025099277496,
                -0.12973374128341675,
                -0.020126285031437874,
                -0.1081216111779213,
                0.0957927480340004,
                0.07416799664497375,
                0.19691364467144012,
                -0.2075057178735733,
                0.09667055308818817,
                0.090332992374897,
                0.2712053060531616,
                -0.15445151925086975,
                0.0003646945988293737,
                -0.01509300246834755,
                -0.1265789270401001,
                -0.19126982986927032,
                -0.2215806096792221,
                0.17492109537124634,
                0.08779947459697723,
                -0.27169451117515564,
                -0.03411150351166725,
                -0.24268688261508942,
                -0.09883593022823334,
                -0.14498253166675568,
                -0.07465960830450058,
                -0.17686977982521057,
                -0.130767822265625,
                -0.1037563607096672,
                -0.1435173600912094,
                -0.06406431645154953,
                -0.037465453147888184,
                0.05612380802631378,
                -0.04565334692597389,
                0.08066827058792114,
                0.17317388951778412,
                -0.17530950903892517,
                0.035853270441293716,
                -0.2044983059167862,
                0.13350436091423035,
                0.23127883672714233,
                0.06669533252716064,
                0.18920806050300598,
                -0.06702085584402084,
                0.16179519891738892,
                -0.23468276858329773,
                -0.25889188051223755,
                -0.2669152617454529,
                -0.1398475021123886,
                -0.003527532098814845,
                -0.020697176456451416,
                -0.20951083302497864,
                0.265808641910553,
                0.013777987100183964,
                -0.1321246325969696,
                -0.27712351083755493,
                -0.08401487022638321,
                0.2141607105731964,
                -0.06592842191457748,
                0.17622257769107819,
                -0.08169880509376526,
                0.037856243550777435,
                0.1896268129348755,
                0.023383449763059616,
                -0.1138220876455307,
                -0.20071785151958466,
                -0.19256141781806946,
                0.03441932052373886,
                -0.06337329000234604,
                -0.10342460870742798,
                -0.019359350204467773,
                0.17732015252113342,
                -0.1659281700849533,
                0.1507958173751831,
                0.01974286325275898,
                0.20529840886592865,
                0.25833064317703247,
                -0.19698581099510193,
                -0.04568445309996605,
                -0.19626760482788086,
                -0.27034318447113037,
                0.19100719690322876,
                0.16953670978546143,
                0.11648004502058029,
                0.18701814115047455,
                -0.2595643401145935,
                0.200575590133667,
                0.05059530586004257,
                0.2559008300304413,
                0.03282637149095535,
                0.07487214356660843,
                -0.19532038271427155,
                0.18110541999340057,
                0.23459090292453766,
                0.09227696061134338,
                -0.17521238327026367,
                -0.2783830761909485,
                -0.20338377356529236,
                0.15325497090816498,
                -0.06411303579807281,
                0.047389689832925797,
                0.025970278307795525,
                0.2736780047416687,
                0.20236489176750183,
                -0.08033190667629242,
                -0.21304121613502502,
                -0.09357041865587234,
                -0.13677652180194855,
                -0.2176460176706314,
                -0.02935137413442135,
                -0.21076595783233643,
                0.14661815762519836,
                -0.029343001544475555,
                0.022924182936549187,
                0.1018352285027504,
                0.25252750515937805,
                -0.21347765624523163,
                -0.02722233720123768,
                0.26733165979385376,
                -0.23637758195400238,
                -0.060563404113054276,
                0.27792415022850037,
                0.24394521117210388,
                -0.04141779616475105,
                0.22189129889011383,
                -0.025299882516264915,
                0.10447527468204498,
                -0.234349325299263,
                0.25724440813064575,
                -0.22967788577079773,
                -0.12785030901432037,
                0.1295408308506012,
                0.23758499324321747,
                0.2668300271034241,
                -0.2394668310880661,
                0.2529415190219879,
                0.1478838175535202,
                0.15872973203659058,
                -0.21886365115642548,
                0.2292586714029312,
                -0.2729688584804535,
                0.08444356173276901,
                -0.13793720304965973,
                0.00014263991033658385,
                -0.0858013927936554,
                -0.26854562759399414,
                0.1619127243757248,
                0.09980369359254837,
                0.24116407334804535,
                0.07211216539144516,
                -0.20684251189231873,
                -0.0012949215015396476,
                0.04722754657268524,
                -0.0704483762383461,
                0.08635006099939346,
                -0.043324995785951614,
                -0.0960516408085823,
                0.23915745317935944,
                -0.27523133158683777,
                0.0028829812072217464,
                -0.14927871525287628,
                -0.09209247678518295,
                -0.18811523914337158,
                0.167794868350029,
                -0.12176386266946793,
                -0.19253528118133545,
                0.13462810218334198,
                0.08000200986862183,
                -0.17710907757282257,
                -0.2620668113231659,
                0.2673752009868622,
                -0.005715004168450832,
                0.09793677181005478,
                -0.015930600464344025,
                0.05128936842083931,
                -0.10270772874355316,
                0.15427424013614655,
                0.15318183600902557,
                0.02385607920587063,
                0.13790805637836456,
                0.11462895572185516,
                -0.047278840094804764,
                0.19738876819610596,
                -0.25646090507507324,
                0.005655023735016584,
                -0.2628801763057709,
                0.038810696452856064,
                -0.2756975293159485,
                -0.2164783775806427,
                -0.22407393157482147,
                -0.07882090657949448,
                -0.02287706360220909,
                0.02330145612359047,
                0.17096824944019318,
                -0.16896866261959076,
                -0.026960136368870735,
                -0.07189769297838211,
                -0.09512742608785629,
                0.2542312741279602,
                -0.0252050943672657,
                -0.0461491197347641,
                -0.023474451154470444,
                0.22263434529304504,
                -0.11345700174570084,
                0.027257723733782768,
                -0.2337438315153122,
                -0.20324482023715973,
                -0.03646485507488251,
                0.00325895007699728,
                -0.013639613054692745,
                0.08137942850589752,
                0.286629855632782,
                0.15441736578941345,
                -0.2566946744918823,
                -0.03425992280244827,
                0.1493985503911972,
                0.0613812692463398,
                -0.018459079787135124,
                0.2718525230884552,
                -0.03919291868805885,
                -0.1185416504740715,
                0.19923211634159088,
                -0.0924815833568573,
                0.15860921144485474,
                0.127166286110878,
                -0.08068369328975677,
                0.18449190258979797,
                -0.17007000744342804,
                -0.18851451575756073,
                -0.13226503133773804,
                0.2462840974330902,
                0.26799559593200684,
                -0.19594696164131165,
                -0.10434598475694656,
                -0.1322997659444809,
                -0.06067477911710739,
                0.006635669618844986,
                0.06778991967439651,
                0.21597227454185486,
                0.11704634875059128,
                -0.13624164462089539,
                -0.057005297392606735,
                0.06673704087734222,
                -0.0853237435221672,
                0.23809264600276947,
                -0.029918765649199486,
                0.1905132383108139,
                -0.08744324743747711,
                -0.006507716607302427,
                -0.26877298951148987,
                0.0023786528035998344,
                -0.04995250701904297,
                0.24703146517276764,
                0.15318703651428223,
                -0.22801841795444489,
                0.043436188250780106,
                -0.023746728897094727,
                -0.15475080907344818,
                0.1719432920217514,
                0.08130880445241928,
                -0.2674140930175781,
                -0.07059825956821442,
                0.1713053286075592,
                0.08572052419185638,
                0.07005242258310318,
                0.14447295665740967,
                -0.01497001200914383,
                -0.1036953553557396,
                -0.020130354911088943,
                0.06844113022089005,
                -0.21419797837734222,
                0.10581828653812408,
                0.22329793870449066,
                0.036998916417360306,
                0.12630894780158997,
                0.08102435618638992,
                -0.12160948663949966,
                -0.04143470153212547,
                0.2102653831243515,
                -0.2748982608318329,
                -0.059969883412122726,
                -0.2461879998445511,
                -0.07282175868749619,
                -0.08538703620433807,
                0.07228056341409683,
                0.043200649321079254,
                -0.1196097582578659,
                0.16573426127433777,
                -0.006257552187889814,
                -0.25664734840393066,
                0.06115591526031494,
                0.25008708238601685,
                0.16481293737888336,
                -0.20736965537071228,
                -0.17863108217716217,
                0.2502698600292206,
                -0.1668665111064911,
                0.19547337293624878,
                -0.19370952248573303,
                -0.23683170974254608,
                -0.04545844718813896,
                0.09970445185899734,
                -0.2020111232995987,
                -0.02940266951918602,
                -0.01415952853858471,
                0.20752541720867157,
                -0.0013667966704815626,
                0.1493476778268814,
                -0.2529028356075287,
                0.04151654243469238,
                0.06613349169492722,
                0.1365470439195633,
                -0.17338207364082336,
                -0.21340599656105042,
                -0.13856886327266693,
                0.20831236243247986,
                0.19040518999099731,
                -0.1811857372522354,
                -0.16673268377780914,
                -0.19435788691043854,
                -0.1685849279165268,
                -0.0717640295624733,
                -0.025406137108802795,
                -0.1027207002043724,
                0.11918487399816513,
                -0.026337886229157448,
                -0.043005406856536865,
                0.013057943433523178,
                -0.1341015100479126,
                0.27297234535217285,
                0.025066737085580826,
                -0.12640249729156494,
                -0.028345560654997826,
                -0.12801097333431244,
                0.1181199699640274,
                -0.15759475529193878,
                0.08647461980581284,
                0.192397341132164,
                0.18457798659801483,
                -0.16612908244132996,
                0.06892909109592438,
                -0.2556318938732147,
                -0.09222357720136642,
                -0.0004434949660208076,
                0.10170358419418335,
                0.2031359076499939,
                -0.07590566575527191,
                0.0458807535469532,
                -0.1829785406589508,
                0.18750618398189545,
                0.13669058680534363,
                0.2577785849571228,
                -0.13034731149673462,
                0.11033182591199875,
                -0.04117954522371292,
                0.04755512252449989,
                0.16869209706783295,
                -0.025367235764861107,
                -0.2620810568332672,
                -0.23667012155056,
                -0.016662567853927612,
                -0.16983261704444885,
                0.23803836107254028,
                0.008492517285048962,
                -0.17783507704734802,
                -0.049706071615219116,
                0.23805361986160278,
                0.031234975904226303,
                0.2711300253868103,
                0.18483082950115204,
                0.2194884568452835,
                -0.1778186410665512,
                0.09516285359859467,
                0.16322940587997437,
                -0.06821822375059128,
                0.03692571073770523,
                -0.19359315931797028,
                0.015242328867316246,
                0.024104231968522072,
                -0.213490828871727,
                0.09335128217935562,
                0.1560574769973755,
                0.00798706989735365,
                0.016635792329907417,
                0.07529435306787491,
                -0.14231273531913757,
                0.027186498045921326,
                0.010058870539069176,
                -0.0888449028134346,
                -0.2214568704366684,
                0.24621771275997162,
                -0.07445020973682404,
                0.2586999535560608,
                0.08493923395872116,
                -0.07638345658779144,
                0.2561934292316437,
                -0.198887899518013,
                -0.07545629888772964,
                0.1167476549744606,
                -0.13565708696842194,
                -0.11565310508012772,
                -0.016295025125145912,
                0.16986024379730225,
                0.12004353851079941,
                -0.10384372621774673,
                -0.19892415404319763,
                0.18595318496227264,
                0.25473108887672424,
                0.06865020841360092,
                -0.13278357684612274,
                -0.2543134391307831,
                0.2357209473848343,
                -0.24486610293388367,
                -0.09477543085813522,
                -0.15903596580028534,
                0.15866561233997345,
                0.06252229958772659,
                0.22417610883712769,
                -0.07600045949220657,
                0.21570658683776855,
                -0.2053600400686264,
                -0.006845689378678799,
                0.09600023925304413,
                0.13585993647575378,
                -0.25914353132247925,
                -0.21818068623542786,
                -0.08019722253084183,
                0.09545193612575531,
                -0.00458370940759778,
                0.10492713004350662,
                -0.059548139572143555,
                0.18700304627418518,
                0.1732144057750702,
                -0.0774339884519577,
                -0.02882702648639679,
                -0.05907678231596947,
                0.21886056661605835,
                -0.06310057640075684,
                -0.14617405831813812,
                0.08586399257183075,
                0.23049350082874298,
                0.2560327351093292,
                -0.06563618034124374,
                -0.20740744471549988,
                -0.2671249806880951,
                -0.014914434403181076,
                0.14531096816062927,
                0.10618997365236282,
                -0.10875242948532104,
                -0.0980466976761818,
                0.06826816499233246,
                -0.16738152503967285,
                -0.1315789818763733,
                0.22636082768440247,
                -0.2160375565290451,
                -0.18670405447483063,
                -0.027854111045598984,
                -0.14781318604946136,
                0.18331612646579742,
                0.2156490981578827,
                -0.14821107685565948,
                0.17943695187568665,
                0.118174247443676,
                -0.13307778537273407,
                0.055699221789836884,
                0.14817965030670166,
                -0.06818044930696487,
                -0.1296740174293518,
                -0.1366000920534134,
                -0.2422313690185547,
                0.04236721247434616,
                0.003944400232285261,
                0.11584650725126266,
                0.2824460566043854,
                -0.193024143576622,
                -0.08674249053001404,
                -0.10200516879558563,
                -0.054693013429641724,
                -0.08472947031259537,
                -0.04891704395413399,
                -0.12777313590049744,
                0.17579521238803864,
