{
    "architecture": {
        "network_type": "SIREN",
        "layer_dimensions": [
            3,
            6,
            6,
            6,
            6,
            6,
            6,
            6,
            6,
            1
        ],
        "frequencies": 0,
        "original_values_bounds": [
            [
                -0.3499184250831604,
                3.0367188453674316
            ]
        ]
    },
    "parameters": {
        "l0_sinelayer_dense.kernel": {
            "data": [
                0.23377542197704315,
                0.2486206591129303,
                -0.1662321239709854,
                0.29580697417259216,
                -0.3623931407928467,
                -0.10898761451244354,
                0.5480899810791016,
                0.1373470574617386,
                0.23950707912445068,
                -0.44719165563583374,
                0.13625404238700867,
                0.0608287937939167,
                0.15739823877811432,
                -0.24866008758544922,
                0.08518962562084198,
                -0.028132231906056404,
                0.461937814950943,
                0.6157857775688171
            ],
            "dims": [
                3,
                6
            ]
        },
        "l0_sinelayer_dense.bias": {
            "data": [
                0.05190575495362282,
                0.17055538296699524,
                0.08759324252605438,
                0.03786598891019821,
                -0.05237891525030136,
                0.07386387139558792
            ],
            "dims": [
                6,
                1
            ]
        },
        "l1_sineblock_dense_a.kernel": {
            "data": [
                0.7732208371162415,
                -0.6006358861923218,
                -0.498908668756485,
                -0.4268936514854431,
                0.33339551091194153,
                0.0687921941280365,
                0.6392814517021179,
                -0.6098005175590515,
                0.3660125136375427,
                -0.643713653087616,
                -0.3537794053554535,
                0.6934835314750671,
                0.4306502044200897,
                -0.5510035157203674,
                0.27280643582344055,
                -0.8615896105766296,
                -0.11218349635601044,
                0.4323768615722656,
                -0.41635510325431824,
                0.5721511840820312,
                -0.13031740486621857,
                0.8261442184448242,
                0.7276080846786499,
                0.005932281259447336,
                -0.3992849588394165,
                0.48457542061805725,
                0.5496161580085754,
                0.07878410816192627,
                0.18933960795402527,
                0.6329848766326904,
                0.43657147884368896,
                -0.01160808838903904,
                -0.2058473527431488,
                0.597995936870575,
                -0.0783403068780899,
                -0.16440869867801666
            ],
            "dims": [
                6,
                6
            ]
        },
        "l1_sineblock_dense_a.bias": {
            "data": [
                -0.044614795595407486,
                -0.13733868300914764,
                0.04616047814488411,
                -0.022175630554556847,
                0.04626539722084999,
                -0.03788571059703827
            ],
            "dims": [
                6,
                1
            ]
        },
        "l1_sineblock_dense_b.kernel": {
            "data": [
                0.04339142516255379,
                0.17757348716259003,
                -0.6639938354492188,
                0.11582202464342117,
                -0.4725772738456726,
                0.05811818316578865,
                0.695382833480835,
                0.015023504383862019,
                0.46128812432289124,
                0.41511937975883484,
                -0.3682089149951935,
                -0.5206348896026611,
                -0.2773350775241852,
                0.5880703926086426,
                0.5471518635749817,
                -0.23185810446739197,
                0.7821243405342102,
                0.5399057269096375,
                0.6432939171791077,
                0.18058450520038605,
                -0.39164572954177856,
                -0.24018625915050507,
                0.43841812014579773,
                -0.05532741919159889,
                0.06597764045000076,
                -0.2174794226884842,
                -0.4469219744205475,
                0.5838863253593445,
                0.32099488377571106,
                0.6844808459281921,
                -0.34995225071907043,
                -0.6801524758338928,
                -0.43719974160194397,
                -0.2268523871898651,
                -0.5542148351669312,
                0.016231948509812355
            ],
            "dims": [
                6,
                6
            ]
        },
        "l1_sineblock_dense_b.bias": {
            "data": [
                -0.06704313308000565,
                0.0376957431435585,
                0.07706191390752792,
                0.03904906287789345,
                -0.007373735774308443,
                0.1419306844472885
            ],
            "dims": [
                6,
                1
            ]
        },
        "l2_sineblock_dense_a.kernel": {
            "data": [
                -0.03884575888514519,
                -0.06921787559986115,
                0.3592783212661743,
                -0.2437705099582672,
                -0.08836545795202255,
                0.2687237858772278,
                0.3845597803592682,
                -0.2875096797943115,
                -0.4536377787590027,
                0.538768470287323,
                -0.3062538206577301,
                0.32998669147491455,
                -0.03372513875365257,
                0.5343694686889648,
                0.3668690323829651,
                0.3785553276538849,
                -0.32634568214416504,
                0.3314557373523712,
                -0.15827491879463196,
                -0.30705076456069946,
                0.5034756064414978,
                0.6477211713790894,
                0.3622104525566101,
                -0.3263140618801117,
                0.6554027795791626,
                -0.2724536657333374,
                -0.5401886701583862,
                0.30034568905830383,
                -0.1274539679288864,
                0.3782000243663788,
                0.7329584360122681,
                0.29855117201805115,
                -0.48661789298057556,
                -0.2562999427318573,
                -0.17780424654483795,
                -0.48871758580207825
            ],
            "dims": [
                6,
                6
            ]
        },
        "l2_sineblock_dense_a.bias": {
            "data": [
                0.059242188930511475,
                -0.00779822189360857,
                0.06724642962217331,
                0.10445374250411987,
                -0.07986460626125336,
                0.004717081785202026
            ],
            "dims": [
                6,
                1
            ]
        },
        "l2_sineblock_dense_b.kernel": {
            "data": [
                0.4290824830532074,
                0.5427709817886353,
                -0.0352381095290184,
                0.3438303470611572,
                -0.05172300711274147,
                0.2811836004257202,
                0.2845537066459656,
                -0.011576465331017971,
                0.6742653250694275,
                -0.47826653718948364,
                0.6697791218757629,
                0.2985530495643616,
                -0.06957577913999557,
                0.15271803736686707,
                0.2691566050052643,
                0.30621078610420227,
                -0.566521406173706,
                0.08551380783319473,
                -0.6283836364746094,
                0.2568715214729309,
                0.3743587136268616,
                0.15101011097431183,
                -0.5866620540618896,
                0.11171544343233109,
                0.5144901871681213,
                -0.44603264331817627,
                -0.534798264503479,
                -0.1477167308330536,
                0.4868265688419342,
                -0.6372389793395996,
                -0.0030536854173988104,
                -0.06340218335390091,
                0.2635676860809326,
                0.14264313876628876,
                -0.42973706126213074,
                0.3586779534816742
            ],
            "dims": [
                6,
                6
            ]
        },
        "l2_sineblock_dense_b.bias": {
            "data": [
                -0.01148323155939579,
                0.014341467060148716,
                0.03542904555797577,
                -0.011006325483322144,
                -0.02044573239982128,
                0.10766298323869705
            ],
            "dims": [
                6,
                1
            ]
        },
        "l3_sineblock_dense_a.kernel": {
            "data": [
                0.39380934834480286,
                0.33912456035614014,
                0.46252891421318054,
                0.4137232005596161,
                -0.4632827043533325,
                0.30903756618499756,
                -0.29083821177482605,
                0.04976554587483406,
                -0.42769473791122437,
                0.3182055950164795,
                0.2915867865085602,
                -0.488620400428772,
                -0.13519075512886047,
                -0.4083883464336395,
                0.16500718891620636,
                -0.04251418635249138,
                -0.5840568542480469,
                0.5944240689277649,
                -0.6007677316665649,
                -0.03590751811861992,
                0.6380122303962708,
                -0.13832256197929382,
                -0.38566070795059204,
                0.7776837944984436,
                -0.012119699269533157,
                -0.4134667217731476,
                -0.0678073912858963,
                -0.6086105108261108,
                -0.3809530735015869,
                0.45697644352912903,
                -0.2764602303504944,
                -0.007552493829280138,
                0.45831140875816345,
                0.7702991366386414,
                0.5617793202400208,
                -0.6745879650115967
            ],
            "dims": [
                6,
                6
            ]
        },
        "l3_sineblock_dense_a.bias": {
            "data": [
                0.034925829619169235,
                -0.0010095698526129127,
                -0.016630377620458603,
                0.007737536448985338,
                -0.05828545242547989,
                -0.0745854526758194
            ],
            "dims": [
                6,
                1
            ]
        },
        "l3_sineblock_dense_b.kernel": {
            "data": [
                0.2684110105037689,
                -0.25726667046546936,
                0.5216051936149597,
                0.4810831546783447,
                0.10636347532272339,
                -0.09542318433523178,
                -0.705256998538971,
                -0.8367684483528137,
                -0.598753035068512,
                -0.31154710054397583,
                -0.3201500177383423,
                0.7042872905731201,
                0.40577343106269836,
                -0.3584306240081787,
                -0.5183945894241333,
                0.1541808843612671,
                -0.06548808515071869,
                -0.15448902547359467,
                0.7793340086936951,
                -0.06310112029314041,
                -0.6525102257728577,
                0.1888374388217926,
                0.5435142517089844,
                -0.014059721492230892,
                -0.06450726091861725,
                -0.2516182065010071,
                -0.4683915376663208,
                -0.3628971576690674,
                0.9723551869392395,
                -0.5881614089012146,
                0.4776589274406433,
                -0.10278604179620743,
                0.13563711941242218,
                -0.306938111782074,
                -0.8005363941192627,
                -0.31776049733161926
            ],
            "dims": [
                6,
                6
            ]
        },
        "l3_sineblock_dense_b.bias": {
            "data": [
                0.04360535368323326,
                -0.006111431401222944,
                0.04973909631371498,
                0.0050868927501142025,
                0.012332789599895477,
                0.05649948492646217
            ],
            "dims": [
                6,
                1
            ]
        },
        "l4_sineblock_dense_a.kernel": {
            "data": [
                -0.3807150423526764,
                -0.7033458948135376,
                0.6560375094413757,
                0.08516203612089157,
                0.5964067578315735,
                0.32662051916122437,
                -0.08727869391441345,
                0.2663501501083374,
                0.3998394012451172,
                -0.14188386499881744,
                -0.5831068754196167,
                0.3205922245979309,
                0.38857483863830566,
                0.01936507225036621,
                -0.47690826654434204,
                0.47106823325157166,
                -0.025736063718795776,
                -0.7175741791725159,
                -0.08976460248231888,
                0.4623987674713135,
                -0.09236706793308258,
                -0.5317805409431458,
                -0.5944510698318481,
                0.3894954323768616,
                0.26814815402030945,
                0.27475783228874207,
                -0.08242932707071304,
                -0.659191906452179,
                0.708691418170929,
                0.2753727436065674,
                -0.6938273310661316,
                -0.3986179232597351,
                -0.047176212072372437,
                -0.5830367207527161,
                -0.4041185677051544,
                0.7304357290267944
            ],
            "dims": [
                6,
                6
            ]
        },
        "l4_sineblock_dense_a.bias": {
            "data": [
                -0.04153263568878174,
                -0.020277217030525208,
                -0.03942885249853134,
                0.008607188239693642,
                -0.05730235576629639,
                -0.007194902747869492
            ],
            "dims": [
                6,
                1
            ]
        },
        "l4_sineblock_dense_b.kernel": {
            "data": [
                0.13654491305351257,
                -0.5137342214584351,
                -0.45103803277015686,
                0.6494953632354736,
                0.6820637583732605,
                -0.3503624498844147,
                0.915470540523529,
                0.3359661102294922,
                0.054726723581552505,
                0.08933796733617783,
                0.6754047274589539,
                -0.5249477624893188,
                -0.4600897431373596,
                -0.8199790120124817,
                -0.1933959275484085,
                0.6397596001625061,
                -0.0040518781170248985,
                -0.3866747319698334,
                0.3588566482067108,
                -0.11070994287729263,
                -0.4607672691345215,
                -0.481367290019989,
                -0.12988191843032837,
                -0.012863515876233578,
                0.17120778560638428,
                -0.31654757261276245,
                0.5582770109176636,
                0.6611086130142212,
                -0.2220887839794159,
                -0.5573365092277527,
                -0.3914017677307129,
                0.6147646307945251,
                0.0499187596142292,
                0.4995887577533722,
                0.2824855446815491,
                -0.33770379424095154
            ],
            "dims": [
                6,
                6
            ]
        },
        "l4_sineblock_dense_b.bias": {
            "data": [
                0.058799684047698975,
                -0.009250471368432045,
                -0.062208764255046844,
                -0.03879544511437416,
                -0.10147175192832947,
                0.06137288361787796
            ],
            "dims": [
                6,
                1
            ]
        },
        "l5_sineblock_dense_a.kernel": {
            "data": [
                -0.39134907722473145,
                -0.06315441429615021,
                -0.420246422290802,
                -0.5750105977058411,
                -0.5488556027412415,
                -0.26043030619621277,
                0.6558638215065002,
                -0.3923414945602417,
                -0.37011632323265076,
                0.4384991526603699,
                0.3476806879043579,
                -0.171352356672287,
                -0.25559449195861816,
                -0.02432180941104889,
                -0.09014634788036346,
                0.4847686290740967,
                0.3933488428592682,
                -0.2428123950958252,
                0.08052732795476913,
                0.7124912738800049,
                -0.6820676326751709,
                0.19566695392131805,
                -0.09256471693515778,
                -0.30344057083129883,
                -0.2204064279794693,
                0.11534985154867172,
                -0.39344364404678345,
                0.3996533751487732,
                -0.6416943669319153,
                0.3319753408432007,
                -0.4225326478481293,
                -0.637622058391571,
                -0.28149065375328064,
                -0.33994245529174805,
                0.4545452892780304,
                0.1458643674850464
            ],
            "dims": [
                6,
                6
            ]
        },
        "l5_sineblock_dense_a.bias": {
            "data": [
                0.0070653753355145454,
                -0.08957260102033615,
                -0.10710906982421875,
                0.06452064961194992,
                0.09310980886220932,
                -0.013573681935667992
            ],
            "dims": [
                6,
                1
            ]
        },
        "l5_sineblock_dense_b.kernel": {
            "data": [
                0.28713586926460266,
                -0.2698642313480377,
                -0.0755699872970581,
                -0.8411211371421814,
                -0.33583712577819824,
                -0.7608544230461121,
                0.09320507198572159,
                1.0027456283569336,
                -0.5534424185752869,
                0.5141313672065735,
                -0.8702576160430908,
                -0.6960302591323853,
                -0.3831612765789032,
                0.04461173713207245,
                -0.3589206039905548,
                -0.07449299842119217,
                -0.4109265208244324,
                0.4673765301704407,
                0.6113608479499817,
                -0.09769934415817261,
                -0.145891472697258,
                0.08209925144910812,
                -0.15286220610141754,
                -0.61350417137146,
                -0.4203881323337555,
                -0.5736794471740723,
                0.36545905470848083,
                -0.41230475902557373,
                -0.7730647921562195,
                0.24101665616035461,
                0.510134756565094,
                -0.2888810932636261,
                -0.40321099758148193,
                -0.27757546305656433,
                -0.3278680145740509,
                -0.40530261397361755
            ],
            "dims": [
                6,
                6
            ]
        },
        "l5_sineblock_dense_b.bias": {
            "data": [
                -0.03405820205807686,
                -0.07856663316488266,
                -0.12736324965953827,
                0.014253237284719944,
                0.020391851663589478,
                0.08017388731241226
            ],
            "dims": [
                6,
                1
            ]
        },
        "l6_sineblock_dense_a.kernel": {
            "data": [
                0.55451500415802,
                -0.01651991903781891,
                0.6731361150741577,
                -0.2560761570930481,
                -0.6714295744895935,
                -0.2895406186580658,
                0.5962321758270264,
                0.8268929719924927,
                0.34005457162857056,
                -0.24766601622104645,
                0.3839995861053467,
                0.021377617493271828,
                0.05964198708534241,
                -0.2687889039516449,
                -0.42024558782577515,
                0.05379054695367813,
                -0.22883179783821106,
                -0.7051407694816589,
                -0.7279448509216309,
                -0.23891817033290863,
                0.7469834685325623,
                0.25467124581336975,
                -0.10265710949897766,
                -0.05079824477434158,
                0.41335389018058777,
                -0.1822633147239685,
                0.1759909838438034,
                -0.15048682689666748,
                -0.4848667085170746,
                -0.5461521744728088,
                -0.7702203392982483,
                -0.35301288962364197,
                -0.07270196825265884,
                -0.4176608622074127,
                0.6267854571342468,
                -0.8298496007919312
            ],
            "dims": [
                6,
                6
            ]
        },
        "l6_sineblock_dense_a.bias": {
            "data": [
                0.4237286448478699,
                -0.023047760128974915,
                -0.003735461039468646,
                -0.04415830969810486,
                -0.07389886677265167,
                0.1343930959701538
            ],
            "dims": [
                6,
                1
            ]
        },
        "l6_sineblock_dense_b.kernel": {
            "data": [
                0.24864768981933594,
                -0.15512481331825256,
                0.6029202938079834,
                0.45276588201522827,
                -0.1594744175672531,
                0.14186321198940277,
                0.11526663601398468,
                -1.1167961359024048,
                -0.9009290933609009,
                0.6609382629394531,
                0.5112056136131287,
                0.3691430687904358,
                0.35028621554374695,
                0.22183169424533844,
                -0.15663447976112366,
                -0.08011166751384735,
                0.46583619713783264,
                -0.7526535391807556,
                0.33393362164497375,
                -0.06782618165016174,
                0.24570682644844055,
                -0.3946795165538788,
                -0.6041356325149536,
                -0.2682030498981476,
                0.26152515411376953,
                -0.6443601250648499,
                -0.38247427344322205,
                -0.5167755484580994,
                0.49063077569007874,
                -0.2096211463212967,
                0.6411900520324707,
                0.6841278076171875,
                -0.12255551666021347,
                -0.6607524752616882,
                0.3960622251033783,
                0.48949769139289856
            ],
            "dims": [
                6,
                6
            ]
        },
        "l6_sineblock_dense_b.bias": {
            "data": [
                0.024973860010504723,
                -0.20546650886535645,
                -0.16632810235023499,
                0.20054379105567932,
                0.015060750767588615,
                0.021476639434695244
            ],
            "dims": [
                6,
                1
            ]
        },
        "l7_sineblock_dense_a.kernel": {
            "data": [
                -0.4782271981239319,
                0.30690768361091614,
                0.6577686071395874,
                0.3149489462375641,
                -0.1745252013206482,
                0.12692318856716156,
                0.5614126920700073,
                0.1822635382413864,
                0.37410441040992737,
                -0.27440398931503296,
                0.7451827526092529,
                0.48156267404556274,
                -0.8729581236839294,
                0.20351986587047577,
                -0.35040271282196045,
                -0.13310544192790985,
                0.4986433684825897,
                0.38083088397979736,
                0.470588743686676,
                0.39507079124450684,
                -0.024842754006385803,
                0.5854299664497375,
                0.3890812397003174,
                0.35378170013427734,
                -0.15793685615062714,
                0.16701513528823853,
                -0.2325516790151596,
                -0.013589804992079735,
                0.7116065621376038,
                -0.4028938114643097,
                0.5126384496688843,
                0.8344748616218567,
                0.10514318197965622,
                -0.6655720472335815,
                0.2335129827260971,
                0.46346530318260193
            ],
            "dims": [
                6,
                6
            ]
        },
        "l7_sineblock_dense_a.bias": {
            "data": [
                0.06431275606155396,
                0.02591273933649063,
                0.16067492961883545,
                -0.19096000492572784,
                -0.08435006439685822,
                0.01437572855502367
            ],
            "dims": [
                6,
                1
            ]
        },
        "l7_sineblock_dense_b.kernel": {
            "data": [
                -0.31852078437805176,
                -0.25908735394477844,
                0.4283202588558197,
                -0.44474586844444275,
                0.3872944414615631,
                0.0018606019439175725,
                0.5790583491325378,
                -0.6321017742156982,
                0.8016435503959656,
                -0.13309666514396667,
                0.6017680764198303,
                0.17413614690303802,
                -0.15554100275039673,
                0.050508882850408554,
                0.013520768843591213,
                -0.5785443186759949,
                0.382431298494339,
                -0.06989605724811554,
                -0.4339982271194458,
                0.4511430263519287,
                -0.5246372222900391,
                -0.2859482765197754,
                0.3762102723121643,
                -0.41785547137260437,
                0.4180024564266205,
                0.41376540064811707,
                -0.02856433019042015,
                0.4702223241329193,
                -0.19365526735782623,
                -0.4379972219467163,
                -0.536152720451355,
                0.3902439773082733,
                0.4548184275627136,
                0.6522781848907471,
                -0.23165908455848694,
                0.07410100102424622
            ],
            "dims": [
                6,
                6
            ]
        },
        "l7_sineblock_dense_b.bias": {
            "data": [
                -0.05513843894004822,
                -0.08451760560274124,
                -0.0020462346728891134,
                0.02484026923775673,
                0.07773365080356598,
                0.08594553917646408
            ],
            "dims": [
                6,
                1
            ]
        },
        "l8_sineblock_dense_a.kernel": {
            "data": [
                -0.36637160181999207,
                0.05611231550574303,
                -0.5296791195869446,
                0.4590722620487213,
                -0.6966404318809509,
                -0.8352774381637573,
                -0.5836417078971863,
                0.4677407145500183,
                0.3028198778629303,
                -0.08909063041210175,
                -0.056097131222486496,
                -0.2530951201915741,
                1.0841532945632935,
                -0.26227229833602905,
                -0.772214949131012,
                -0.13295234739780426,
                -0.006912814453244209,
                -0.7135358452796936,
                -0.42337867617607117,
                -0.07377034425735474,
                0.1028149276971817,
                0.29597562551498413,
                0.35481178760528564,
                -0.34729212522506714,
                -0.02673673816025257,
                0.006152729969471693,
                -0.3359208405017853,
                0.17403635382652283,
                0.7061863541603088,
                0.3257511258125305,
                0.3902314305305481,
                0.37215811014175415,
                0.6346145272254944,
                -0.24154146015644073,
                0.7302958369255066,
                0.5454708933830261
            ],
            "dims": [
                6,
                6
            ]
        },
        "l8_sineblock_dense_a.bias": {
            "data": [
                0.02786433696746826,
                0.09184084832668304,
                0.10319235920906067,
                0.07654868066310883,
                0.018154246732592583,
                0.027249909937381744
            ],
            "dims": [
                6,
                1
            ]
        },
        "l8_sineblock_dense_b.kernel": {
            "data": [
                -0.17788046598434448,
                -0.04960406571626663,
                0.5697300434112549,
                0.5091162323951721,
                0.7763937711715698,
                -0.4776344895362854,
                -0.2088775485754013,
                -0.10833068937063217,
                0.19743800163269043,
                0.602598249912262,
                0.6274458169937134,
                -0.19310058653354645,
                -0.06713568419218063,
                -0.27218806743621826,
                0.5021759271621704,
                0.28179696202278137,
                0.7145960927009583,
                0.3829588294029236,
                -0.31813719868659973,
                0.010072513483464718,
                -0.46674126386642456,
                -0.39328086376190186,
                0.29138320684432983,
                0.28504252433776855,
                -0.748993456363678,
                -0.4793327748775482,
                0.44405242800712585,
                1.0875126123428345,
                -0.031057007610797882,
                0.8799146413803101,
                0.3141288459300995,
                -0.20843994617462158,
                -0.09522169083356857,
                -0.154578298330307,
                -0.05156039074063301,
                -0.41873833537101746
            ],
            "dims": [
                6,
                6
            ]
        },
        "l8_sineblock_dense_b.bias": {
            "data": [
                -0.09010636061429977,
                -0.07890594750642776,
                0.261674165725708,
                0.10231811553239822,
                0.07932577282190323,
                0.06596211344003677
            ],
            "dims": [
                6,
                1
            ]
        },
        "l9_output.kernel": {
            "data": [
                -0.9935668706893921,
                -0.9300183653831482,
                0.5208292007446289,
                0.6552072763442993,
                0.9933757185935974,
                0.8605698943138123
            ],
            "dims": [
                6,
                1
            ]
        },
        "l9_output.bias": {
            "data": [
                0.07129594683647156
            ],
            "dims": [
                1,
                1
            ]
        }
    }
}